{
  "InputNeurons":784,
  "HiddenNeurons":30,
  "OutputNeurons":10,
  "HiddenBiases" : [
    1.274250,
    0.275497,
    -1.552567,
    1.682309,
    -4.213223,
    0.303068,
    -2.602889,
    1.402144,
    -3.912617,
    7.362464,
    2.774852,
    0.381109,
    -2.362314,
    4.974881,
    -3.317765,
    1.854719,
    2.363994,
    -5.650743,
    0.506610,
    1.199934,
    -2.156316,
    0.152508,
    3.606055,
    0.603272,
    -1.141086,
    -0.006914,
    1.287951,
    -0.593755,
    -3.399441,
    3.235694
  ],
  "HiddenWeights" : [
    1.386661,
    0.679253,
    1.554808,
    0.993867,
    -0.060489,
    1.213975,
    0.763314,
    0.071918,
    1.349357,
    -0.285939,
    0.360679,
    -1.090796,
    1.535948,
    -0.089982,
    0.803768,
    1.736935,
    1.440163,
    -1.051324,
    -0.080000,
    -0.052640,
    -0.550799,
    0.303713,
    0.061163,
    0.158049,
    1.483309,
    0.646960,
    -0.904438,
    -1.120349,
    -1.483616,
    0.990470,
    -2.350933,
    -2.006172,
    0.392027,
    0.991928,
    -1.430495,
    -1.687251,
    -0.856531,
    -0.754596,
    -1.389990,
    -2.211988,
    -0.819798,
    0.453224,
    -0.459347,
    -0.555546,
    0.299868,
    -0.966982,
    1.674191,
    1.826456,
    -0.834099,
    2.045134,
    -0.220160,
    -0.038225,
    -0.224932,
    0.202661,
    -0.458587,
    -1.247301,
    -1.012754,
    0.027157,
    -0.798455,
    -1.302185,
    0.226451,
    -1.482422,
    -0.750713,
    -2.444184,
    -1.779351,
    -1.036945,
    0.955046,
    -2.442315,
    -1.645470,
    -0.651589,
    -2.036034,
    0.263978,
    -1.693391,
    -0.644449,
    -1.385916,
    1.311652,
    0.814290,
    0.422006,
    -0.756158,
    0.465608,
    -1.807860,
    0.239324,
    0.514808,
    1.076161,
    0.721055,
    -1.689163,
    1.097809,
    1.212402,
    1.296635,
    0.532915,
    0.103358,
    -1.775291,
    -1.148731,
    -0.692927,
    0.548540,
    1.018979,
    -1.442567,
    -1.987178,
    -1.041545,
    -2.254170,
    -0.956406,
    -1.463332,
    -0.324913,
    0.179752,
    -1.535680,
    -0.777951,
    0.038517,
    -0.709296,
    2.229244,
    -2.154647,
    -0.854638,
    -1.282047,
    -1.109116,
    0.627063,
    -1.634021,
    -0.912564,
    -0.649801,
    -1.173199,
    -0.500717,
    2.639429,
    0.293994,
    -1.267603,
    -0.729928,
    0.043095,
    -1.043988,
    -1.401371,
    -3.190400,
    -0.998230,
    -1.470273,
    -1.049988,
    -0.032046,
    -1.558531,
    1.216790,
    1.328328,
    -1.048108,
    -0.110411,
    -0.653237,
    -0.575351,
    3.155339,
    -0.333787,
    0.280087,
    -0.155725,
    1.257945,
    0.909770,
    1.718140,
    1.031367,
    1.174657,
    -0.548995,
    -0.196250,
    0.358540,
    -1.129486,
    -0.230028,
    0.858491,
    -1.207438,
    -1.441971,
    -0.178329,
    -1.595860,
    -1.203773,
    -0.764170,
    -1.838013,
    -0.380341,
    -1.977297,
    -0.170064,
    -0.233295,
    -0.265420,
    -0.166940,
    -1.825684,
    0.313317,
    0.788889,
    -0.555428,
    1.075846,
    0.296368,
    0.299941,
    0.036257,
    -0.430255,
    -0.365142,
    1.247735,
    1.453486,
    -0.504142,
    1.141572,
    1.915264,
    -0.612905,
    1.467943,
    -0.978393,
    -0.380663,
    1.423806,
    1.252742,
    0.831862,
    0.164692,
    0.576107,
    0.419457,
    -0.799377,
    -1.013839,
    0.905329,
    -0.674175,
    1.034953,
    -0.472496,
    0.679879,
    1.011462,
    -0.967163,
    -0.739815,
    0.048120,
    -2.385704,
    -0.391693,
    -0.290602,
    0.433739,
    0.980050,
    0.333342,
    1.948698,
    0.116830,
    0.928493,
    0.740053,
    0.236831,
    1.095854,
    -0.469999,
    -0.590244,
    -0.081105,
    1.037084,
    0.747312,
    -1.873587,
    0.373569,
    0.448084,
    -0.321104,
    -1.302326,
    0.892944,
    0.252203,
    0.086356,
    0.381869,
    1.269089,
    2.792784,
    -1.090983,
    0.859731,
    -0.127933,
    0.315338,
    -1.200284,
    1.297640,
    -1.270267,
    0.166458,
    0.709540,
    -0.576029,
    0.063866,
    -0.628270,
    0.630452,
    0.021622,
    -0.688092,
    0.018528,
    -0.280423,
    0.365591,
    0.127133,
    -1.133741,
    0.580125,
    1.070877,
    1.146741,
    -0.493596,
    -0.251064,
    1.466996,
    1.736497,
    1.962992,
    2.714449,
    0.258934,
    1.124534,
    2.107097,
    0.071761,
    1.507094,
    1.794259,
    -0.292344,
    -0.768020,
    0.682197,
    1.969071,
    2.831187,
    1.101384,
    0.840929,
    2.224424,
    0.619818,
    0.491842,
    -0.740888,
    -2.163832,
    -1.237324,
    -1.600238,
    0.896145,
    0.052778,
    1.570982,
    -0.962480,
    1.063739,
    -0.370387,
    1.031631,
    -0.773091,
    -1.752188,
    -0.740790,
    1.443961,
    -1.198416,
    -0.344550,
    -0.979907,
    1.485098,
    -1.258839,
    1.186930,
    -0.469218,
    0.173164,
    0.842738,
    0.902678,
    1.337201,
    0.770409,
    0.373053,
    -2.611668,
    -1.049037,
    -1.246575,
    -0.157766,
    -0.702409,
    -0.506687,
    -1.587549,
    0.336718,
    0.642309,
    3.559437,
    1.472780,
    -0.816808,
    -0.017312,
    -0.703064,
    0.377845,
    0.016539,
    1.203209,
    1.874424,
    -1.543540,
    -1.696469,
    1.991358,
    1.219750,
    1.047810,
    0.979312,
    0.314064,
    -0.231937,
    0.560263,
    1.638241,
    -2.149575,
    -3.284878,
    -0.123789,
    0.817033,
    -1.270669,
    0.261406,
    -0.606113,
    -0.201403,
    -0.405025,
    1.976099,
    0.688739,
    -0.109078,
    1.163858,
    0.056078,
    -0.177778,
    0.994513,
    -1.034437,
    -1.288286,
    -2.112633,
    0.804590,
    2.675130,
    1.069040,
    1.927316,
    2.282224,
    0.310953,
    1.197568,
    -0.097123,
    0.762585,
    -1.520715,
    -2.227062,
    -1.252719,
    -0.577108,
    0.218435,
    -0.266234,
    0.793494,
    -0.243656,
    -2.632362,
    1.029098,
    2.583930,
    2.404119,
    2.757651,
    0.803979,
    -1.918661,
    0.745586,
    -0.602459,
    -0.886069,
    0.162414,
    0.144751,
    2.550134,
    1.138362,
    1.765600,
    0.225230,
    2.223212,
    1.064780,
    2.021893,
    -0.386259,
    -1.856501,
    -4.439457,
    -1.148239,
    -0.661507,
    -1.359752,
    0.047442,
    2.510300,
    1.239312,
    0.781799,
    1.555889,
    3.749207,
    1.741397,
    1.293798,
    -0.664065,
    -0.452771,
    -0.323544,
    -0.628770,
    -1.030316,
    0.750162,
    -2.752596,
    1.127227,
    1.125500,
    1.806055,
    0.763425,
    1.526882,
    0.743896,
    2.190978,
    0.935312,
    0.374725,
    0.098836,
    -1.187034,
    -0.086282,
    0.656103,
    0.752470,
    -0.226118,
    1.437593,
    -0.253826,
    1.819972,
    1.981407,
    1.244403,
    -0.955325,
    0.816851,
    -0.030769,
    0.140556,
    1.184738,
    0.196680,
    -0.132256,
    -1.638812,
    2.472870,
    1.413656,
    1.236076,
    1.403247,
    2.789132,
    1.349041,
    1.527255,
    -0.010012,
    -0.097307,
    -1.511577,
    0.266864,
    -1.680361,
    -0.738439,
    -0.627492,
    -0.110164,
    1.702055,
    0.741181,
    0.003715,
    -1.405278,
    -0.875833,
    1.071580,
    2.352996,
    -0.874289,
    0.079902,
    -0.912487,
    0.125127,
    -2.209373,
    0.721115,
    0.286830,
    1.276962,
    0.309998,
    1.240886,
    0.289263,
    -1.228453,
    -0.506014,
    -1.153184,
    -3.411516,
    -1.872201,
    0.154619,
    -0.442192,
    0.698834,
    -0.720100,
    -1.421386,
    -0.918962,
    -1.280500,
    -0.430262,
    -1.361343,
    -1.497563,
    -0.298979,
    0.676878,
    -0.310786,
    -1.676076,
    0.874136,
    0.010643,
    1.101272,
    -0.825188,
    0.404608,
    0.785095,
    1.639184,
    0.619230,
    -0.021462,
    -1.426795,
    0.007179,
    -1.273282,
    -3.233045,
    -3.226564,
    -0.701171,
    -1.877358,
    0.191366,
    -0.164750,
    -0.008672,
    0.942587,
    -2.101321,
    -2.241876,
    -2.850874,
    -2.954085,
    -1.561176,
    -1.296800,
    0.189063,
    1.605879,
    0.013663,
    -1.402213,
    0.585150,
    -0.986521,
    1.612884,
    -0.076876,
    -1.215179,
    -1.137012,
    0.991210,
    -0.672257,
    -1.357750,
    -2.631022,
    -4.483069,
    -0.645217,
    0.089275,
    -0.261296,
    2.293541,
    0.725519,
    1.207236,
    0.085152,
    0.386986,
    -2.116549,
    -0.995671,
    -2.152522,
    -4.275142,
    -3.707027,
    -3.746536,
    -2.732167,
    -2.694644,
    -2.455037,
    -0.225588,
    0.038685,
    -1.221321,
    -1.029428,
    0.289240,
    -0.481197,
    -2.489380,
    -1.748139,
    -1.632921,
    -3.280446,
    -5.809478,
    -2.734388,
    -2.804639,
    0.769057,
    0.665471,
    0.634801,
    0.026972,
    -0.406474,
    -0.718293,
    -1.102304,
    -3.279655,
    -3.012010,
    -2.149976,
    -3.002707,
    -5.476589,
    -5.460167,
    -4.709694,
    -3.335804,
    -2.766207,
    -1.301499,
    -1.753332,
    -2.113264,
    -2.206742,
    -0.009630,
    -1.878641,
    -0.074078,
    -2.967861,
    -3.163218,
    -1.711492,
    -0.464979,
    0.430067,
    0.629783,
    -0.391989,
    -0.508240,
    0.793593,
    0.090831,
    -1.619299,
    0.065381,
    -0.180959,
    -2.947047,
    -0.966114,
    -0.764168,
    -1.041544,
    -0.196832,
    -2.628885,
    -2.979937,
    -3.278574,
    -3.402557,
    -1.957035,
    -0.871923,
    -1.597641,
    -0.983581,
    -1.214883,
    -3.373475,
    0.575708,
    -4.397451,
    -0.983537,
    -0.091017,
    -1.286359,
    -1.691386,
    -1.114752,
    -0.050346,
    1.392487,
    0.087010,
    0.896249,
    0.010315,
    -2.330744,
    -0.599298,
    0.179702,
    -0.708117,
    -1.178544,
    1.282375,
    1.639626,
    -0.041231,
    0.130696,
    0.361078,
    -0.874884,
    0.706639,
    -1.723704,
    -2.394032,
    0.266721,
    -1.592686,
    -0.796752,
    -0.474316,
    -0.992954,
    -0.784515,
    -0.836647,
    -0.936156,
    0.517381,
    -0.516634,
    2.339976,
    -0.132056,
    0.359324,
    1.243161,
    2.486122,
    1.661529,
    0.812118,
    0.973341,
    -0.904376,
    -0.703474,
    -1.505723,
    -1.350482,
    -1.264773,
    -0.616157,
    -2.137003,
    -3.167272,
    0.211152,
    -0.623285,
    -2.437519,
    -2.080341,
    -2.256806,
    -1.228733,
    -2.140932,
    -1.724211,
    0.306097,
    -0.261597,
    -0.682396,
    0.172215,
    0.719562,
    0.678438,
    -0.758181,
    1.430414,
    0.700001,
    4.399324,
    0.055755,
    -0.414823,
    -0.461448,
    0.504152,
    -0.039193,
    -3.587318,
    0.502706,
    -1.736295,
    -1.169233,
    -1.710587,
    -1.107810,
    -1.245075,
    -0.911387,
    -1.118881,
    0.560123,
    0.711714,
    -2.010747,
    -0.658503,
    -1.210009,
    -0.229963,
    0.207533,
    -0.187602,
    0.825313,
    0.876357,
    1.024742,
    1.241264,
    0.206875,
    0.519800,
    0.967206,
    3.060153,
    0.435164,
    -1.068601,
    1.175981,
    0.286866,
    -0.053996,
    -0.723733,
    -0.876899,
    -0.015712,
    1.359083,
    -1.390501,
    0.322688,
    -0.818456,
    -0.002995,
    -0.324864,
    -0.431776,
    -2.465884,
    0.955512,
    0.609426,
    1.055302,
    0.697939,
    0.426497,
    0.024239,
    -0.063518,
    1.283862,
    -0.181737,
    1.713242,
    1.252793,
    1.009394,
    0.943070,
    0.701221,
    1.092461,
    1.018003,
    2.479539,
    1.204897,
    1.558665,
    1.414840,
    0.364264,
    0.520520,
    -0.381860,
    -0.451566,
    0.015772,
    0.888008,
    -1.343900,
    0.572565,
    0.119973,
    0.095129,
    0.284546,
    -1.152631,
    -1.660683,
    -0.334377,
    0.303908,
    0.039505,
    0.357704,
    -0.319589,
    -0.380602,
    -1.008423,
    -2.080131,
    -2.151669,
    -1.530775,
    -0.850289,
    -0.973233,
    0.531375,
    -0.040135,
    -0.968935,
    -0.327781,
    -0.608902,
    -0.213194,
    1.246079,
    -1.653666,
    -1.322456,
    1.613481,
    1.634309,
    -0.626446,
    -0.232373,
    -0.140716,
    -2.138243,
    0.873186,
    -0.734320,
    1.546571,
    1.227284,
    -0.553333,
    0.238815,
    -2.052253,
    0.278318,
    -0.654506,
    -1.482762,
    0.979391,
    0.490821,
    -0.988144,
    1.294669,
    0.563330,
    0.151609,
    0.463084,
    1.002355,
    -0.520307,
    1.619916,
    0.583986,
    0.612091,
    -0.064657,
    2.125540,
    -0.307091,
    2.349720,
    -0.937065,
    -0.460954,
    0.034161,
    -1.420220,
    0.089164,
    0.820152,
    -1.013172,
    1.290229,
    0.518406,
    1.054308,
    1.766681,
    -0.697687,
    0.733667,
    -2.448159,
    -0.923697,
    -0.525673,
    2.331415,
    1.297498,
    0.564211,
    -0.966284,
    1.295202,
    1.314064,
    -1.000539,
    -0.077521,
    -0.116764,
    1.495535,
    0.491570,
    0.964205,
    -1.914866,
    -1.212926,
    0.082282,
    -1.381309,
    0.666958,
    0.834571,
    0.868594,
    1.250329,
    0.395964,
    -0.647134,
    1.444156,
    -0.409113,
    0.406822,
    -0.532721,
    -0.708856,
    0.597415,
    -0.305804,
    1.520996,
    1.289957,
    1.423054,
    -0.123288,
    0.912285,
    1.230133,
    0.774115,
    0.310541,
    -3.142890,
    2.131956,
    0.320933,
    1.529960,
    1.034581,
    -0.966827,
    0.576706,
    0.066734,
    -0.107964,
    -0.151618,
    -0.085852,
    1.633656,
    0.887115,
    1.646627,
    0.198316,
    -0.792136,
    -0.281242,
    -1.368686,
    -0.885075,
    2.096831,
    0.987630,
    0.231442,
    -0.913163,
    -1.197117,
    1.631451,
    0.921552,
    -0.409685,
    -0.613344,
    0.355595,
    -0.010361,
    -0.494300,
    1.139603,
    -1.607761,
    -0.677621,
    1.970455,
    1.046082,
    0.581683,
    -0.684925,
    -0.132600,
    -0.674947,
    -0.674688,
    -0.859577,
    1.018937,
    0.134596,
    -0.003383,
    0.452796,
    1.279079,
    -0.124682,
    -0.245950,
    0.288527,
    3.393193,
    0.153875,
    0.604302,
    -0.387195,
    -1.265446,
    -1.539035,
    -1.343437,
    1.064302,
    0.532124,
    -0.027299,
    -0.250809,
    0.250406,
    -0.234768,
    0.442575,
    2.231628,
    0.315364,
    -0.220094,
    0.189520,
    1.718083,
    -0.863711,
    -0.852316,
    0.881234,
    -0.328592,
    -1.611208,
    0.230420,
    1.024714,
    0.863489,
    -0.225004,
    -0.496195,
    -1.037676,
    -0.267248,
    0.490618,
    -0.206030,
    0.319966,
    0.632247,
    -0.340606,
    -0.345895,
    -1.297790,
    0.914960,
    0.334956,
    -0.810909,
    -0.644354,
    -0.908861,
    -0.093561,
    -0.236080,
    -0.058791,
    1.104175,
    -0.177631,
    0.246819,
    -1.943933,
    -1.035541,
    -2.146114,
    0.908686,
    0.059819,
    0.227244,
    -0.147342,
    -2.968857,
    -0.732373,
    -1.667371,
    -1.398398,
    -0.009203,
    -1.346228,
    -0.167556,
    0.167925,
    -1.436200,
    0.953238,
    0.833304,
    -0.440807,
    -0.748527,
    0.583903,
    1.432707,
    0.011536,
    -1.355526,
    -0.242967,
    0.033939,
    -1.084002,
    0.783330,
    -1.092255,
    1.056095,
    -1.117775,
    -0.309809,
    -2.195398,
    -1.521941,
    0.517744,
    -0.120702,
    -0.301043,
    -0.498391,
    -0.041231,
    0.443105,
    -2.280966,
    -1.349205,
    1.511642,
    -0.114435,
    0.468085,
    -0.398117,
    -1.761211,
    2.122904,
    0.474834,
    -1.623320,
    -1.824701,
    1.657238,
    0.098881,
    -0.106500,
    -0.383306,
    0.328932,
    -0.012050,
    0.594971,
    -1.524704,
    1.512832,
    1.135127,
    0.561336,
    -1.204560,
    -1.506398,
    -0.328562,
    -0.313351,
    0.078174,
    -2.684590,
    -0.072506,
    -0.391981,
    -2.862008,
    -0.081927,
    -0.602258,
    -1.259483,
    -0.890519,
    0.653049,
    1.837894,
    -1.284399,
    -0.597225,
    -1.383286,
    0.213403,
    0.411826,
    -0.224467,
    0.945726,
    -0.675244,
    0.535540,
    1.394780,
    -0.824476,
    0.996562,
    0.677573,
    1.268986,
    -1.470675,
    -0.793628,
    -1.396841,
    -0.726154,
    -2.601388,
    -1.347420,
    -0.840475,
    -0.650976,
    -0.197319,
    1.081167,
    0.693116,
    0.392105,
    -0.666555,
    -0.300222,
    -1.463451,
    -0.149780,
    -0.616951,
    -0.522166,
    -0.461104,
    -2.767185,
    0.002864,
    1.126900,
    -0.218877,
    0.673077,
    -0.301001,
    -0.412516,
    -1.067934,
    -0.083122,
    -0.803847,
    0.406338,
    -0.724002,
    -1.466319,
    -3.395791,
    -3.645990,
    -1.032377,
    0.208886,
    -1.777163,
    0.279343,
    -1.527858,
    -0.794589,
    -0.571272,
    -1.448760,
    -1.154848,
    0.726782,
    -0.023733,
    -0.663455,
    -1.441179,
    0.523512,
    -2.169097,
    -1.579623,
    -3.446581,
    -2.329556,
    -0.909139,
    -0.850489,
    1.254758,
    -0.041187,
    -1.340537,
    0.966337,
    -0.392904,
    0.113421,
    -0.937574,
    -2.451703,
    0.510144,
    -0.671552,
    0.358859,
    0.991310,
    1.759963,
    0.839382,
    0.627273,
    -0.310047,
    -1.154122,
    -1.758204,
    -0.226684,
    -2.081569,
    -1.619316,
    0.593319,
    -0.317502,
    -0.191444,
    -1.138026,
    -0.945416,
    -1.376139,
    -1.459844,
    -2.366777,
    -0.058875,
    -0.101946,
    1.561406,
    0.906917,
    0.111896,
    -1.668091,
    -1.154197,
    0.895372,
    1.875862,
    -1.489684,
    0.594127,
    -0.694949,
    -0.379823,
    -1.112693,
    -0.291288,
    -1.491365,
    -0.489383,
    -0.312143,
    0.042037,
    -0.724366,
    0.295869,
    -0.157724,
    -0.647451,
    -0.089702,
    -1.078949,
    -0.315826,
    -1.079490,
    -2.532389,
    0.059314,
    1.352922,
    1.698065,
    0.540513,
    -1.375908,
    0.323905,
    -0.338867,
    1.067669,
    -0.471336,
    -0.773580,
    1.344419,
    1.207835,
    -1.852266,
    -1.578334,
    -0.363167,
    -1.039462,
    -1.060237,
    0.034635,
    1.902685,
    2.016636,
    -0.164027,
    0.870372,
    -1.281071,
    0.459319,
    -0.836178,
    -1.441546,
    1.372685,
    0.874680,
    0.295802,
    2.868263,
    0.661302,
    2.621454,
    -1.547247,
    -0.638452,
    1.004547,
    2.970617,
    0.833714,
    2.132695,
    -0.880421,
    -0.517562,
    -0.376428,
    -2.391311,
    0.376564,
    -2.170479,
    -0.061353,
    -0.578250,
    1.549283,
    2.062326,
    0.666104,
    -0.489758,
    -0.559743,
    -1.138210,
    -0.694416,
    -1.891443,
    2.987898,
    0.968848,
    1.288195,
    0.772868,
    -0.452605,
    1.252357,
    -1.929013,
    0.040223,
    -0.112780,
    0.575528,
    0.386737,
    0.672760,
    0.228758,
    -0.639937,
    -3.520283,
    -0.442930,
    -0.412153,
    0.702016,
    -0.959889,
    0.477613,
    1.723946,
    -0.668571,
    2.678659,
    0.679210,
    -1.145244,
    0.107037,
    1.000266,
    2.539463,
    2.200734,
    1.764107,
    1.174015,
    -1.266085,
    0.026377,
    -0.743093,
    1.898602,
    0.316229,
    0.446063,
    -0.369014,
    1.204434,
    0.621110,
    -1.216864,
    0.532090,
    0.794430,
    1.247005,
    -1.209939,
    0.810318,
    -2.923908,
    -0.878605,
    0.334616,
    1.921641,
    2.245555,
    1.293021,
    -1.076153,
    1.244808,
    1.673980,
    2.089556,
    2.508220,
    -0.730343,
    0.702567,
    0.362015,
    -2.221671,
    -0.237421,
    -0.230577,
    0.683627,
    1.523847,
    0.501502,
    2.169131,
    1.882936,
    -0.133893,
    0.566065,
    0.737790,
    0.762129,
    -1.314579,
    -0.365199,
    -0.713093,
    1.125029,
    -1.264428,
    0.289567,
    0.155003,
    0.719512,
    -0.825530,
    2.817665,
    2.648788,
    1.335387,
    0.894639,
    0.117658,
    -1.164331,
    0.236030,
    -0.387935,
    1.216253,
    1.389139,
    0.213678,
    1.065920,
    1.212737,
    0.841760,
    1.159470,
    0.164405,
    -1.312689,
    0.370521,
    -1.102561,
    2.243638,
    1.186445,
    0.904410,
    -0.572419,
    -0.711347,
    0.490631,
    -1.656601,
    0.775292,
    -1.177873,
    1.012591,
    1.483589,
    2.130254,
    1.450757,
    1.562455,
    -1.502656,
    0.688983,
    0.444430,
    1.360673,
    -0.530784,
    1.116206,
    0.692552,
    1.299029,
    0.017085,
    -1.127880,
    0.357658,
    -1.314266,
    1.511700,
    0.763744,
    -0.800949,
    1.591024,
    0.169933,
    -2.743662,
    -1.152020,
    -1.664351,
    -1.101464,
    -0.953327,
    0.391102,
    0.935947,
    2.193632,
    0.326430,
    1.329173,
    1.407441,
    1.819868,
    -0.416819,
    0.930248,
    -0.218949,
    0.031099,
    0.448834,
    3.070764,
    -0.207054,
    0.604726,
    1.482018,
    0.249914,
    0.942223,
    1.809430,
    -1.025624,
    -1.454439,
    -1.183532,
    -0.935594,
    -2.134154,
    -0.030107,
    -1.489082,
    -0.466097,
    -1.346285,
    -1.617850,
    0.026538,
    -1.075759,
    3.151440,
    0.604312,
    1.029153,
    1.032442,
    -1.106883,
    -0.036897,
    -0.299733,
    0.669127,
    1.951402,
    -1.343956,
    0.751342,
    -0.344340,
    -0.404749,
    1.197506,
    0.627919,
    -1.159985,
    -1.840126,
    -0.663811,
    1.575015,
    0.636040,
    0.425579,
    -1.420264,
    -0.800676,
    -1.136970,
    -0.565841,
    -2.263637,
    -0.515159,
    0.695069,
    -0.800337,
    -1.291952,
    -1.125432,
    0.559629,
    -0.494415,
    1.763263,
    0.914680,
    1.663293,
    0.228670,
    -0.518663,
    1.802665,
    0.716954,
    -1.586048,
    -0.075496,
    -1.240999,
    0.264116,
    0.383412,
    0.928926,
    -2.719490,
    -0.269610,
    1.792341,
    1.333427,
    0.112718,
    -0.607482,
    -0.292457,
    0.580321,
    -1.707740,
    -0.979691,
    -0.732323,
    -0.912631,
    0.199877,
    0.087670,
    -0.481255,
    -1.675948,
    -0.099014,
    0.533986,
    1.287616,
    -1.246319,
    -0.195103,
    -1.128593,
    -0.959897,
    -0.099303,
    -0.348174,
    -0.685710,
    0.503385,
    -0.793938,
    -0.712151,
    0.567894,
    -1.892310,
    -0.032298,
    -1.640792,
    -0.954035,
    -2.062355,
    -2.843512,
    -0.197025,
    -2.299004,
    0.029403,
    -0.473400,
    -1.266918,
    1.385611,
    -0.022998,
    -0.496715,
    0.639911,
    -0.915470,
    0.512927,
    0.313437,
    -0.432346,
    -0.067422,
    -0.394603,
    0.257470,
    1.110915,
    1.216304,
    1.160307,
    0.730611,
    1.232655,
    -0.769478,
    0.105081,
    0.981908,
    0.779546,
    -0.562238,
    -1.540469,
    -2.387778,
    0.385852,
    -1.050185,
    -0.057319,
    -1.239115,
    -0.099534,
    -0.061305,
    -0.519400,
    -0.912464,
    -0.410344,
    -1.386278,
    -0.307727,
    0.551470,
    0.403076,
    0.745281,
    -0.042152,
    0.716086,
    0.683919,
    0.494326,
    -0.320641,
    -0.846441,
    -1.305150,
    -0.217894,
    0.091577,
    2.385451,
    -0.205479,
    0.942070,
    0.638386,
    1.443255,
    -1.055044,
    -0.305858,
    -1.415685,
    0.669812,
    0.023444,
    -1.636932,
    -0.687169,
    -0.740682,
    -0.141833,
    -0.011959,
    0.743540,
    0.773199,
    2.220176,
    1.299411,
    0.821254,
    -1.346771,
    1.595047,
    0.637491,
    -0.002735,
    0.023228,
    -1.704456,
    -0.610641,
    -0.629229,
    -0.825983,
    -0.314598,
    0.501776,
    0.464578,
    0.252725,
    -1.014793,
    -0.549372,
    0.914945,
    -0.175242,
    0.160037,
    1.095093,
    -0.291218,
    -0.429090,
    2.536496,
    0.853344,
    -0.074109,
    0.470043,
    1.285197,
    0.680030,
    -1.857512,
    0.636650,
    0.199869,
    -0.569405,
    -0.290744,
    0.313574,
    0.335415,
    -1.882052,
    -0.721161,
    -0.052004,
    0.413960,
    0.014347,
    0.970554,
    0.696881,
    1.744292,
    -1.061989,
    1.145277,
    -0.954946,
    0.806931,
    0.333671,
    1.508702,
    -1.012878,
    1.284978,
    0.674366,
    -0.594594,
    1.401789,
    -0.058420,
    -1.147691,
    1.136638,
    0.087321,
    0.188080,
    0.046303,
    -0.599884,
    1.059602,
    0.270791,
    0.273444,
    -0.171753,
    0.761104,
    0.021575,
    -0.738562,
    0.208168,
    -0.201572,
    -1.505396,
    -0.868769,
    -0.027815,
    -1.479676,
    0.281187,
    -0.599143,
    0.678370,
    0.271319,
    0.307062,
    0.275877,
    -0.658933,
    0.276852,
    -0.053227,
    0.213606,
    2.414834,
    1.552725,
    0.228066,
    -0.741080,
    -2.682392,
    -0.407164,
    -0.073739,
    -1.064243,
    -0.375991,
    -0.486666,
    1.191408,
    -1.789812,
    -1.599487,
    0.035048,
    -0.316424,
    0.619537,
    0.373619,
    1.220930,
    -0.172828,
    -0.417260,
    1.482493,
    1.242380,
    0.193755,
    0.716578,
    1.162099,
    0.472970,
    0.406210,
    0.648863,
    0.369355,
    0.921244,
    -0.056695,
    -1.157481,
    0.314605,
    -0.831732,
    1.329988,
    -0.405405,
    -0.312930,
    -0.710733,
    -1.226651,
    1.478086,
    -1.328963,
    0.949945,
    -0.931062,
    0.288255,
    0.347258,
    -0.395222,
    0.974052,
    1.474885,
    -0.219034,
    1.656780,
    1.833038,
    -0.498004,
    1.131196,
    -0.068816,
    0.555505,
    0.790691,
    0.547208,
    0.422465,
    0.102351,
    -1.761898,
    -0.297553,
    -0.604190,
    0.124148,
    -0.816683,
    -0.507808,
    -1.264476,
    0.500678,
    0.127848,
    0.537816,
    0.251421,
    0.213547,
    -1.160387,
    -0.085047,
    -1.495616,
    0.705650,
    -0.580868,
    -0.195516,
    -0.411823,
    -1.057418,
    0.259111,
    -0.136160,
    0.537166,
    0.127617,
    1.170600,
    0.505458,
    0.681067,
    0.131616,
    0.233416,
    0.500872,
    0.414494,
    -0.745092,
    1.006791,
    -1.269551,
    0.969065,
    1.025335,
    -0.374821,
    1.014655,
    0.447165,
    -1.783154,
    -0.187463,
    -0.207379,
    -0.526561,
    1.071971,
    -0.446315,
    -0.045823,
    -2.238469,
    0.398965,
    -0.732230,
    1.774919,
    2.016385,
    1.397743,
    1.342912,
    2.012636,
    0.612634,
    -0.420966,
    -0.072452,
    -1.401826,
    0.530109,
    -0.521713,
    -2.041123,
    0.981480,
    1.001226,
    -1.166234,
    0.162022,
    -0.018236,
    -1.919456,
    -0.826508,
    1.320424,
    0.416978,
    1.288644,
    -1.126615,
    0.414970,
    -1.096062,
    1.552452,
    1.292831,
    1.735428,
    1.681790,
    1.314706,
    0.082649,
    0.577580,
    -0.952814,
    -1.290062,
    -0.587617,
    1.169738,
    -0.979716,
    -0.449084,
    -0.093674,
    -1.422302,
    0.032587,
    0.051355,
    0.105397,
    -0.258754,
    -0.921299,
    -1.640568,
    -1.088962,
    -1.764431,
    1.441611,
    -0.237341,
    0.375345,
    -0.153282,
    0.944570,
    1.091437,
    0.709469,
    -0.289481,
    0.492853,
    0.239933,
    -0.267465,
    -0.537618,
    -1.262740,
    0.079853,
    -0.200587,
    -1.256523,
    1.168302,
    -0.147388,
    0.598603,
    1.818289,
    0.960738,
    -1.160975,
    0.201326,
    0.705947,
    -1.911691,
    -0.828685,
    -0.570874,
    0.955985,
    -0.213277,
    0.216340,
    -0.607509,
    -0.061316,
    -0.294113,
    -1.478739,
    -2.118522,
    -0.069726,
    -1.066155,
    -1.044146,
    -0.077444,
    0.843479,
    -2.165693,
    0.071465,
    -1.105665,
    0.217587,
    -0.339826,
    -0.724552,
    0.097503,
    -1.467202,
    -0.842391,
    -0.606985,
    -1.486627,
    -0.456997,
    1.704897,
    -0.189742,
    0.247714,
    0.022641,
    -0.712896,
    0.667243,
    -1.981382,
    -3.641981,
    -1.408559,
    -1.279414,
    -0.493205,
    -0.818424,
    0.935379,
    -0.087606,
    -1.115308,
    -1.298728,
    -0.568708,
    0.302135,
    -2.387439,
    -0.878687,
    -1.058642,
    -0.313539,
    -0.740341,
    0.098770,
    1.933104,
    0.128482,
    0.313409,
    -3.090039,
    0.364261,
    -0.713555,
    -0.589141,
    0.672878,
    1.827798,
    -0.556011,
    0.515509,
    -1.309446,
    -0.366162,
    -2.173341,
    -1.342060,
    -0.389661,
    -1.085173,
    -0.490893,
    0.671136,
    1.781973,
    -1.157260,
    1.061096,
    -1.047702,
    -1.257773,
    -0.791866,
    -0.755439,
    -0.518423,
    0.025547,
    -1.608993,
    -2.167524,
    -0.515989,
    -2.297840,
    0.204057,
    -1.147989,
    -0.323482,
    0.133371,
    1.393397,
    1.494495,
    1.611814,
    -0.348285,
    -1.719464,
    0.670599,
    -1.453777,
    -1.661674,
    0.362474,
    -1.103644,
    -0.135026,
    -1.055305,
    -0.792640,
    0.428721,
    -0.512750,
    0.003585,
    -1.765807,
    -0.136321,
    0.328275,
    0.928755,
    -0.432374,
    0.371100,
    -0.318171,
    -0.901595,
    1.701055,
    0.293233,
    -0.809322,
    -0.127450,
    0.393702,
    -0.100296,
    2.236611,
    -1.918170,
    -1.508997,
    0.379783,
    -0.058813,
    1.862606,
    -0.347011,
    0.979640,
    0.117302,
    0.149940,
    1.935396,
    1.111055,
    -1.811069,
    0.753687,
    -0.605264,
    -0.356789,
    0.922687,
    -1.866897,
    1.156231,
    0.668434,
    -0.709511,
    -0.449892,
    -0.267470,
    0.889914,
    -0.012643,
    -0.252771,
    -0.425741,
    -1.456187,
    0.018729,
    -0.661542,
    -1.957894,
    -0.847903,
    0.980714,
    -1.502406,
    -0.477731,
    -1.579021,
    -0.796254,
    -0.909244,
    -1.901647,
    1.065429,
    0.913342,
    -0.152903,
    -1.261589,
    -0.694888,
    0.739567,
    0.071601,
    0.146469,
    -0.284058,
    0.686766,
    -1.234987,
    -2.571508,
    1.345212,
    -2.319508,
    0.449405,
    -1.226326,
    0.619157,
    0.390177,
    0.223985,
    -1.161934,
    -1.878966,
    0.279708,
    -0.531973,
    -1.321572,
    0.092508,
    -0.139629,
    0.475488,
    -0.639349,
    -0.513366,
    0.671560,
    0.213214,
    1.703461,
    -0.404750,
    1.202619,
    -0.443008,
    1.613872,
    0.372479,
    0.020045,
    1.292137,
    -0.721478,
    0.022454,
    0.869171,
    -0.034291,
    0.177393,
    -0.771618,
    0.987873,
    -1.988518,
    -0.496847,
    1.030246,
    -1.277197,
    -0.803743,
    -0.522652,
    1.540123,
    1.336630,
    0.431480,
    -0.627756,
    1.860607,
    0.156658,
    1.312217,
    -0.320265,
    1.131824,
    1.051141,
    -1.353785,
    -0.537785,
    -0.408706,
    1.221652,
    -0.754855,
    -0.514839,
    -1.832331,
    -0.741902,
    0.185787,
    -0.306005,
    -0.052281,
    -0.004909,
    -1.079730,
    0.102458,
    -1.280161,
    0.000499,
    -1.716026,
    0.179796,
    -0.692958,
    2.595657,
    0.005199,
    -1.634648,
    0.121433,
    -2.520301,
    -1.017700,
    -1.865893,
    -0.314992,
    -0.219243,
    -0.457733,
    -0.270992,
    -0.171301,
    0.265445,
    -0.416046,
    -0.827579,
    0.133166,
    -0.863897,
    0.022389,
    1.398674,
    0.698583,
    -1.130203,
    -1.045091,
    1.873926,
    0.815944,
    -0.130002,
    0.598792,
    0.398313,
    1.170140,
    0.897264,
    2.622110,
    -0.176284,
    0.680490,
    -0.821902,
    0.236378,
    -0.790709,
    -1.585542,
    1.217175,
    2.518146,
    0.606536,
    -1.519951,
    1.668226,
    -1.037859,
    -1.198655,
    1.561175,
    0.207967,
    0.438567,
    -0.863281,
    0.827777,
    0.969662,
    0.446093,
    -1.046801,
    1.404499,
    -0.039150,
    -0.082462,
    0.808965,
    -0.172464,
    -0.357121,
    0.458674,
    -1.544204,
    -0.239171,
    -0.465266,
    0.897103,
    -0.160211,
    1.122030,
    -2.307557,
    1.347574,
    0.619247,
    -0.123491,
    1.012158,
    -1.685568,
    -1.288683,
    0.301325,
    -1.827530,
    2.150989,
    0.506312,
    0.390020,
    0.080506,
    0.018671,
    0.608154,
    -1.074269,
    -0.875769,
    1.483413,
    -0.326016,
    0.118591,
    -0.408417,
    -2.720079,
    -0.807635,
    -0.223613,
    0.646140,
    -1.548939,
    0.189171,
    0.800396,
    -0.373546,
    -0.748956,
    -0.280744,
    -1.220791,
    -0.244046,
    -2.034949,
    -0.667680,
    1.285574,
    0.799903,
    0.245153,
    -0.208343,
    -1.447336,
    0.161242,
    -1.543544,
    1.686311,
    0.711249,
    -0.517406,
    -0.328270,
    -0.537357,
    -0.829511,
    0.817026,
    -0.087986,
    0.922035,
    0.288572,
    0.119918,
    0.534812,
    0.639534,
    -0.450071,
    1.517371,
    1.438447,
    1.454222,
    2.364016,
    1.022074,
    -0.196493,
    -1.312479,
    -1.170537,
    -0.126493,
    0.375478,
    0.422282,
    -0.188661,
    -1.228809,
    -0.936298,
    -1.603513,
    -0.036194,
    -0.935981,
    -1.146635,
    0.222132,
    1.034268,
    0.500214,
    -0.855871,
    -0.207121,
    1.064573,
    -1.200080,
    -0.947018,
    2.059123,
    -0.570928,
    0.773121,
    0.883982,
    -1.461979,
    -1.296523,
    0.030832,
    -0.810223,
    1.296866,
    2.465059,
    -0.894349,
    0.909459,
    1.979170,
    -1.280922,
    1.198886,
    -1.776174,
    -0.017960,
    1.602722,
    0.193861,
    0.401150,
    0.535306,
    1.241139,
    -0.766735,
    -1.171216,
    -0.379370,
    -0.275078,
    0.345138,
    0.046830,
    0.869225,
    1.563220,
    1.864477,
    0.627223,
    -0.258765,
    0.100300,
    -0.424923,
    -0.207271,
    -0.019010,
    -1.060984,
    -0.811975,
    -0.101174,
    0.636820,
    -0.041337,
    0.773225,
    0.734058,
    1.061414,
    -1.378287,
    0.685848,
    0.192662,
    0.349429,
    -1.709050,
    2.010259,
    -0.518603,
    0.677195,
    -0.122989,
    0.787269,
    1.599614,
    0.568168,
    1.584941,
    -0.468596,
    -1.640036,
    0.154452,
    0.905134,
    -0.214723,
    -1.520929,
    0.036282,
    0.812382,
    -0.473505,
    1.053345,
    -0.356914,
    -0.732240,
    -0.498623,
    1.108517,
    -0.621700,
    0.025191,
    0.261923,
    -0.819669,
    -0.324500,
    2.206311,
    0.992309,
    -0.170868,
    -0.936769,
    -0.026529,
    0.925695,
    -0.603164,
    0.705611,
    0.645214,
    1.637213,
    -0.697578,
    -1.052349,
    0.871086,
    0.546003,
    -0.981450,
    1.287692,
    -0.212776,
    -0.720364,
    -0.039890,
    -0.535059,
    -1.301882,
    -0.667805,
    0.232195,
    0.451060,
    1.085376,
    -0.120301,
    0.313805,
    1.268217,
    -1.522196,
    1.192378,
    -0.312434,
    1.667311,
    0.533437,
    -1.652408,
    -0.646951,
    2.359443,
    2.097617,
    -0.809215,
    0.262013,
    -0.714051,
    -0.662411,
    0.811937,
    0.259977,
    -1.454986,
    -0.315687,
    1.906883,
    0.293576,
    0.731154,
    -0.313203,
    -0.728235,
    -0.691122,
    0.545426,
    1.050677,
    -0.287027,
    -0.381350,
    -0.446414,
    -0.290130,
    -0.190542,
    0.434777,
    -0.721972,
    2.008111,
    -0.069292,
    0.864334,
    1.264058,
    -0.037690,
    -0.310404,
    1.315639,
    -1.327460,
    -0.339994,
    -0.346086,
    0.647656,
    -0.834303,
    0.074927,
    -0.237295,
    -1.503565,
    0.321563,
    -2.124501,
    0.024954,
    1.361384,
    -0.454699,
    -0.885147,
    -0.844442,
    -0.325144,
    1.323291,
    -0.317919,
    0.349135,
    0.295178,
    0.676150,
    1.590112,
    0.219901,
    1.037955,
    -0.475673,
    -0.857894,
    -1.003969,
    -0.413738,
    0.485949,
    -0.271641,
    1.385654,
    0.453853,
    0.947548,
    -0.775190,
    -0.347353,
    0.195027,
    0.405922,
    -0.168391,
    -0.541402,
    0.052822,
    -0.424205,
    1.374460,
    -1.952561,
    -0.698409,
    1.020967,
    -0.707863,
    -1.959004,
    0.985552,
    1.244633,
    -0.296226,
    -0.473204,
    0.502971,
    0.569705,
    1.169191,
    -0.740835,
    1.514621,
    0.288945,
    -0.692909,
    -0.785676,
    -0.391930,
    -0.542965,
    0.805620,
    0.363114,
    -0.120996,
    0.852005,
    0.618535,
    -1.036265,
    1.571400,
    -0.355690,
    -0.110549,
    -1.059887,
    0.030211,
    0.441890,
    -0.318510,
    -1.025889,
    0.756874,
    1.211375,
    -0.821315,
    -1.145370,
    -1.284279,
    0.657165,
    0.190012,
    -0.349339,
    0.161356,
    -0.444908,
    1.092612,
    -0.058044,
    -0.759396,
    0.263562,
    -0.249566,
    -0.777368,
    -0.939611,
    -0.471571,
    1.949194,
    -1.152636,
    0.582764,
    1.019611,
    0.208317,
    -0.733619,
    -0.762931,
    0.718923,
    -0.628362,
    0.414826,
    1.281855,
    -0.435639,
    0.455042,
    -0.173580,
    0.674812,
    0.930795,
    0.236040,
    -0.133157,
    -0.953662,
    0.139954,
    -0.252508,
    0.861417,
    -0.642536,
    0.942065,
    -1.712171,
    -0.480252,
    -1.565179,
    -1.350978,
    1.219168,
    -0.279098,
    0.315033,
    0.907970,
    0.028457,
    1.541468,
    -0.065175,
    0.265326,
    2.040278,
    0.640254,
    1.466348,
    0.429136,
    0.569974,
    -0.477312,
    -0.080642,
    -1.696113,
    0.566155,
    0.796612,
    -0.550225,
    -1.845762,
    -0.522197,
    0.243164,
    -1.030570,
    -3.502486,
    0.248401,
    -0.066270,
    0.834678,
    0.055426,
    1.232137,
    -0.962999,
    0.456857,
    1.325884,
    0.816249,
    0.705010,
    -0.286926,
    3.484173,
    -0.439798,
    0.946245,
    1.862456,
    -0.164140,
    1.291694,
    0.525505,
    0.424040,
    0.193826,
    -1.082643,
    0.812621,
    -0.111220,
    -2.848483,
    -0.582020,
    1.041098,
    -0.700203,
    -0.774461,
    1.873783,
    0.906653,
    -1.673758,
    -0.188597,
    -0.760655,
    0.321147,
    -0.341840,
    -0.488831,
    -0.186846,
    0.932595,
    -0.886208,
    -0.665198,
    0.895390,
    1.064119,
    1.076921,
    -0.011029,
    -1.179521,
    0.832039,
    0.895115,
    -0.297527,
    0.130533,
    0.579182,
    -1.165221,
    1.579528,
    0.446872,
    0.904038,
    1.198156,
    1.669188,
    0.020582,
    2.097044,
    0.981166,
    0.695302,
    -0.726314,
    0.826888,
    1.327811,
    0.955041,
    -0.665025,
    0.365785,
    -0.292280,
    1.747785,
    1.027748,
    0.299004,
    -0.602688,
    1.553975,
    0.494370,
    -1.918711,
    0.203390,
    -1.184497,
    -1.405345,
    -1.006551,
    0.027340,
    -0.698925,
    0.601625,
    1.520765,
    1.310154,
    2.078046,
    0.565480,
    1.619698,
    0.679237,
    0.815151,
    -0.648793,
    2.688650,
    0.528643,
    -0.076606,
    -0.394447,
    2.069242,
    -0.010095,
    -0.611478,
    0.149315,
    1.742310,
    0.171162,
    0.200842,
    0.103745,
    -0.330571,
    0.255778,
    -0.970074,
    -0.910130,
    1.128117,
    0.518345,
    1.985249,
    -0.512223,
    2.269513,
    1.813902,
    -0.817142,
    1.733183,
    1.637108,
    0.687733,
    1.430426,
    0.062702,
    -0.898194,
    0.469474,
    1.570586,
    0.664612,
    -0.525947,
    -0.681379,
    1.556100,
    2.376721,
    2.554344,
    2.542695,
    -0.411888,
    -2.680923,
    -0.473877,
    0.340303,
    -2.660687,
    1.104050,
    0.189656,
    2.157940,
    1.779230,
    3.721379,
    0.778010,
    1.920473,
    0.847638,
    0.994180,
    1.056323,
    0.692337,
    1.156144,
    -0.833328,
    0.515105,
    1.546144,
    0.616242,
    0.679107,
    0.013221,
    0.590554,
    -0.664578,
    3.514713,
    -0.810535,
    -0.884159,
    0.225582,
    0.463796,
    0.056024,
    -0.199140,
    0.546058,
    -0.637878,
    -0.053257,
    1.063929,
    1.098088,
    1.811218,
    2.355054,
    3.089112,
    2.412336,
    1.025682,
    0.609760,
    0.626970,
    0.210995,
    1.474002,
    0.330000,
    -0.290869,
    1.795296,
    0.545931,
    1.139732,
    0.055006,
    0.149585,
    1.876503,
    1.033179,
    1.253220,
    2.303258,
    0.627965,
    0.560198,
    -0.231131,
    -0.717479,
    -0.417703,
    1.627606,
    0.146977,
    3.163972,
    1.658851,
    0.738851,
    -0.837012,
    1.233124,
    0.321540,
    0.561363,
    0.772303,
    1.853573,
    2.923516,
    0.180814,
    -0.602400,
    1.202867,
    -0.776358,
    -0.509446,
    -1.198045,
    0.519735,
    -0.118906,
    1.361878,
    1.022849,
    -0.441678,
    -1.941383,
    -0.112411,
    -0.669681,
    1.655815,
    0.803591,
    1.270031,
    1.364215,
    0.230377,
    0.323120,
    0.724337,
    -0.565908,
    0.701092,
    -1.193893,
    0.420619,
    0.817097,
    0.979035,
    1.864536,
    -0.160108,
    -0.567458,
    0.676612,
    -0.021678,
    -0.119305,
    0.529899,
    0.542629,
    -2.316322,
    0.026611,
    0.440275,
    0.764699,
    0.366538,
    -0.292852,
    0.724895,
    -1.499842,
    0.115884,
    -1.635458,
    0.025610,
    -0.391194,
    -0.199344,
    0.395392,
    0.163299,
    -0.777303,
    2.641971,
    -0.453711,
    1.012430,
    0.060543,
    1.594053,
    2.492001,
    0.470442,
    0.044255,
    1.298972,
    0.901968,
    -0.765067,
    -1.789990,
    -1.654886,
    -2.273495,
    0.968336,
    -0.519482,
    1.242328,
    -0.637045,
    -0.533458,
    0.357972,
    1.377853,
    -0.036887,
    -1.262184,
    -2.194104,
    -1.763451,
    -2.245866,
    -2.481175,
    -1.513489,
    0.739604,
    0.284443,
    1.044428,
    1.710747,
    0.576075,
    0.355946,
    0.442362,
    0.233502,
    0.191554,
    0.133025,
    -0.694159,
    -3.329589,
    -1.859114,
    0.420934,
    0.121377,
    1.182317,
    -1.191090,
    2.007521,
    0.979326,
    0.688764,
    0.955589,
    0.506104,
    -2.751413,
    -2.490880,
    -4.885285,
    -2.385025,
    -4.028625,
    -1.469205,
    -1.447436,
    -0.141702,
    0.785544,
    0.146445,
    2.431104,
    -0.593484,
    -0.129623,
    2.014448,
    0.855831,
    0.015120,
    -0.798430,
    -0.785724,
    -2.458699,
    -2.464380,
    0.270117,
    0.456392,
    0.134941,
    0.311640,
    1.038359,
    -0.313410,
    -0.298922,
    0.346653,
    -1.141984,
    -1.234918,
    -0.744318,
    -2.452457,
    -2.083472,
    -2.317928,
    -2.509507,
    -0.189036,
    -0.231024,
    0.070066,
    1.295508,
    -0.347133,
    -1.826122,
    -1.420320,
    -2.492045,
    -2.443772,
    -1.351089,
    -2.401275,
    -0.748424,
    -0.480692,
    -0.894085,
    -1.797932,
    -0.762563,
    0.429202,
    -0.223251,
    1.305895,
    0.710409,
    0.485735,
    -0.910913,
    -0.172898,
    -0.993154,
    -0.606589,
    0.067369,
    -2.917653,
    -2.651995,
    -1.406373,
    0.620414,
    -0.128757,
    2.010540,
    -1.551082,
    0.793207,
    -1.950745,
    -1.444783,
    -0.902074,
    0.163463,
    -0.138543,
    -0.724088,
    -0.920908,
    0.184407,
    0.547202,
    2.029815,
    0.406649,
    2.142107,
    0.652375,
    -0.201400,
    0.714331,
    1.317809,
    -0.069624,
    0.481500,
    -1.180422,
    -1.794970,
    -0.188936,
    -1.268580,
    -1.968647,
    0.445540,
    -0.139147,
    -2.004637,
    -1.239630,
    -0.192700,
    0.157000,
    -1.374292,
    0.093958,
    -0.111993,
    -1.633831,
    -2.729307,
    0.546694,
    -1.040816,
    1.066225,
    0.052597,
    -1.123729,
    0.636168,
    2.140199,
    0.047486,
    0.472263,
    1.003883,
    0.118302,
    -1.169391,
    -1.396428,
    -0.735971,
    -0.664384,
    -1.261616,
    -1.222482,
    -0.685319,
    -1.712651,
    -1.333316,
    -1.479531,
    0.322154,
    -1.774341,
    1.708196,
    -0.618719,
    1.275668,
    -1.786936,
    -1.344813,
    0.814698,
    0.671818,
    -1.067166,
    -1.433268,
    -1.967898,
    -0.999899,
    0.715762,
    -1.337405,
    0.829636,
    1.390037,
    1.471158,
    -0.175090,
    0.727076,
    -1.168880,
    0.218453,
    -0.345557,
    -0.903357,
    -0.731444,
    -2.020602,
    0.164883,
    -0.122568,
    0.560888,
    -0.234250,
    -0.728719,
    -0.674240,
    -0.061244,
    1.034312,
    1.359666,
    0.451140,
    0.796284,
    -1.052518,
    2.007915,
    -0.552845,
    -1.047809,
    -0.169311,
    1.570576,
    -1.175902,
    -2.167046,
    -0.605492,
    -0.210111,
    1.362971,
    0.017644,
    -0.707199,
    0.762527,
    -1.179493,
    0.450596,
    0.731898,
    -0.709980,
    0.218889,
    -0.709739,
    -0.433947,
    0.197845,
    0.622197,
    1.800508,
    0.907433,
    1.546687,
    1.404382,
    -5.430241,
    -1.416292,
    0.060421,
    -0.809153,
    0.192553,
    1.163744,
    0.140917,
    -0.119897,
    2.229294,
    -0.455993,
    1.966388,
    0.030409,
    -0.286826,
    1.282537,
    -1.779237,
    -1.501391,
    -1.157152,
    0.344160,
    -1.276391,
    -2.350856,
    -0.048595,
    0.392298,
    0.569288,
    0.045082,
    -0.272127,
    1.259962,
    0.191091,
    1.153970,
    0.093007,
    -1.268670,
    -0.510337,
    -0.968798,
    1.107527,
    -1.363692,
    -0.460397,
    1.247431,
    1.105056,
    -0.155547,
    0.204615,
    -0.286449,
    0.350982,
    0.898830,
    0.473302,
    2.007632,
    1.783592,
    0.150142,
    1.334955,
    -0.393906,
    1.049919,
    -0.323091,
    1.679441,
    1.042542,
    -0.433720,
    0.080639,
    0.037608,
    -0.523313,
    0.421292,
    0.100586,
    2.342259,
    2.941214,
    1.981457,
    -1.318624,
    0.660451,
    -0.216576,
    0.379991,
    0.750731,
    -1.200446,
    -0.998967,
    -0.860323,
    1.811235,
    0.114805,
    0.800056,
    2.794739,
    2.530611,
    2.454386,
    0.719665,
    1.854835,
    1.970215,
    0.629015,
    -0.131278,
    -0.537898,
    -0.647258,
    -0.243539,
    1.968582,
    1.029838,
    1.052203,
    -1.088750,
    1.802737,
    -0.370676,
    0.494531,
    -0.179496,
    -0.712887,
    0.903059,
    -0.625013,
    0.574155,
    0.035786,
    2.115471,
    2.278168,
    1.824412,
    1.375355,
    1.545325,
    1.397984,
    1.572850,
    1.726048,
    -0.874201,
    0.001970,
    -1.505422,
    0.441717,
    0.129503,
    0.878599,
    1.838509,
    0.172314,
    -1.184528,
    -1.103348,
    0.147481,
    -0.984099,
    0.357112,
    0.115284,
    -1.035711,
    -0.547573,
    0.205807,
    0.850230,
    1.966649,
    -0.305398,
    -0.634387,
    0.763095,
    1.025394,
    1.971971,
    0.109452,
    0.260748,
    -0.789801,
    1.127788,
    2.284454,
    -0.104544,
    1.233080,
    1.483792,
    0.881251,
    -0.528148,
    -0.046680,
    -0.490972,
    -2.228734,
    0.661636,
    -0.031782,
    -0.390434,
    -1.065961,
    -0.698315,
    -1.000032,
    1.557095,
    -0.375053,
    -1.566761,
    -0.843700,
    -0.053693,
    -2.409871,
    1.196791,
    1.468513,
    0.103945,
    0.274704,
    0.743473,
    1.076250,
    -1.038462,
    2.218172,
    1.042815,
    1.552135,
    0.305781,
    -0.591400,
    -0.796055,
    0.303694,
    -0.801060,
    1.858520,
    -0.989603,
    1.028420,
    -0.047825,
    -1.121232,
    -0.521466,
    -0.999583,
    -0.493562,
    -0.464753,
    2.615508,
    0.733134,
    0.948573,
    -0.504575,
    -1.891977,
    0.364481,
    2.597819,
    -1.056581,
    -1.521386,
    -0.742443,
    0.511879,
    -0.949854,
    -0.455734,
    1.229820,
    1.174794,
    -0.395496,
    0.618402,
    -0.676013,
    1.120561,
    -0.040365,
    0.995041,
    1.805967,
    0.393462,
    0.892401,
    -0.320053,
    1.345868,
    -0.828227,
    1.480171,
    -0.678131,
    -0.311867,
    0.824800,
    -0.422438,
    1.672698,
    0.420109,
    -0.876405,
    0.431864,
    -0.734508,
    -0.174844,
    0.539635,
    0.458839,
    -0.602059,
    -0.894025,
    1.607462,
    -1.043093,
    0.257576,
    -0.382043,
    -0.321386,
    0.654872,
    -0.294772,
    1.852926,
    1.423079,
    0.839080,
    1.059792,
    -0.047235,
    0.678497,
    -0.869099,
    -0.131510,
    0.725805,
    -0.200287,
    -2.195950,
    -1.998053,
    0.227722,
    -0.625602,
    -0.918075,
    0.592809,
    -0.915556,
    1.817756,
    -2.355019,
    -1.078006,
    -0.442271,
    0.327640,
    -1.388569,
    0.327687,
    0.441423,
    -0.499936,
    -1.572461,
    -0.443674,
    0.706986,
    1.401524,
    1.065049,
    -0.249219,
    0.685309,
    0.557510,
    -1.055733,
    0.981130,
    -0.447862,
    0.970537,
    0.068329,
    0.242577,
    -0.324244,
    -1.333195,
    1.285931,
    -0.079166,
    -0.753617,
    -0.216392,
    -1.309711,
    -0.892508,
    -1.284001,
    0.004795,
    -2.214899,
    -0.526408,
    -0.919830,
    0.419340,
    -0.133511,
    0.333995,
    1.723302,
    0.098924,
    -0.705995,
    -0.800259,
    0.888742,
    -1.316134,
    -0.226823,
    0.163744,
    0.505222,
    -0.324375,
    3.264441,
    1.407967,
    2.199839,
    0.737253,
    1.108205,
    1.166874,
    0.727542,
    0.128846,
    -0.718207,
    -0.512005,
    -1.573744,
    1.016121,
    -1.021820,
    -1.402175,
    -0.738362,
    -0.376825,
    0.690259,
    -1.589471,
    -1.368032,
    0.163022,
    0.903345,
    -0.605111,
    1.462135,
    0.728782,
    0.951409,
    0.510557,
    1.966784,
    -0.744421,
    2.541012,
    0.949574,
    2.252728,
    0.606553,
    -0.159527,
    1.441412,
    1.290221,
    1.938543,
    1.225652,
    0.886982,
    -0.019541,
    -0.737734,
    -1.375985,
    -1.979838,
    -0.210726,
    -1.121813,
    -0.442876,
    -0.727279,
    1.776314,
    1.206301,
    -0.477021,
    -1.019835,
    -0.677652,
    0.462601,
    -0.120119,
    -0.025525,
    1.278149,
    0.305235,
    0.798623,
    0.630977,
    -0.489374,
    0.233643,
    0.194600,
    0.756060,
    0.796887,
    0.475764,
    0.823684,
    -0.056256,
    -0.307987,
    -0.423734,
    0.310831,
    -0.489533,
    -1.721076,
    0.893578,
    1.975851,
    0.866869,
    -1.064539,
    -1.426670,
    -0.336705,
    0.990184,
    1.546448,
    0.287647,
    -0.414931,
    0.597193,
    1.816655,
    1.798984,
    0.525281,
    0.587159,
    2.018489,
    0.396148,
    1.236403,
    -1.462648,
    0.494245,
    -0.310896,
    -0.838002,
    -0.296269,
    0.019478,
    1.910968,
    1.257523,
    0.168848,
    0.140445,
    -1.206863,
    -0.713289,
    -1.975585,
    -0.372161,
    -0.514459,
    -0.008285,
    -1.053891,
    1.639876,
    2.633526,
    0.900714,
    0.970542,
    0.980472,
    -0.168289,
    0.445597,
    2.523369,
    2.234121,
    1.742740,
    2.386665,
    2.633282,
    0.587061,
    -1.058104,
    0.313064,
    -0.513323,
    0.582963,
    -0.467544,
    -0.715873,
    2.971200,
    -0.444045,
    -0.279226,
    -1.398773,
    -0.483691,
    -0.689237,
    0.437569,
    1.063761,
    0.821803,
    0.339506,
    1.709971,
    0.803724,
    -0.153582,
    -0.658863,
    -0.179785,
    1.312359,
    -1.292293,
    -1.027569,
    0.477424,
    -0.839685,
    1.691047,
    -0.573925,
    -1.089701,
    1.776641,
    0.910444,
    0.251716,
    0.081034,
    1.661783,
    0.506977,
    -1.681337,
    -0.612534,
    -0.535692,
    1.193620,
    0.026870,
    0.175343,
    1.113411,
    -0.352371,
    -0.690645,
    -0.338520,
    0.266207,
    1.738569,
    -2.195024,
    -2.189795,
    -2.248440,
    -0.862462,
    -2.917104,
    -0.392772,
    -1.562878,
    -0.355024,
    -1.165560,
    1.043445,
    0.176131,
    0.473459,
    -0.614565,
    0.262242,
    1.256940,
    0.259860,
    0.269545,
    -0.680339,
    -0.161582,
    -1.030689,
    0.573045,
    -1.027544,
    -0.349868,
    0.825036,
    -0.099389,
    0.242712,
    -1.492498,
    -1.216870,
    -3.558386,
    -1.953148,
    -2.424611,
    -3.754211,
    -1.469723,
    -2.574525,
    -1.202154,
    -0.329006,
    -0.402027,
    0.210092,
    -0.004726,
    -0.727952,
    0.863773,
    -0.036778,
    -1.255453,
    -0.476862,
    -1.288099,
    -1.026542,
    -0.476709,
    2.162304,
    -0.000400,
    1.184431,
    -0.233317,
    -0.118963,
    0.290939,
    -2.098642,
    -2.821407,
    -5.630862,
    -4.168040,
    -1.057694,
    -4.125234,
    -2.889832,
    -4.014053,
    -3.741091,
    -0.068278,
    0.218100,
    1.552382,
    1.370687,
    -0.006294,
    -0.101463,
    -0.095403,
    -0.876170,
    -0.915896,
    -1.110513,
    -0.739022,
    -0.070038,
    -0.415710,
    0.027079,
    -0.475501,
    0.318686,
    0.836633,
    0.868107,
    -1.612131,
    -1.253413,
    -1.503421,
    -3.426850,
    -3.093094,
    -1.546086,
    -1.050009,
    -0.239453,
    -0.160299,
    -1.117114,
    -0.335359,
    1.640084,
    -0.446736,
    -0.623097,
    -0.650167,
    -0.299466,
    -1.422922,
    -2.050562,
    -0.817930,
    -2.286479,
    -2.748342,
    0.722571,
    0.465772,
    1.720120,
    -0.387443,
    -1.055753,
    -1.350435,
    -1.634415,
    -0.512531,
    -1.909205,
    -1.058116,
    -2.452371,
    -1.167501,
    -1.828690,
    -0.597839,
    -1.358470,
    -0.250700,
    -0.473457,
    1.336492,
    0.789336,
    0.964438,
    -0.129817,
    -0.186544,
    0.248771,
    -0.168406,
    -0.739014,
    0.185127,
    -1.640120,
    -0.324144,
    -0.693954,
    -0.273637,
    1.851217,
    0.434511,
    -1.192482,
    0.596550,
    0.361891,
    -1.735427,
    1.428588,
    -1.107265,
    -0.389064,
    -0.379816,
    -1.236154,
    1.283534,
    -0.600907,
    1.067474,
    -1.056680,
    0.708922,
    -1.359597,
    0.815993,
    1.090034,
    -0.432419,
    1.157613,
    1.751243,
    0.023588,
    -1.017298,
    -1.886267,
    -0.082040,
    -0.258983,
    -0.978833,
    -0.727588,
    0.639470,
    0.804794,
    0.942488,
    -1.566731,
    2.574180,
    3.581429,
    0.061620,
    -0.895744,
    -2.078062,
    -0.584695,
    -0.002305,
    -0.029165,
    -1.404033,
    1.150291,
    1.119191,
    1.742732,
    0.366325,
    -0.466572,
    -0.814908,
    -0.618846,
    -1.797062,
    -1.408187,
    1.392061,
    0.181032,
    -0.571164,
    0.719291,
    0.691212,
    0.672333,
    0.624409,
    -2.077273,
    0.839720,
    1.042679,
    0.012436,
    2.042862,
    2.584931,
    0.759598,
    -0.756724,
    -1.824476,
    0.489429,
    -0.815840,
    -0.867453,
    0.159579,
    -0.502577,
    1.541098,
    -0.790736,
    0.435785,
    0.220755,
    -0.850820,
    -0.537179,
    -0.030484,
    0.646191,
    0.761448,
    -0.489311,
    1.955903,
    1.582877,
    0.478142,
    1.733109,
    -0.595279,
    1.630689,
    0.028578,
    -0.118996,
    1.594702,
    3.134159,
    2.443751,
    1.945728,
    0.262080,
    -0.682967,
    -0.209825,
    0.501158,
    -0.817251,
    0.229140,
    0.878492,
    1.456920,
    -1.514172,
    0.018857,
    0.755699,
    0.251575,
    0.060765,
    1.283182,
    -0.215992,
    1.953980,
    3.108954,
    3.894454,
    -0.355066,
    -1.225400,
    0.561367,
    0.492628,
    -0.540486,
    2.003386,
    -0.074901,
    0.454524,
    2.323004,
    1.266248,
    1.736359,
    1.188798,
    1.248487,
    0.159740,
    -1.746461,
    0.179467,
    -1.613081,
    0.043534,
    -0.045414,
    0.952939,
    1.335410,
    0.219774,
    0.908236,
    1.265852,
    2.213136,
    1.813703,
    0.770960,
    1.144713,
    -0.171399,
    0.993536,
    -0.090211,
    -0.161213,
    1.085442,
    1.065351,
    1.655954,
    -0.526662,
    3.549699,
    -0.375803,
    1.799456,
    2.442908,
    0.148716,
    1.513577,
    -0.638707,
    -1.198972,
    1.222682,
    -0.470157,
    -0.046331,
    0.631309,
    1.199556,
    0.990048,
    -1.046297,
    -0.276463,
    1.059475,
    2.648966,
    -0.702172,
    1.035490,
    -0.770132,
    1.672818,
    -1.018069,
    -2.849747,
    1.504696,
    0.279307,
    0.965088,
    2.380611,
    1.870103,
    -1.089336,
    2.802212,
    -0.017223,
    1.026505,
    -0.079797,
    -2.358016,
    0.319649,
    -0.584861,
    0.229649,
    0.138494,
    -0.373897,
    -1.135294,
    2.843700,
    0.414124,
    0.474179,
    1.580658,
    0.672655,
    1.723306,
    0.988975,
    -1.135600,
    0.228991,
    -0.094204,
    1.618049,
    -0.202855,
    0.079293,
    1.085916,
    -0.363366,
    3.458899,
    1.580643,
    1.566448,
    -1.975285,
    0.447876,
    1.344418,
    -0.356641,
    -2.869739,
    1.623900,
    -1.767198,
    -0.921683,
    0.354329,
    -1.414203,
    0.067339,
    0.409124,
    0.926919,
    1.281826,
    0.715449,
    1.144692,
    -0.863108,
    1.397402,
    0.384527,
    0.765859,
    0.450644,
    0.824976,
    -1.839138,
    -0.175844,
    2.567621,
    -0.089351,
    -2.258614,
    -1.103812,
    -0.134448,
    -0.075389,
    -0.477898,
    1.830478,
    2.467560,
    -1.116831,
    -0.046854,
    1.350204,
    -0.057672,
    -1.077111,
    -0.163936,
    -0.084292,
    -0.682348,
    -2.050279,
    -0.075210,
    -0.653211,
    -1.022086,
    1.000455,
    -0.038898,
    0.564433,
    0.227521,
    -1.015146,
    0.402061,
    1.661011,
    0.748640,
    0.336903,
    -0.409611,
    0.572381,
    0.163668,
    1.218540,
    -0.133801,
    -0.820468,
    -0.019151,
    0.126795,
    0.437789,
    -0.668559,
    0.172604,
    0.706649,
    0.982862,
    -0.279969,
    0.779246,
    -0.550300,
    1.041804,
    -0.879029,
    1.279384,
    0.545502,
    2.095283,
    -0.187846,
    -1.214141,
    -0.184844,
    0.767959,
    -0.521538,
    0.603407,
    -1.218666,
    -0.300033,
    1.638359,
    0.157352,
    -0.050094,
    -1.202199,
    0.223580,
    -1.098338,
    1.177940,
    -0.759743,
    1.290748,
    0.216994,
    -0.182297,
    0.052847,
    -0.343170,
    -0.261770,
    -1.217793,
    2.762472,
    -1.876592,
    0.960026,
    -0.222420,
    -0.075482,
    2.977732,
    0.665043,
    0.046776,
    0.650005,
    -1.018815,
    -1.832093,
    -0.959958,
    0.645371,
    0.155454,
    0.656538,
    1.011948,
    0.241384,
    0.025313,
    0.193133,
    -0.028644,
    -0.756471,
    -0.409171,
    -0.092610,
    -1.354310,
    0.010269,
    0.150132,
    2.010410,
    -1.643937,
    -3.233202,
    -2.497527,
    1.844191,
    -0.466005,
    -0.190970,
    -1.245066,
    -0.180351,
    -0.884762,
    0.143535,
    0.039607,
    -0.391250,
    -0.036546,
    1.721298,
    -0.235089,
    -1.624814,
    -0.212251,
    0.512431,
    -0.457133,
    0.053409,
    0.302504,
    0.223998,
    0.772458,
    1.051650,
    0.039624,
    0.300022,
    1.161253,
    -0.405624,
    0.409777,
    -1.133268,
    -0.286217,
    0.972229,
    -1.169653,
    0.774631,
    -0.433809,
    -0.294337,
    -1.451088,
    1.108213,
    0.104069,
    -0.250767,
    -0.288285,
    -0.189122,
    -1.624094,
    -0.838569,
    0.372943,
    0.318352,
    -0.450536,
    -0.738290,
    -1.489564,
    -1.383237,
    2.235046,
    -0.573876,
    0.095121,
    -0.414193,
    1.365736,
    -1.623192,
    1.742696,
    0.399705,
    -0.254636,
    1.749452,
    -1.765948,
    -0.379956,
    0.287045,
    0.081652,
    1.046913,
    0.605503,
    -0.373455,
    0.117182,
    -0.675428,
    -0.832234,
    -1.776809,
    -0.492478,
    -1.893257,
    -2.325346,
    1.252087,
    0.386729,
    2.159089,
    0.959487,
    -0.197228,
    -0.653370,
    -0.391634,
    0.366696,
    0.069660,
    -0.873499,
    0.973412,
    -0.226922,
    0.889666,
    0.000510,
    1.007672,
    -0.005680,
    0.129934,
    0.871641,
    -1.728775,
    0.383192,
    1.008881,
    0.528234,
    -0.481555,
    0.048563,
    -0.331806,
    -1.367966,
    -0.539680,
    0.809356,
    0.564610,
    -0.132948,
    -1.923247,
    -2.141780,
    -1.963669,
    0.005514,
    0.315720,
    -0.454733,
    0.249112,
    -0.717165,
    -1.174788,
    -0.565940,
    -0.136156,
    0.257663,
    -1.074235,
    0.310790,
    0.652626,
    -0.187119,
    0.445453,
    -0.090683,
    2.036235,
    -0.535318,
    0.270646,
    1.716834,
    1.190522,
    -1.653591,
    -0.308449,
    -0.137873,
    -2.085141,
    -1.246790,
    -0.135625,
    2.094629,
    -0.773639,
    -0.614232,
    0.312640,
    -0.433189,
    0.408706,
    -0.612277,
    -0.006063,
    1.268144,
    -2.806301,
    0.809362,
    1.379065,
    0.716865,
    -0.471868,
    0.145561,
    1.292668,
    0.672846,
    -0.594284,
    -1.321564,
    -0.786121,
    0.498621,
    -0.332333,
    0.202452,
    0.381604,
    0.319233,
    0.611049,
    0.323616,
    -1.260629,
    0.870964,
    1.339240,
    0.104307,
    -0.134048,
    1.908837,
    2.203955,
    0.180372,
    0.265073,
    0.869412,
    -0.758749,
    0.204291,
    -1.476443,
    -1.024035,
    0.282716,
    -0.079063,
    -0.339044,
    -0.041275,
    0.382664,
    1.598464,
    -1.283285,
    0.308661,
    1.120375,
    -1.458815,
    -0.266306,
    -0.653207,
    -0.239921,
    -1.036306,
    -1.077895,
    0.638369,
    0.747603,
    3.751296,
    0.996883,
    3.741376,
    -0.421864,
    -1.004219,
    2.740480,
    -1.540736,
    -0.689461,
    1.513185,
    -0.130669,
    0.334153,
    -0.189267,
    0.795578,
    -0.043211,
    2.092362,
    -0.735300,
    -0.131924,
    0.295201,
    -0.668430,
    -1.386055,
    -1.299335,
    0.305815,
    -1.919123,
    -1.655417,
    -0.088444,
    2.187125,
    1.135108,
    1.017883,
    0.354696,
    -0.711313,
    0.853389,
    0.575667,
    -1.464357,
    1.114182,
    -0.030996,
    2.340912,
    0.863966,
    1.144498,
    0.331634,
    0.017344,
    0.150858,
    0.707130,
    -0.228582,
    -2.112260,
    -0.225309,
    -0.372201,
    -0.903608,
    -1.073097,
    0.533160,
    0.559624,
    1.471093,
    2.325895,
    0.673991,
    0.778045,
    3.217201,
    -0.557018,
    0.270266,
    0.087818,
    -1.311517,
    0.828599,
    0.812511,
    -0.472953,
    -1.505074,
    -1.274479,
    -0.117877,
    0.019706,
    0.949273,
    1.049199,
    1.284500,
    1.384624,
    -3.255950,
    -0.664825,
    -0.497639,
    -1.760905,
    -2.026180,
    -1.656327,
    -1.894298,
    -2.237705,
    -0.799755,
    0.475488,
    0.787512,
    0.590571,
    -2.035460,
    1.674638,
    0.452166,
    -0.483085,
    0.601146,
    -1.007642,
    -0.352658,
    0.159488,
    0.050018,
    0.003766,
    -0.268894,
    0.639426,
    -0.298374,
    -0.469284,
    -1.053962,
    -1.339054,
    1.735179,
    -0.694921,
    0.087444,
    -1.008802,
    -0.426855,
    -0.155932,
    -0.281760,
    -2.515787,
    -0.672336,
    -0.633953,
    0.373795,
    -1.938985,
    0.467247,
    -0.918885,
    0.396653,
    -2.019922,
    -1.300915,
    0.269972,
    -0.444898,
    -1.669814,
    -1.781882,
    0.636321,
    0.388745,
    -0.192412,
    1.712807,
    0.406234,
    0.715885,
    -0.699269,
    1.044450,
    -2.961174,
    0.549803,
    -0.672466,
    -0.290088,
    0.497257,
    -0.124524,
    -1.535727,
    0.458566,
    -1.411460,
    -0.857003,
    -1.402749,
    -0.836093,
    0.221659,
    -2.062413,
    0.491380,
    -0.870428,
    -0.616193,
    -0.841005,
    -0.167534,
    -1.328559,
    0.764485,
    -0.339887,
    0.046083,
    0.527572,
    -0.437094,
    0.943189,
    0.384037,
    1.179824,
    -1.949805,
    -1.894299,
    0.125763,
    0.163500,
    0.523829,
    -1.035902,
    -0.096008,
    0.014502,
    0.123186,
    1.860828,
    1.245978,
    3.472831,
    0.664113,
    -0.370135,
    -0.435576,
    0.475179,
    -0.081512,
    0.288641,
    0.516392,
    1.161009,
    -1.626397,
    0.943984,
    -0.781100,
    0.604425,
    0.641195,
    0.748813,
    -0.113755,
    0.172839,
    -1.813503,
    -0.832312,
    0.754008,
    -0.411635,
    -0.574586,
    1.230746,
    0.220979,
    0.402490,
    -0.201094,
    3.316211,
    2.551624,
    0.979523,
    -1.050189,
    -0.998266,
    0.586836,
    0.585213,
    -0.738288,
    0.477250,
    1.674165,
    -0.711979,
    -0.108623,
    0.772440,
    0.420931,
    0.035831,
    -1.135488,
    0.216553,
    -0.951232,
    0.412993,
    1.145062,
    -0.308128,
    0.764346,
    -0.760678,
    0.612352,
    -0.760467,
    -0.366790,
    -2.071064,
    4.216513,
    4.631721,
    1.506999,
    1.009321,
    0.969280,
    -0.087140,
    -0.179990,
    2.006427,
    -0.280421,
    -0.120542,
    0.076734,
    -0.620422,
    1.245785,
    -0.915890,
    -0.685539,
    -1.280958,
    0.559061,
    1.013375,
    -0.276365,
    0.866785,
    -1.014820,
    -0.348304,
    -0.309045,
    0.150486,
    -0.534008,
    -0.215161,
    1.310699,
    0.854099,
    4.393183,
    2.779265,
    1.938969,
    -0.292372,
    0.908513,
    -1.091774,
    1.283599,
    -1.683647,
    3.712283,
    0.705019,
    -1.393273,
    -1.448146,
    0.683814,
    0.148529,
    0.269971,
    0.751847,
    -0.444354,
    -0.226050,
    0.301131,
    -0.761616,
    -0.098778,
    -0.242573,
    0.703948,
    0.310956,
    0.978049,
    1.049679,
    2.642293,
    2.977191,
    5.489773,
    0.591202,
    -0.617141,
    0.012077,
    0.230817,
    -0.206752,
    -1.027315,
    -1.428211,
    -0.890534,
    -0.475672,
    0.814140,
    0.983938,
    -0.934980,
    -0.573345,
    0.711264,
    1.037772,
    0.447040,
    1.403353,
    -0.233831,
    -0.407659,
    0.576376,
    0.160541,
    -0.580591,
    -0.650887,
    1.442979,
    2.459515,
    3.448658,
    4.298301,
    1.709054,
    -0.670857,
    -1.153570,
    -0.153348,
    0.088077,
    -0.366498,
    1.582729,
    -0.547537,
    -0.833295,
    -1.767338,
    2.408676,
    0.065225,
    -0.106090,
    0.785739,
    -0.133296,
    -0.385598,
    0.040826,
    0.462138,
    -0.444237,
    1.179836,
    1.429222,
    1.364590,
    2.860371,
    1.585704,
    1.361446,
    4.109507,
    2.824081,
    0.836839,
    1.756966,
    -1.595662,
    -0.553517,
    0.266363,
    0.310296,
    -1.330267,
    -1.599762,
    -0.228826,
    0.753543,
    -0.572100,
    0.367274,
    0.268992,
    -0.260804,
    0.335583,
    0.514812,
    -1.038941,
    1.195706,
    0.404743,
    -1.164121,
    1.329078,
    1.349434,
    -0.938925,
    1.127656,
    1.106720,
    2.283123,
    3.576325,
    2.856786,
    1.683265,
    -2.340050,
    -0.986497,
    -1.277505,
    0.147711,
    -0.126128,
    -0.389672,
    -1.175364,
    0.434036,
    1.007869,
    2.138224,
    1.301295,
    -0.505795,
    0.401594,
    -0.250376,
    1.232149,
    -0.783745,
    1.023347,
    1.050875,
    -1.496192,
    1.640250,
    -0.408882,
    1.123719,
    0.942968,
    2.079144,
    0.219177,
    2.398990,
    0.852871,
    1.626786,
    -0.951046,
    -2.215938,
    -2.260376,
    0.705124,
    0.769005,
    0.248635,
    1.319668,
    1.270378,
    -0.786536,
    -0.043228,
    -0.026482,
    0.632372,
    -1.328324,
    0.661638,
    1.488240,
    -1.056837,
    -0.526154,
    -0.068506,
    1.827559,
    0.976020,
    1.255727,
    0.946217,
    1.277505,
    1.525777,
    0.532928,
    0.990236,
    0.664491,
    0.176595,
    -3.234841,
    -1.782589,
    -0.720670,
    -1.780791,
    0.776735,
    1.641977,
    1.016320,
    1.091310,
    1.163158,
    2.519204,
    2.466948,
    1.412687,
    1.107051,
    0.676467,
    0.424347,
    2.022594,
    -0.257825,
    0.571748,
    0.198255,
    -1.396841,
    0.741310,
    1.291841,
    0.754370,
    1.424655,
    1.079260,
    1.331650,
    -0.653940,
    0.290513,
    0.131472,
    -1.192825,
    -2.149562,
    0.107003,
    1.248099,
    1.255072,
    -0.548761,
    0.322939,
    0.907362,
    0.886794,
    -0.111759,
    0.164320,
    -0.696677,
    -0.765224,
    0.896710,
    -1.407824,
    -0.660297,
    0.491655,
    0.729508,
    -0.572842,
    1.920004,
    -0.993281,
    1.704211,
    0.595374,
    -0.915921,
    0.398584,
    1.757400,
    1.448359,
    -0.896652,
    0.710364,
    -0.096417,
    -0.888585,
    -0.787190,
    1.410082,
    -0.117064,
    0.126047,
    1.632906,
    0.418919,
    -0.114892,
    1.770971,
    0.298390,
    -0.412158,
    1.423509,
    -0.558194,
    1.896409,
    -1.746572,
    -0.422452,
    0.341054,
    2.166186,
    -0.988165,
    0.111544,
    0.341765,
    1.679078,
    -0.040828,
    2.835464,
    2.497251,
    1.601531,
    -0.722014,
    -0.793134,
    -2.803419,
    0.561146,
    0.975506,
    0.597189,
    -1.162339,
    0.912457,
    -0.548540,
    -0.239516,
    1.267682,
    -0.491975,
    -1.104190,
    0.652321,
    -1.240457,
    -0.639889,
    -1.154002,
    0.459598,
    0.287638,
    0.182998,
    -0.395167,
    -1.809475,
    -0.344868,
    0.320861,
    -0.972787,
    -1.213266,
    0.592386,
    1.476693,
    1.216624,
    -1.151571,
    -1.700609,
    -0.761340,
    -1.084570,
    -0.031721,
    0.698483,
    0.496269,
    0.124582,
    0.399625,
    0.283817,
    -1.692090,
    -0.247290,
    0.061265,
    1.036166,
    -0.025140,
    -1.203772,
    -1.003114,
    0.209063,
    0.037614,
    0.087235,
    -1.667300,
    0.226251,
    -0.471929,
    -0.404598,
    0.072837,
    -1.741586,
    -0.579308,
    -0.401261,
    1.764716,
    1.798523,
    -1.224616,
    -2.191066,
    -0.598571,
    -1.345619,
    0.530236,
    -0.401332,
    -0.064597,
    1.480318,
    -0.541421,
    0.830545,
    1.663461,
    -0.996266,
    0.669228,
    -0.412108,
    -1.629581,
    0.804100,
    0.126585,
    -0.997033,
    -0.287552,
    0.422447,
    -0.131066,
    0.288587,
    0.683487,
    0.809328,
    0.701753,
    1.068504,
    -0.378277,
    1.088487,
    -0.337801,
    1.094434,
    -1.018287,
    0.323649,
    -0.852026,
    -1.086208,
    1.951472,
    -0.116797,
    -1.560272,
    -1.667557,
    0.792457,
    1.174475,
    -0.090957,
    0.617861,
    1.588359,
    0.233932,
    0.079356,
    0.722971,
    0.154522,
    0.595790,
    -0.320183,
    1.009184,
    -1.330039,
    -0.791251,
    2.464566,
    0.301969,
    0.917419,
    -1.504584,
    -1.428439,
    -0.554884,
    -0.460725,
    -1.649164,
    -0.144195,
    -0.921803,
    0.519042,
    -0.121634,
    -0.809172,
    0.856583,
    -0.687747,
    0.144952,
    -0.127712,
    0.900311,
    0.394482,
    0.813310,
    0.863686,
    0.043520,
    0.763314,
    -1.398077,
    -0.071366,
    0.623591,
    -0.107184,
    0.006457,
    -1.627644,
    0.933408,
    -0.885564,
    1.718169,
    -0.196727,
    -0.036321,
    0.836576,
    0.632909,
    -1.715871,
    -0.992598,
    -0.068796,
    0.118513,
    -0.730372,
    0.984670,
    0.461558,
    -0.203825,
    -1.318533,
    -0.017211,
    0.959491,
    -1.273741,
    -1.467708,
    -0.633860,
    1.287182,
    -0.009198,
    0.537561,
    0.916709,
    0.524345,
    -0.357209,
    -0.097223,
    -2.818765,
    0.896921,
    0.471378,
    -1.475725,
    -0.990002,
    -0.109242,
    1.256495,
    -1.117176,
    0.109853,
    -0.185679,
    -0.778877,
    -0.175323,
    -1.591342,
    -0.482255,
    2.455492,
    -0.557169,
    -0.555871,
    1.101398,
    1.253997,
    -0.805262,
    -0.109119,
    -2.890630,
    0.741539,
    0.259147,
    0.599925,
    0.386556,
    1.210829,
    -1.158967,
    -0.653946,
    0.089286,
    0.060642,
    -0.861362,
    0.092551,
    0.397628,
    0.729558,
    0.338028,
    0.226971,
    -1.403231,
    0.581237,
    0.049287,
    0.222920,
    -0.994409,
    0.901702,
    -0.379721,
    -0.093737,
    0.476633,
    0.679783,
    2.650545,
    -0.830804,
    1.172602,
    1.566758,
    0.706802,
    0.059510,
    -0.291677,
    0.192228,
    -1.951781,
    2.502291,
    -0.132993,
    1.727906,
    0.615105,
    -1.377107,
    -1.552541,
    2.314458,
    -2.263331,
    0.425763,
    0.517146,
    1.219561,
    -0.036670,
    1.330160,
    1.269222,
    0.646514,
    0.701954,
    0.138218,
    0.120757,
    -0.687607,
    -0.885614,
    -0.397492,
    -0.977570,
    1.326820,
    0.802383,
    -0.417792,
    0.714117,
    0.351706,
    1.157477,
    -2.100535,
    0.770790,
    -0.295742,
    -1.005654,
    2.045404,
    1.211496,
    1.480256,
    -0.404839,
    1.547926,
    -2.596830,
    -0.460872,
    -2.665153,
    1.139220,
    -2.085279,
    0.030652,
    1.167236,
    -0.536609,
    -1.243634,
    -0.337817,
    0.929893,
    0.868738,
    0.945045,
    0.718016,
    -0.566829,
    -2.074541,
    1.356469,
    0.023294,
    -0.907087,
    -0.138145,
    1.279724,
    1.380603,
    2.745517,
    0.818646,
    0.530016,
    -0.120245,
    0.394335,
    -0.026212,
    0.276625,
    -1.751750,
    0.731591,
    -0.313441,
    -0.104206,
    -1.103803,
    -1.420199,
    -0.781325,
    -0.384367,
    -1.131568,
    -0.110187,
    -2.338961,
    1.552371,
    -0.712106,
    -0.723624,
    -0.042315,
    0.633447,
    1.703795,
    2.995021,
    4.068426,
    1.056736,
    1.858898,
    0.286714,
    0.173142,
    0.169406,
    -2.211065,
    -1.716806,
    -1.593273,
    0.833693,
    -0.285052,
    -0.736595,
    -0.807469,
    -0.546598,
    -0.943086,
    0.518213,
    -0.683257,
    1.395802,
    0.471824,
    0.914044,
    -2.442478,
    -0.463438,
    -0.810952,
    -0.641243,
    0.343344,
    -0.974805,
    3.342921,
    1.081529,
    1.435557,
    0.070509,
    -1.180621,
    -1.511805,
    -3.632649,
    -2.982966,
    -3.719573,
    -2.112816,
    -1.469796,
    -1.674615,
    -0.750227,
    -0.540766,
    0.762967,
    0.040856,
    -0.904947,
    0.893999,
    -0.672330,
    -0.056231,
    -0.597414,
    0.695231,
    -2.098987,
    -1.970819,
    0.606706,
    0.412434,
    0.159793,
    0.259565,
    2.287272,
    0.179946,
    0.338860,
    -0.798101,
    -0.220330,
    -3.088777,
    -1.846069,
    -1.201814,
    -1.061544,
    -3.376677,
    -2.618786,
    -0.672214,
    -1.926235,
    -1.648106,
    0.352254,
    -0.903050,
    1.464845,
    0.363950,
    0.892371,
    -0.561854,
    -0.744975,
    0.012699,
    -0.015003,
    0.364457,
    1.220798,
    1.419402,
    0.713105,
    1.992184,
    0.056054,
    1.077391,
    -2.097596,
    -1.739615,
    0.802784,
    -0.334331,
    -0.129491,
    -0.603641,
    -0.351531,
    -1.025672,
    -0.903702,
    -1.960867,
    -0.739670,
    -2.154046,
    0.763929,
    0.327970,
    1.058190,
    0.641767,
    -0.772337,
    -0.501386,
    0.498459,
    -0.298103,
    1.486379,
    0.241480,
    0.231730,
    -0.037360,
    0.678060,
    2.111255,
    -0.786847,
    -0.583384,
    -0.450041,
    -0.342186,
    1.089894,
    1.716327,
    0.946806,
    0.686993,
    0.100440,
    -1.356310,
    -2.234798,
    -2.030319,
    -0.545953,
    -1.082662,
    -0.682877,
    -0.539708,
    -1.378174,
    -1.464317,
    -1.180465,
    0.331009,
    0.513762,
    0.034383,
    -0.153664,
    0.942192,
    -0.497497,
    0.660041,
    -2.937380,
    -2.178185,
    -4.019706,
    -0.638482,
    -0.915419,
    0.106719,
    0.347211,
    0.348957,
    1.461461,
    0.902728,
    -0.463101,
    1.487579,
    -1.696444,
    0.116609,
    1.568280,
    0.333651,
    -1.644595,
    0.033772,
    -0.984026,
    1.264948,
    -0.735549,
    0.327872,
    -0.162738,
    0.642600,
    1.597709,
    0.192260,
    -0.799210,
    -0.714415,
    0.079914,
    -2.209832,
    -0.697165,
    0.007794,
    -0.358962,
    1.323491,
    0.075060,
    0.523362,
    0.390070,
    0.959715,
    0.808928,
    1.274622,
    0.586462,
    -1.015178,
    1.686855,
    0.479194,
    0.208171,
    -0.256124,
    0.637447,
    -1.561159,
    0.211934,
    0.733182,
    0.191407,
    1.913549,
    2.302586,
    0.736129,
    -0.485137,
    0.571103,
    1.017729,
    -0.265023,
    1.245733,
    -0.010666,
    -1.019498,
    0.538071,
    0.190853,
    1.195689,
    -0.171751,
    -1.079510,
    1.193967,
    0.614237,
    -0.235600,
    0.470881,
    1.717581,
    0.487486,
    -0.365684,
    -0.871116,
    0.040529,
    -0.272465,
    2.094270,
    -0.320093,
    -0.898090,
    -0.006354,
    -0.927924,
    0.362755,
    1.033750,
    -1.043370,
    0.750757,
    1.257167,
    -0.477283,
    -1.927934,
    -0.665984,
    -1.014948,
    -2.249484,
    -0.358278,
    -1.935891,
    0.562587,
    -1.795715,
    -1.924304,
    -0.020941,
    -0.804471,
    0.237843,
    1.169039,
    1.888517,
    0.740548,
    -0.311040,
    -0.964136,
    -0.879552,
    -1.677692,
    0.906505,
    -0.089614,
    0.319949,
    -0.270890,
    1.792450,
    1.222405,
    0.008652,
    -1.222245,
    -1.076470,
    0.936052,
    0.546197,
    -0.166642,
    0.825006,
    -0.185626,
    0.494595,
    -0.381845,
    -0.856788,
    -0.008831,
    -0.986325,
    -0.596936,
    1.063069,
    0.814605,
    0.232560,
    -1.299837,
    1.338205,
    -0.325948,
    -2.737275,
    -0.704052,
    -1.009767,
    2.277193,
    -0.435476,
    -0.055942,
    -0.647490,
    -1.228955,
    -0.852486,
    -1.482347,
    -0.627140,
    -0.108830,
    -0.123556,
    -1.401274,
    0.007055,
    -0.006816,
    1.430188,
    0.259583,
    0.986217,
    -1.106812,
    -2.013839,
    1.975853,
    0.309076,
    1.636631,
    2.341471,
    1.340798,
    0.513895,
    -0.107968,
    0.940344,
    1.078028,
    -1.392319,
    0.065961,
    -0.474186,
    -0.405365,
    1.398183,
    0.649410,
    0.897665,
    -0.141759,
    -0.421599,
    1.393514,
    0.624311,
    -0.770016,
    -0.081939,
    0.936363,
    -2.248433,
    -0.217343,
    -0.549255,
    0.716924,
    0.739099,
    2.321287,
    0.914440,
    -1.335625,
    0.906480,
    -0.047637,
    0.083712,
    -0.018843,
    0.313322,
    -0.057790,
    1.821854,
    0.130147,
    1.619128,
    0.348750,
    -0.267964,
    -1.281793,
    0.211507,
    1.189227,
    1.400925,
    2.280938,
    -1.011984,
    -0.775819,
    0.655941,
    -0.815263,
    -0.774229,
    0.076057,
    -0.553539,
    -0.440207,
    -0.454324,
    3.478461,
    1.128129,
    0.427128,
    1.212613,
    0.129884,
    0.202442,
    -2.570255,
    0.234239,
    1.027228,
    1.998415,
    -0.778953,
    -1.258269,
    0.187818,
    -0.063820,
    0.009001,
    -0.341123,
    -0.028396,
    0.692924,
    1.702001,
    -1.080787,
    -0.814881,
    -0.507971,
    -0.879317,
    -0.381685,
    -1.563023,
    0.228608,
    0.062048,
    -1.253669,
    0.250299,
    1.835430,
    0.219281,
    1.797252,
    -0.400958,
    -1.134766,
    -0.330082,
    -1.076837,
    0.393276,
    1.234051,
    0.245603,
    2.000938,
    -0.545127,
    -0.246845,
    0.642973,
    1.318251,
    0.291334,
    0.571314,
    -1.128673,
    1.658679,
    -0.180871,
    -0.367577,
    -1.168674,
    -1.326213,
    1.030537,
    -0.130655,
    0.439969,
    0.385086,
    -0.211429,
    1.053152,
    0.653165,
    -1.237690,
    -0.492009,
    -0.882582,
    -0.668702,
    1.013455,
    1.651881,
    0.786182,
    0.172547,
    2.553017,
    0.097825,
    -0.936532,
    -0.998529,
    1.433625,
    0.559001,
    -2.109035,
    -0.665380,
    -3.077232,
    -0.751347,
    -1.249139,
    -0.227259,
    -0.171849,
    -2.232779,
    -1.543472,
    -2.276000,
    -2.003656,
    -0.489809,
    1.499892,
    0.922927,
    0.663907,
    0.948630,
    1.451071,
    0.240276,
    0.666241,
    -0.249464,
    0.374599,
    0.235364,
    0.718260,
    -0.036326,
    0.219002,
    0.350720,
    -0.128489,
    1.651240,
    -0.268080,
    0.933453,
    -0.824986,
    -1.511852,
    -0.929139,
    -0.597975,
    -1.532023,
    0.356181,
    -0.304230,
    -1.321064,
    -0.090369,
    1.694886,
    -0.979364,
    -2.308231,
    -0.781576,
    0.717380,
    -1.627926,
    0.574549,
    0.230009,
    0.723852,
    1.030384,
    0.959475,
    0.217077,
    0.044399,
    -2.757394,
    0.445540,
    -0.916758,
    -0.190359,
    -0.765935,
    0.181954,
    0.090432,
    0.191420,
    -0.031391,
    0.873936,
    0.502089,
    0.825361,
    -1.000387,
    0.674138,
    0.257613,
    1.484058,
    -0.488975,
    -0.180742,
    0.594009,
    -1.313162,
    -1.111462,
    -0.786224,
    1.693599,
    0.236715,
    1.418704,
    -1.622759,
    -0.591291,
    -0.769553,
    0.311323,
    -3.173347,
    -1.479363,
    -3.303026,
    -1.508978,
    -0.696964,
    -1.183664,
    1.062478,
    -0.176749,
    1.206084,
    -0.587366,
    0.069717,
    1.701944,
    1.612599,
    0.645342,
    0.051779,
    -0.374814,
    -0.540629,
    1.288199,
    0.217808,
    -0.396071,
    -0.709482,
    0.667693,
    1.116346,
    0.738833,
    -1.026711,
    0.840197,
    0.925341,
    -1.008766,
    -1.765125,
    -0.477635,
    -0.542978,
    0.051859,
    -1.540281,
    -1.036825,
    -1.707344,
    -0.669202,
    1.656996,
    1.408085,
    0.977874,
    0.975344,
    3.158923,
    0.351250,
    -1.507522,
    -0.310870,
    -0.707479,
    -0.459191,
    0.419793,
    -0.147160,
    0.309565,
    -0.311238,
    -0.570010,
    0.072067,
    -0.288441,
    0.490939,
    -1.018844,
    -1.072595,
    1.286938,
    0.541310,
    -0.421229,
    1.366405,
    -0.808876,
    0.188228,
    0.544663,
    1.008554,
    -0.830019,
    0.165678,
    -0.340961,
    -0.764290,
    -0.026925,
    -0.497048,
    0.099186,
    0.625332,
    1.828888,
    -0.786925,
    -0.772286,
    0.456480,
    0.289572,
    -0.276013,
    0.180524,
    -0.586419,
    -1.395537,
    0.240565,
    0.595460,
    0.059963,
    -0.880071,
    -0.004359,
    0.182583,
    0.573942,
    1.993882,
    1.257439,
    -0.761732,
    0.719569,
    -0.737481,
    0.920000,
    -0.571009,
    0.136222,
    0.410554,
    0.700893,
    0.538841,
    -0.941694,
    -1.114720,
    -0.677829,
    -0.523755,
    -0.671660,
    0.696036,
    -0.003762,
    0.207217,
    -0.140916,
    -1.971522,
    -0.020444,
    0.995377,
    0.050670,
    1.209736,
    0.437211,
    0.940211,
    -0.088993,
    -0.817736,
    0.244235,
    -0.798870,
    0.317496,
    0.205603,
    -1.631629,
    1.170053,
    -0.145559,
    -0.266346,
    0.195891,
    -0.506004,
    0.649916,
    0.480302,
    -0.927912,
    -0.802502,
    0.807516,
    0.476924,
    -0.602196,
    0.959090,
    0.925078,
    1.093087,
    -0.024600,
    0.907613,
    -1.210748,
    -0.507370,
    0.024295,
    -0.003460,
    1.461264,
    -1.463390,
    -0.426828,
    1.060757,
    -0.046019,
    -0.497070,
    0.330156,
    0.187983,
    -1.513430,
    0.650864,
    -0.369597,
    -1.251826,
    -1.021720,
    -0.398173,
    0.125881,
    -1.501255,
    2.765572,
    -0.137298,
    1.063702,
    0.715094,
    -0.181042,
    0.338762,
    -0.705577,
    1.015623,
    0.335028,
    0.359863,
    0.418891,
    0.412248,
    -0.713708,
    0.428916,
    -0.029055,
    0.591636,
    -0.529459,
    -0.426288,
    -0.106768,
    2.509876,
    -0.536885,
    -1.038671,
    1.433147,
    0.845538,
    -0.348599,
    -1.646910,
    -0.004601,
    1.502415,
    -1.142511,
    0.539247,
    -0.810600,
    -0.934089,
    -0.901709,
    2.083432,
    0.012306,
    -2.375989,
    -0.673537,
    0.983288,
    2.026890,
    1.265467,
    -0.484603,
    0.549084,
    0.586448,
    -0.978643,
    1.348770,
    0.609361,
    1.788039,
    -0.749028,
    0.035027,
    0.351166,
    0.772399,
    0.631305,
    -1.262096,
    -0.424401,
    0.762521,
    -0.014480,
    -1.066477,
    -0.785470,
    -0.868195,
    0.221799,
    -1.072993,
    1.747841,
    0.353520,
    0.760056,
    -0.932974,
    -0.993307,
    -0.232006,
    -0.175320,
    0.343718,
    0.642285,
    1.675859,
    0.821232,
    3.297817,
    4.063898,
    1.655932,
    1.490424,
    2.384324,
    0.684886,
    0.511031,
    1.532327,
    -0.714614,
    -0.729868,
    0.406036,
    0.106308,
    0.519235,
    0.277250,
    -0.526837,
    -0.381945,
    1.854396,
    -0.161895,
    0.602153,
    -0.275551,
    -0.196914,
    -1.177455,
    0.175845,
    -0.330418,
    -2.099400,
    -1.057134,
    -0.190306,
    1.386844,
    0.111845,
    3.300681,
    1.895212,
    -0.053220,
    -0.394963,
    -0.724222,
    0.928982,
    0.906265,
    1.126675,
    -0.108462,
    0.768851,
    -0.126702,
    -0.857978,
    -0.577178,
    -0.381427,
    -0.417478,
    -0.360064,
    0.659426,
    0.054612,
    -1.014470,
    2.093767,
    0.102202,
    -0.652831,
    -0.501672,
    -1.206273,
    -2.080312,
    -0.615587,
    -2.384969,
    -3.465336,
    -2.090066,
    -1.649808,
    -3.154978,
    1.137600,
    0.048539,
    0.781750,
    1.965558,
    1.243592,
    0.378616,
    0.462244,
    0.210155,
    1.134956,
    2.203218,
    -0.219061,
    1.435564,
    0.917586,
    0.342185,
    1.030126,
    0.205294,
    0.597626,
    -0.268477,
    -1.070788,
    -1.146349,
    -0.524820,
    -2.777043,
    -4.128355,
    -1.820114,
    -2.298910,
    -2.759240,
    -0.447588,
    0.153906,
    -0.436965,
    -1.972091,
    -1.678379,
    0.972507,
    1.745360,
    0.500421,
    1.422852,
    -0.382678,
    0.272122,
    0.539846,
    -0.054868,
    -0.143237,
    -0.449953,
    -0.671632,
    -0.764171,
    -0.211962,
    -1.416498,
    -0.570047,
    -0.335365,
    0.229244,
    -1.586452,
    0.439247,
    -3.146731,
    -2.643346,
    0.045822,
    -1.350846,
    -1.417557,
    -1.440883,
    -0.986907,
    1.292300,
    -0.217807,
    0.895437,
    -0.747075,
    -0.341432,
    1.621864,
    1.230897,
    0.083382,
    0.184803,
    2.340016,
    0.215068,
    0.357717,
    0.783627,
    0.655959,
    -1.465911,
    0.581108,
    -1.073185,
    0.181223,
    -1.418403,
    -0.959001,
    -1.887451,
    -0.520516,
    -3.957651,
    -0.294337,
    -1.058760,
    -0.631032,
    1.489688,
    1.688052,
    0.355772,
    1.056526,
    0.749350,
    0.888347,
    0.250935,
    1.071382,
    1.700965,
    0.757094,
    -0.654016,
    -0.318646,
    0.761181,
    0.354775,
    0.398995,
    -1.169357,
    -0.191021,
    -0.244819,
    1.239685,
    1.411402,
    1.055967,
    -0.963197,
    -1.795720,
    -3.584709,
    -3.920407,
    0.490163,
    -1.510039,
    -0.148472,
    0.017635,
    0.391500,
    -0.734328,
    -0.496598,
    -1.642805,
    -2.389246,
    0.942263,
    -0.697854,
    0.380391,
    -0.486826,
    1.454325,
    0.678045,
    0.403226,
    -1.181917,
    0.414621,
    -0.049101,
    -1.571821,
    -0.864752,
    -1.907357,
    -1.536453,
    -0.681052,
    -1.623810,
    -1.561853,
    -4.134178,
    -2.411466,
    -0.549054,
    -1.609697,
    -0.511569,
    -0.685106,
    -1.168772,
    -1.711732,
    0.060478,
    -0.013849,
    1.097200,
    -0.408326,
    -1.835799,
    -1.683202,
    2.258242,
    1.024123,
    -2.407808,
    -0.924776,
    -1.282548,
    -1.559693,
    -0.435773,
    -1.373549,
    -0.490601,
    1.156620,
    -0.515543,
    0.292370,
    1.992376,
    2.916627,
    1.620873,
    -2.517980,
    -1.833243,
    0.940558,
    -1.630157,
    -2.546563,
    -1.335777,
    -0.162264,
    0.558190,
    0.298262,
    -1.621972,
    0.420968,
    -0.816098,
    -2.067487,
    0.047624,
    -0.497885,
    0.778740,
    0.692012,
    -0.991922,
    -2.889110,
    1.137416,
    -0.196509,
    0.940624,
    0.325235,
    0.241894,
    2.282449,
    3.273645,
    3.090275,
    2.717829,
    -2.792980,
    3.017054,
    1.406219,
    -0.152950,
    0.394084,
    1.294607,
    -0.931165,
    -1.010191,
    -1.124261,
    0.935679,
    -1.020073,
    -0.662202,
    -0.117788,
    0.761398,
    -0.041675,
    -0.683544,
    0.672102,
    -0.343125,
    0.726578,
    0.856193,
    0.019262,
    2.808980,
    0.347891,
    2.682280,
    -0.243996,
    1.901938,
    4.122544,
    -0.414460,
    1.098845,
    -1.135441,
    -0.544867,
    0.929946,
    -1.146086,
    0.269533,
    0.284146,
    0.223227,
    -1.402028,
    0.283783,
    1.976175,
    -0.216175,
    0.235739,
    0.776384,
    0.048585,
    -0.265743,
    0.344725,
    -1.587391,
    1.733004,
    -0.931772,
    -0.088961,
    1.434799,
    -0.663722,
    -1.113182,
    1.592543,
    -1.055147,
    2.208176,
    1.947614,
    2.047663,
    -1.457449,
    1.207126,
    -0.894756,
    -0.719249,
    0.143923,
    -1.279571,
    -1.433042,
    0.689358,
    1.061379,
    0.625165,
    0.288400,
    -0.542059,
    1.427685,
    0.372239,
    0.447291,
    -0.861862,
    1.226759,
    1.257136,
    -1.018924,
    -0.662675,
    0.827812,
    -0.828334,
    -0.449846,
    0.597997,
    0.470129,
    -0.038096,
    2.801354,
    2.533075,
    1.901024,
    0.263237,
    -0.041338,
    -0.647722,
    -0.878875,
    0.414726,
    1.031552,
    0.115479,
    1.133162,
    -0.320387,
    -0.055055,
    0.568567,
    0.414572,
    -0.205078,
    -0.719476,
    -1.472243,
    0.371614,
    0.137996,
    1.129091,
    -0.035974,
    0.522007,
    0.259925,
    -0.055561,
    0.430002,
    0.504299,
    0.103684,
    1.210769,
    1.164530,
    0.228346,
    0.318410,
    0.478218,
    -0.214696,
    0.910375,
    0.440744,
    0.863271,
    1.445087,
    0.986775,
    1.764206,
    -0.383573,
    1.777415,
    0.127317,
    -1.441007,
    -0.080809,
    0.800635,
    -0.946653,
    1.068941,
    1.317454,
    1.670757,
    1.123005,
    1.595108,
    -0.495103,
    -0.922772,
    0.543970,
    1.497264,
    0.648289,
    0.710993,
    -0.113222,
    3.010237,
    -0.296738,
    -0.452558,
    -1.603474,
    -0.729358,
    1.344154,
    0.371198,
    1.563313,
    1.928644,
    -0.618577,
    -1.475846,
    0.021780,
    -0.288962,
    -0.082992,
    0.315214,
    -1.865038,
    1.870094,
    0.630896,
    0.804890,
    0.200336,
    -0.556083,
    -0.617730,
    1.145805,
    1.313897,
    2.295324,
    0.715132,
    0.546535,
    3.453405,
    1.665892,
    -1.294087,
    1.316424,
    -0.481548,
    0.712956,
    0.697832,
    -0.010651,
    0.816342,
    -1.615182,
    0.971475,
    -0.163837,
    1.161013,
    -0.716367,
    -0.469054,
    0.173736,
    -1.654233,
    0.648514,
    -0.161378,
    0.018836,
    1.391720,
    0.264021,
    1.053343,
    1.718664,
    2.677443,
    1.119743,
    0.609709,
    2.159997,
    0.130627,
    1.569362,
    1.026030,
    2.563885,
    -0.902111,
    -0.460174,
    1.239319,
    1.808234,
    -0.119832,
    -0.845285,
    -0.800954,
    0.530914,
    1.699801,
    -0.081121,
    -1.053255,
    -0.413137,
    0.639752,
    -1.172367,
    -1.828730,
    2.584472,
    1.534439,
    1.420201,
    -0.150357,
    2.983052,
    2.701880,
    0.664362,
    3.245733,
    0.239565,
    0.986400,
    -1.439291,
    2.420576,
    1.975695,
    -0.604403,
    1.013028,
    1.488855,
    0.319858,
    -0.204405,
    0.204449,
    0.560173,
    0.928953,
    -1.047880,
    -0.768498,
    0.017913,
    -0.261513,
    -1.601674,
    -0.843863,
    0.262701,
    1.188928,
    0.971879,
    0.667905,
    -0.219011,
    -0.194960,
    0.481880,
    -0.892818,
    1.512955,
    -0.572543,
    1.004132,
    -0.469396,
    -1.486985,
    1.930995,
    3.209375,
    1.409565,
    0.665650,
    0.278506,
    -1.515475,
    0.799879,
    -0.488772,
    -2.220286,
    0.366276,
    -1.409524,
    -0.891588,
    -1.641401,
    -0.735706,
    0.313336,
    -0.642834,
    -2.205142,
    -0.802025,
    -4.228026,
    0.290251,
    -0.764173,
    -1.444405,
    0.413553,
    -1.453088,
    0.286043,
    -0.143445,
    2.105347,
    2.153324,
    1.800960,
    0.122778,
    0.506801,
    0.781621,
    -0.728144,
    0.482543,
    -1.041293,
    0.911989,
    1.415095,
    -0.983552,
    0.624309,
    0.874561,
    -0.179045,
    -0.410727,
    -0.622033,
    0.091946,
    -2.776438,
    0.132730,
    -3.917316,
    -2.383554,
    -0.692870,
    -2.356059,
    -1.260514,
    -0.006609,
    -0.444068,
    -0.678705,
    0.514700,
    -0.476101,
    -0.407482,
    0.868345,
    -0.213647,
    -1.475557,
    0.708218,
    0.610103,
    -0.413931,
    -1.507324,
    0.221841,
    1.432188,
    -0.875714,
    2.261019,
    -0.692522,
    -1.196933,
    -1.390942,
    -2.643354,
    -3.121601,
    -2.254862,
    -1.288076,
    -1.346169,
    -2.513140,
    -2.143346,
    -2.138553,
    -1.747708,
    -1.546815,
    -0.517739,
    -1.681548,
    -3.208902,
    -2.025541,
    -1.339517,
    -0.141867,
    -0.332633,
    0.522584,
    -1.312339,
    -0.176958,
    -0.147998,
    1.783603,
    -0.491816,
    -1.546697,
    0.824345,
    1.404202,
    -0.458024,
    0.519971,
    -0.678590,
    -1.147964,
    -1.398653,
    -1.981416,
    -2.733944,
    -1.658755,
    -2.678577,
    -2.658378,
    -3.688328,
    -1.685426,
    -2.708884,
    -1.175590,
    -1.350660,
    -0.590477,
    -3.097545,
    -1.159779,
    0.983349,
    -0.873714,
    0.388868,
    0.653076,
    -0.064670,
    0.341867,
    0.888024,
    0.433836,
    -0.721995,
    -0.789269,
    0.013989,
    1.547599,
    0.650539,
    1.703319,
    -1.287601,
    1.004449,
    1.092266,
    -0.892157,
    1.017694,
    -3.102001,
    -1.831678,
    -1.163445,
    -0.798933,
    0.923948,
    0.360838,
    -0.482013,
    1.366991,
    0.134709,
    -0.343791,
    0.069265,
    0.488954,
    -0.556877,
    0.070440,
    -0.466330,
    0.215478,
    -1.236844,
    0.314017,
    -0.023643,
    1.071005,
    0.217905,
    0.333267,
    -0.435267,
    -1.292648,
    1.005276,
    0.681205,
    -1.625173,
    -0.246710,
    0.482793,
    0.687209,
    0.285773,
    0.123622,
    -0.284240,
    0.903767,
    1.529673,
    -1.349860,
    1.631222,
    0.692132,
    -1.981710,
    0.239085,
    2.830101,
    -0.691139,
    -0.111169,
    -2.613481,
    0.354447,
    1.091307,
    0.538723,
    -0.777772,
    0.135038,
    -0.277786,
    0.792913,
    0.807382,
    0.139318,
    0.073340,
    0.014206,
    -1.016949,
    1.024158,
    -1.194649,
    1.552316,
    0.326439,
    0.898611,
    0.208711,
    0.653830,
    1.937859,
    0.579904,
    -0.526639,
    0.055230,
    1.896117,
    0.117298,
    0.331721,
    1.000678,
    0.691442,
    0.854403,
    0.558316,
    0.332523,
    1.152473,
    -1.860012,
    -2.051494,
    2.312011,
    0.130162,
    -0.389034,
    -0.204125,
    1.887213,
    0.518392,
    0.219266,
    0.546411,
    -0.911272,
    -0.789036,
    -0.353156,
    1.173107,
    -0.066540,
    -1.286179,
    1.534298,
    1.880801,
    -1.000876,
    -1.547762,
    0.102450,
    -0.886934,
    0.551082,
    0.973198,
    0.781863,
    1.078373,
    -0.314389,
    1.133634,
    0.126414,
    -0.395744,
    1.079235,
    2.512783,
    1.642463,
    1.637791,
    1.889504,
    -0.942225,
    1.236138,
    2.726062,
    1.297618,
    -0.644194,
    0.415002,
    1.535652,
    0.811687,
    -0.015313,
    1.577490,
    1.663520,
    2.640829,
    2.746392,
    0.085795,
    -0.655965,
    0.323325,
    -0.490728,
    -0.360769,
    0.407190,
    -1.757555,
    0.266126,
    -0.216752,
    -0.551233,
    0.593187,
    1.663603,
    0.855556,
    2.827855,
    0.407352,
    1.122169,
    0.305982,
    -0.433015,
    0.091648,
    -0.159717,
    -0.156680,
    0.530908,
    0.305479,
    1.460670,
    1.407809,
    0.774733,
    2.113482,
    2.781011,
    0.049214,
    -0.370990,
    1.181525,
    0.157874,
    -0.507675,
    -0.729512,
    1.859572,
    0.312260,
    -0.607706,
    0.921753,
    -1.073415,
    -0.288884,
    1.941154,
    0.925928,
    0.732834,
    -0.940544,
    -0.497303,
    1.121146,
    -0.689734,
    1.749488,
    -0.180808,
    -1.136624,
    -0.823981,
    -0.988670,
    0.112130,
    -0.128726,
    -0.967232,
    0.301958,
    -1.731099,
    -2.039286,
    0.157913,
    -0.485582,
    2.027036,
    -0.486011,
    0.621729,
    0.084831,
    1.114814,
    1.819460,
    0.833165,
    0.091557,
    -0.375663,
    1.468067,
    -0.981331,
    0.324404,
    -1.083209,
    -0.143132,
    -1.331688,
    -0.419023,
    -0.206484,
    -0.050255,
    -2.337295,
    -1.488949,
    -1.640496,
    -0.252850,
    -2.078805,
    -1.681344,
    -2.175399,
    -1.226688,
    0.043892,
    -1.163411,
    0.995656,
    0.175441,
    -0.155984,
    -1.021947,
    0.992983,
    0.623127,
    0.554938,
    0.643360,
    -0.275038,
    1.695727,
    -0.198434,
    2.552173,
    0.298352,
    0.147790,
    -0.259737,
    0.517697,
    0.146808,
    -0.049327,
    -0.398888,
    -0.225386,
    -0.531966,
    -1.820269,
    -2.046318,
    -1.610351,
    -0.681134,
    -2.406009,
    0.204258,
    0.353034,
    -0.303498,
    -1.315075,
    0.821511,
    -0.695942,
    1.189882,
    -2.373442,
    0.454385,
    0.037981,
    0.807783,
    -1.667156,
    0.453110,
    0.502049,
    0.131045,
    -0.733042,
    1.559755,
    0.183410,
    -3.389766,
    0.357966,
    -0.210532,
    -2.922867,
    0.160336,
    -0.980803,
    0.634942,
    -1.230434,
    -2.149189,
    -0.655529,
    -0.129336,
    -0.871378,
    -0.311493,
    -1.132772,
    0.452123,
    -0.243484,
    0.789131,
    1.780356,
    -0.628234,
    1.140410,
    1.557745,
    0.639912,
    0.460499,
    -0.788941,
    2.144964,
    0.848257,
    1.687709,
    1.469798,
    -0.410619,
    -0.732692,
    -2.790180,
    -1.214433,
    -0.768337,
    -0.828918,
    0.546134,
    -3.142057,
    -1.135504,
    -2.157157,
    -1.127115,
    -1.120220,
    -0.069644,
    -0.323882,
    -0.435518,
    -0.207135,
    0.594814,
    2.332809,
    -0.178298,
    -0.918744,
    1.083693,
    -0.689295,
    1.064991,
    -1.185540,
    -0.181405,
    0.769654,
    -0.818072,
    1.027527,
    -1.191547,
    -0.234294,
    0.188785,
    -1.681590,
    -0.068290,
    -0.896848,
    0.091578,
    -1.114407,
    -0.396822,
    -1.168517,
    -0.909013,
    0.134088,
    -0.748285,
    1.048035,
    1.328504,
    -2.803754,
    -0.943812,
    0.696989,
    -1.195301,
    0.285391,
    -0.391945,
    0.083917,
    -1.120748,
    -1.216066,
    -2.579091,
    -0.185853,
    1.304322,
    -0.775452,
    1.255845,
    -1.105973,
    0.492480,
    -0.777444,
    0.798957,
    1.380908,
    -0.064081,
    -0.691674,
    -0.169155,
    -1.025303,
    -0.176940,
    -0.878944,
    -0.765281,
    0.141441,
    0.462328,
    -0.723758,
    -1.295910,
    -3.979522,
    -4.013522,
    -2.826128,
    -2.596411,
    -4.023739,
    -3.330885,
    -3.270832,
    -2.206943,
    -2.167191,
    -0.631820,
    -2.188677,
    0.443773,
    0.103523,
    -1.523924,
    0.570522,
    -1.062015,
    -0.203663,
    1.912811,
    -0.049132,
    0.943278,
    1.932550,
    1.565844,
    0.144816,
    2.118443,
    -0.361107,
    -1.669043,
    -0.568106,
    -0.657504,
    -1.880402,
    -0.961440,
    -4.368280,
    -1.838038,
    -3.040282,
    -3.147308,
    -1.894277,
    -1.319094,
    -0.278969,
    0.644602,
    -0.399485,
    1.919423,
    1.034167,
    -1.038880,
    0.373676,
    -1.339223,
    1.453537,
    1.914008,
    1.552531,
    -1.115935,
    -2.147382,
    0.489495,
    -2.426205,
    -0.803274,
    0.067646,
    -1.186043,
    -1.055252,
    -1.424953,
    -2.034511,
    -1.618998,
    -3.155452,
    -1.530520,
    -0.660760,
    1.767749,
    -1.496284,
    0.514072,
    1.364754,
    -0.601445,
    -1.363468,
    1.287860,
    -0.935440,
    0.937560,
    -0.102392,
    -0.513068,
    -0.010683,
    0.800060,
    0.809742,
    0.900779,
    -0.862949,
    0.326727,
    -1.175428,
    1.345752,
    0.519515,
    0.236159,
    -0.513165,
    -1.788874,
    -1.624493,
    0.798838,
    0.614586,
    0.168557,
    -0.528198,
    -1.023679,
    -0.152665,
    -0.288182,
    2.728954,
    2.073568,
    -0.368770,
    -0.646905,
    -1.189061,
    0.078845,
    0.578650,
    1.326222,
    1.380122,
    0.080165,
    2.119501,
    -1.336456,
    0.791858,
    -0.449363,
    0.616944,
    -0.139697,
    -1.237075,
    1.082712,
    -0.467530,
    1.310742,
    -1.398151,
    1.782081,
    -1.557536,
    0.453436,
    0.414912,
    -1.111802,
    -0.121551,
    0.793904,
    1.279642,
    1.824651,
    0.158558,
    -0.733360,
    -1.365111,
    0.058558,
    0.449211,
    -0.021933,
    1.509379,
    0.587321,
    -0.682417,
    2.283098,
    -0.488094,
    -1.059387,
    -1.563478,
    -0.252912,
    0.917247,
    0.667467,
    0.413441,
    -0.886467,
    -0.334403,
    1.327219,
    1.563936,
    -1.056637,
    -0.027107,
    1.544601,
    1.976667,
    -0.246779,
    -1.179124,
    1.551069,
    0.051045,
    0.245601,
    0.005814,
    0.535533,
    0.114859,
    0.519607,
    0.792252,
    -0.911745,
    1.178046,
    1.311680,
    1.516020,
    -0.399700,
    -0.306426,
    1.333070,
    1.557464,
    -0.535895,
    -0.040107,
    -0.432209,
    0.647572,
    -0.588484,
    2.416197,
    -1.536508,
    -0.624443,
    0.855409,
    1.263340,
    1.350991,
    0.318654,
    -0.267586,
    -0.056545,
    0.321175,
    0.400202,
    0.700950,
    1.239685,
    1.092319,
    0.461004,
    -0.130676,
    1.505512,
    0.926678,
    -0.066400,
    0.896693,
    -0.116369,
    -1.274468,
    0.835885,
    -0.888947,
    -1.420352,
    -1.016092,
    -0.014057,
    -1.437143,
    -0.120077,
    -1.108370,
    1.831126,
    2.410398,
    1.464490,
    1.730011,
    1.054470,
    1.223875,
    1.812569,
    0.805952,
    0.751780,
    -1.117339,
    -1.032681,
    -0.690411,
    0.021713,
    0.724622,
    1.015318,
    1.146811,
    -2.755591,
    1.440612,
    -0.229211,
    0.460904,
    1.684164,
    1.246437,
    0.247772,
    0.258618,
    0.866537,
    -0.801255,
    1.091609,
    0.814156,
    -0.071107,
    0.455349,
    1.685263,
    2.118941,
    1.142202,
    0.885469,
    1.479896,
    1.175696,
    1.011205,
    0.897087,
    -1.602516,
    0.772054,
    -0.215603,
    -1.886960,
    -1.800840,
    -0.885651,
    0.046363,
    0.657818,
    0.436533,
