{
  "HiddenBiases" : [
    1.474176,
    0.100054,
    -1.664901,
    -1.368853,
    0.318681,
    -0.988475,
    -1.296177,
    -0.592215,
    3.275845,
    -0.233825,
    -2.060798,
    -0.263726,
    1.117924,
    -0.292859,
    -2.406778,
    1.022061,
    0.719451,
    -1.429522,
    0.814508,
    0.205416,
    0.095820,
    -1.415589,
    -0.218554,
    1.039383,
    0.685188,
    -1.077312,
    1.028825,
    -1.201952,
    -1.655295,
    -2.876615
  ],
  "HiddenWeights" : [
    1.507868,
    0.209545,
    -0.603929,
    2.033784,
    0.213944,
    0.008489,
    -0.878581,
    -1.506334,
    -1.392206,
    0.126090,
    -1.501466,
    -0.105975,
    1.127054,
    -0.408182,
    0.527521,
    -0.869776,
    2.501085,
    -0.180115,
    -0.147842,
    0.089386,
    -0.847229,
    0.829298,
    -0.800047,
    0.765254,
    -1.010636,
    0.700352,
    -0.299423,
    -0.214104,
    -1.203352,
    0.068770,
    1.851599,
    -0.162316,
    0.675649,
    0.340675,
    -0.569305,
    1.254803,
    -1.327695,
    0.514146,
    2.350168,
    0.193866,
    0.446270,
    -1.032661,
    -0.081726,
    -0.697683,
    -0.940232,
    -1.152013,
    1.477846,
    0.587582,
    -0.436280,
    0.423391,
    -0.038553,
    1.017655,
    1.924253,
    1.017616,
    1.201850,
    -1.569760,
    -0.690229,
    -1.041293,
    -0.295694,
    -1.544909,
    0.058976,
    -0.613327,
    0.106636,
    1.212737,
    0.478194,
    -0.672727,
    -2.125449,
    -1.926851,
    -1.756121,
    -0.526642,
    -0.407365,
    -0.083607,
    -1.005584,
    -0.719491,
    0.849732,
    1.598425,
    0.944161,
    0.752330,
    -0.079075,
    -0.065085,
    -0.281891,
    1.849767,
    0.079546,
    0.885950,
    1.013169,
    -1.048754,
    -0.202077,
    0.856978,
    -1.673849,
    -2.421978,
    -0.187139,
    -0.255790,
    -0.192265,
    0.969048,
    -1.158542,
    -1.529621,
    0.049032,
    -0.675831,
    -0.063407,
    -0.224837,
    -1.231157,
    -1.180073,
    -2.765689,
    -0.439197,
    0.264856,
    1.261921,
    0.682874,
    -0.628767,
    -0.877160,
    -0.419406,
    -0.671734,
    -1.394433,
    0.471857,
    0.560133,
    -0.052733,
    0.317733,
    1.290151,
    -0.860835,
    -0.666885,
    0.758862,
    0.698307,
    -0.927973,
    -1.647454,
    -0.202154,
    -0.529604,
    -2.180610,
    -1.120564,
    -0.624932,
    0.430091,
    -1.178811,
    -1.055939,
    0.134025,
    -1.167547,
    -0.140117,
    1.481848,
    1.418770,
    -0.963122,
    -0.648465,
    1.311176,
    -0.018848,
    1.505927,
    0.115105,
    -0.423458,
    0.363954,
    0.936643,
    0.163118,
    -1.986212,
    0.138462,
    -0.215447,
    1.262764,
    1.213654,
    -0.392723,
    1.423768,
    -0.045715,
    0.553431,
    0.040438,
    -1.333632,
    -1.162587,
    -0.746305,
    1.708890,
    0.472602,
    0.261030,
    1.584549,
    0.456663,
    -0.365315,
    -0.227786,
    -0.188152,
    1.082221,
    1.492088,
    -1.190234,
    0.764318,
    -0.981729,
    0.145942,
    0.573063,
    1.369112,
    2.003790,
    -0.050320,
    -2.680963,
    -0.310416,
    -1.916362,
    0.508014,
    -1.022684,
    -0.254598,
    -0.864860,
    -1.195536,
    -2.904859,
    0.081537,
    -1.739391,
    0.484412,
    1.830455,
    -1.475366,
    0.812382,
    -0.818698,
    2.312563,
    0.767757,
    -1.116062,
    0.178042,
    0.662635,
    -0.561257,
    2.405189,
    -0.134737,
    0.075231,
    0.090555,
    -0.470632,
    0.881970,
    1.156734,
    -0.378137,
    0.341583,
    -0.437069,
    -1.097090,
    -0.317921,
    0.281283,
    -2.745392,
    -0.628062,
    -0.723983,
    -1.187810,
    -0.093915,
    -0.788922,
    1.279975,
    0.742205,
    0.811016,
    0.842960,
    2.115492,
    1.493113,
    1.124989,
    -1.521890,
    -1.904719,
    -0.149233,
    1.500998,
    0.263571,
    -0.442309,
    0.118730,
    0.083295,
    1.268029,
    0.147422,
    -0.491996,
    0.701530,
    0.064588,
    0.920351,
    0.287878,
    -0.765705,
    -1.425877,
    -1.546486,
    -0.820852,
    1.135701,
    -0.272874,
    0.832376,
    0.750500,
    0.516069,
    1.809760,
    -0.073419,
    -0.051060,
    -1.035125,
    -0.564034,
    0.675642,
    0.070795,
    -0.131727,
    0.816858,
    1.122223,
    0.395328,
    0.099976,
    1.286367,
    1.721882,
    1.081961,
    0.749013,
    -0.172598,
    -0.258129,
    -0.689385,
    -0.378013,
    -1.111843,
    -1.545419,
    -0.963146,
    -1.292256,
    -1.887313,
    1.123929,
    -0.298702,
    -0.102127,
    -0.728565,
    -1.547772,
    -1.355335,
    0.544936,
    0.569109,
    -0.898866,
    -1.428328,
    1.255219,
    0.980678,
    0.783618,
    1.150495,
    1.173822,
    0.079721,
    1.816183,
    1.604127,
    1.505237,
    1.392868,
    -0.490587,
    0.548812,
    0.006369,
    -2.984481,
    -0.246051,
    -0.186538,
    -2.563861,
    1.455854,
    -0.931309,
    -0.871874,
    -1.021443,
    1.345673,
    -0.906408,
    -0.753123,
    1.348341,
    -0.237279,
    0.289594,
    -0.240480,
    -1.973391,
    0.638572,
    1.218948,
    0.206615,
    2.114406,
    1.525020,
    0.974094,
    1.019884,
    2.238651,
    0.745470,
    1.529027,
    0.605145,
    0.026698,
    0.125040,
    -0.047685,
    -1.271853,
    -1.531717,
    -0.506582,
    -1.756594,
    -1.817686,
    -0.222395,
    0.550205,
    0.604359,
    0.218457,
    0.434215,
    1.324189,
    -1.849954,
    -0.522063,
    -0.393892,
    0.493525,
    1.315371,
    1.294631,
    1.755504,
    0.270049,
    -0.013742,
    0.768001,
    2.830232,
    0.911134,
    1.093269,
    2.176274,
    0.656798,
    -0.769111,
    -0.327806,
    -0.505082,
    -1.183894,
    1.924806,
    0.107657,
    -2.509299,
    1.556837,
    -0.842785,
    0.058107,
    -0.789916,
    -1.255713,
    0.452811,
    -0.556619,
    -1.642030,
    -1.282442,
    0.293951,
    0.155442,
    -1.153557,
    0.425223,
    0.573538,
    -1.074266,
    -0.406172,
    1.921304,
    1.918818,
    1.090046,
    -0.020875,
    0.973234,
    0.486988,
    -0.362599,
    0.523161,
    0.399081,
    0.531591,
    -1.663584,
    -1.754580,
    -0.297615,
    0.406860,
    -1.036253,
    -1.301142,
    1.323923,
    0.966143,
    1.339191,
    -1.331486,
    0.998399,
    -1.637280,
    -2.649540,
    -0.005814,
    -0.686319,
    -0.100858,
    1.719057,
    -0.071693,
    2.980342,
    -0.672598,
    1.585846,
    -0.593277,
    0.589262,
    0.035023,
    -0.421380,
    0.862080,
    -1.203098,
    0.142857,
    -0.982748,
    -0.794586,
    2.684074,
    -0.654091,
    1.601442,
    -1.190376,
    0.781566,
    0.186018,
    0.030474,
    0.196738,
    1.173827,
    -0.370925,
    -0.170679,
    -0.819805,
    -1.789211,
    0.072701,
    -0.191258,
    1.610982,
    1.205704,
    1.162133,
    3.090052,
    1.474740,
    -1.092666,
    -0.102514,
    0.344900,
    -0.255043,
    0.327768,
    -1.165020,
    0.205915,
    0.191134,
    -0.407175,
    0.795128,
    0.812994,
    0.186128,
    0.475979,
    -3.584553,
    0.586042,
    0.165973,
    -0.198701,
    -2.282923,
    -0.991965,
    0.157771,
    0.377581,
    0.751609,
    -0.313715,
    0.340598,
    2.206116,
    0.686181,
    0.402472,
    1.121456,
    -0.352440,
    -0.773810,
    -1.496325,
    -1.102478,
    -0.849103,
    -0.588735,
    -0.846544,
    2.553789,
    -1.787946,
    0.363960,
    1.647820,
    -0.592773,
    0.475756,
    -2.205043,
    0.427532,
    2.063832,
    -0.228447,
    0.496528,
    1.053929,
    -0.611563,
    -1.626391,
    -0.195216,
    -1.668449,
    0.549132,
    0.898885,
    0.939366,
    0.925295,
    1.880757,
    -0.346835,
    0.612316,
    -1.932189,
    0.057749,
    -0.412659,
    -0.883999,
    -0.181383,
    0.802567,
    -1.496281,
    0.766824,
    -2.123805,
    0.043594,
    -0.950899,
    0.138621,
    1.686325,
    -1.997588,
    0.403041,
    -0.004820,
    0.069520,
    -0.134324,
    0.397048,
    1.653419,
    0.710768,
    -2.227360,
    -0.278001,
    2.807048,
    -0.902620,
    0.569550,
    -0.198911,
    -1.064794,
    0.754701,
    0.829225,
    -0.598134,
    0.377916,
    0.764927,
    -0.616203,
    0.704354,
    -0.052406,
    -1.358517,
    0.045821,
    -0.717294,
    -1.060336,
    -0.861393,
    -0.561961,
    -0.258569,
    -0.601858,
    -1.491330,
    -0.809868,
    0.606919,
    -0.734158,
    0.854501,
    -0.929299,
    1.656861,
    -0.864067,
    -0.926210,
    0.834829,
    -1.963221,
    0.249589,
    0.077784,
    -0.419050,
    -0.140686,
    -1.028916,
    0.238579,
    0.113961,
    0.483984,
    -0.007405,
    -0.479010,
    -0.049117,
    -1.808157,
    -0.288985,
    0.025485,
    0.490383,
    0.103350,
    -3.099582,
    0.837609,
    1.547121,
    -1.726986,
    1.334286,
    -0.040933,
    -1.477830,
    -0.458481,
    -2.066256,
    -0.260486,
    1.331002,
    -0.908330,
    0.575715,
    -0.661359,
    -0.892479,
    0.400730,
    1.634636,
    0.092175,
    0.556363,
    1.125085,
    -2.514011,
    0.211742,
    0.911241,
    0.594096,
    0.430928,
    2.171233,
    -0.111031,
    0.712477,
    -0.380196,
    0.663919,
    -0.668908,
    0.861440,
    -0.855252,
    0.965156,
    -0.413078,
    0.720204,
    0.219018,
    -1.030057,
    -0.895846,
    0.251352,
    -0.496284,
    0.236044,
    0.086004,
    0.151512,
    -0.119038,
    -0.456412,
    1.550335,
    0.480483,
    -0.202725,
    -2.247665,
    0.267087,
    0.330526,
    0.096898,
    -0.728246,
    0.623215,
    -0.769000,
    1.086157,
    -0.320616,
    0.706459,
    -0.453501,
    0.361496,
    0.043637,
    -1.754227,
    0.056352,
    -0.343304,
    1.022227,
    0.368151,
    -0.038317,
    -0.451856,
    1.768557,
    0.148451,
    0.815835,
    -0.389929,
    0.772570,
    0.311807,
    -0.666640,
    1.600815,
    1.052953,
    -0.543940,
    -0.577113,
    0.452544,
    -1.034600,
    -0.536344,
    -0.294469,
    -1.393764,
    0.035660,
    -0.887344,
    1.565649,
    -0.414649,
    -0.682419,
    -0.632347,
    0.987876,
    0.115782,
    0.891870,
    -0.082115,
    -0.367643,
    -0.335480,
    0.824360,
    0.283764,
    0.876240,
    -1.134303,
    -1.770707,
    1.146933,
    0.929528,
    1.051462,
    -0.130656,
    -0.459487,
    0.704259,
    -0.250461,
    0.775261,
    -0.018942,
    -1.271171,
    0.399624,
    -1.223587,
    0.922738,
    -0.656034,
    -0.821136,
    -0.414981,
    0.437260,
    0.427193,
    -1.436430,
    2.594401,
    -0.825922,
    0.524195,
    0.573840,
    -1.037972,
    -0.741926,
    1.257411,
    0.118858,
    -0.932187,
    -0.116432,
    0.399132,
    -0.181373,
    -1.940810,
    -0.244778,
    0.266952,
    -0.709377,
    1.106995,
    1.662344,
    -0.823570,
    0.994584,
    0.573273,
    0.645148,
    -2.182528,
    -1.849879,
    0.617181,
    -1.515144,
    -0.680392,
    0.510196,
    -0.166516,
    1.432248,
    0.689701,
    -0.543275,
    -1.911963,
    -0.559859,
    0.732324,
    0.811837,
    0.258540,
    0.696714,
    0.754831,
    0.185906,
    -0.578944,
    1.020162,
    -0.506725,
    -1.813244,
    0.428857,
    0.565592,
    -0.255508,
    -0.843441,
    -0.322026,
    1.685381,
    -0.564953,
    -1.109198,
    0.355200,
    -0.019252,
    -1.154863,
    0.749576,
    1.012872,
    0.266779,
    -1.226175,
    -0.529014,
    1.644719,
    0.220125,
    0.573179,
    -0.163317,
    0.224346,
    -2.123729,
    0.723182,
    0.104665,
    -2.312375,
    0.610784,
    0.134588,
    -1.553680,
    0.826461,
    -0.535976,
    -0.417017,
    -0.436421,
    -0.085137,
    0.868045,
    -0.119393,
    2.099092,
    0.683423,
    0.263016,
    -0.868621,
    -1.303354,
    -0.220353,
    -0.527918,
    1.159959,
    0.461452,
    0.605381,
    -0.142669,
    -0.091818,
    -1.579812,
    0.206074,
    0.527019,
    -0.195362,
    -0.511816,
    -1.052872,
    0.703481,
    2.143804,
    2.408904,
    -0.518717,
    -0.815677,
    -2.185373,
    0.888871,
    0.668879,
    0.132830,
    0.318381,
    -0.855496,
    -1.476988,
    -0.849336,
    0.450451,
    -0.481620,
    0.072671,
    0.226885,
    0.860606,
    -0.738127,
    0.011313,
    0.312639,
    -0.280396,
    -0.979530,
    -0.809254,
    1.857899,
    -1.517802,
    -0.588581,
    -0.389881,
    -0.663800,
    0.513261,
    -0.915840,
    -0.026185,
    0.609709,
    1.001236,
    1.835110,
    -1.798681,
    -0.601360,
    -0.843612,
    0.812887,
    -0.490368,
    0.412267,
    -0.181625,
    -0.697452,
    -0.367613,
    0.861595,
    1.389245,
    -0.709715,
    -0.696778,
    0.682306,
    0.600280,
    -0.466111,
    1.490498,
    0.115614,
    0.132468,
    0.048549,
    0.318347,
    0.658843,
    -0.375227,
    -0.617879,
    1.414658,
    1.598493,
    -0.312459,
    1.688494,
    -0.226866,
    0.012078,
    -0.977876,
    0.855950,
    1.128968,
    0.333365,
    0.506153,
    -1.266143,
    -0.257067,
    -0.503003,
    1.603483,
    0.662031,
    0.216495,
    0.488020,
    0.443245,
    -1.047723,
    0.322659,
    -1.092854,
    -0.349314,
    -0.045248,
    -0.110030,
    0.029459,
    0.008975,
    -1.178900,
    -1.058307,
    -0.364216,
    -0.759404,
    1.133461,
    -0.865030,
    -0.851956,
    0.201819,
    0.087185,
    0.533649,
    -0.346236,
    -0.219141,
    -0.346459,
    -0.442730,
    -0.010088,
    -0.955429,
    -2.048082,
    -1.080403,
    0.624888,
    -0.700860,
    0.223541,
    -0.654388,
    -1.237753,
    -1.205258,
    0.249123,
    -0.513596,
    -1.178972,
    0.020165,
    -0.906730,
    -0.085063,
    -0.845217,
    -1.051943,
    0.949287,
    -0.054921,
    -1.141497,
    2.097391,
    0.586490,
    -0.596596,
    -1.029200,
    0.448820,
    -0.654134,
    -0.043867,
    -0.043640,
    -0.018703,
    -1.928438,
    0.745588,
    -1.639367,
    -0.429834,
    -0.745741,
    0.231681,
    0.327241,
    -1.868276,
    1.044019,
    0.183146,
    -0.157600,
    0.023397,
    1.707846,
    0.047790,
    -0.940887,
    0.361260,
    0.188761,
    0.693052,
    0.498536,
    -0.824858,
    2.118291,
    1.359719,
    0.765556,
    0.912648,
    1.476436,
    0.591024,
    1.389426,
    0.072975,
    -0.149823,
    0.534127,
    0.872925,
    -0.671628,
    -0.071852,
    0.203138,
    -1.576963,
    -0.621765,
    0.308233,
    -1.488569,
    -0.432520,
    -0.795794,
    0.542918,
    2.199838,
    -0.284693,
    -0.253472,
    -0.371927,
    1.852483,
    0.184384,
    0.951197,
    -0.456474,
    0.416012,
    -1.699088,
    -0.961746,
    0.609833,
    -0.419975,
    0.132305,
    -0.325414,
    0.339924,
    -0.393623,
    -0.403833,
    1.220645,
    -0.729704,
    2.714260,
    0.376147,
    -0.807932,
    -1.080280,
    -0.338899,
    0.547132,
    -0.139660,
    0.774467,
    -0.888842,
    2.385228,
    -0.024235,
    -2.586132,
    0.357178,
    0.229866,
    -0.069543,
    -0.903511,
    -0.091544,
    -1.537590,
    1.284914,
    -2.390543,
    -1.472403,
    0.594130,
    -0.700990,
    -0.028659,
    -0.392384,
    1.219621,
    0.406764,
    -0.849469,
    0.154733,
    -1.889716,
    -1.319613,
    -0.462395,
    -1.210028,
    -0.520505,
    -2.314372,
    -0.484637,
    -0.339468,
    0.203943,
    0.867032,
    -1.485079,
    1.069304,
    -2.143135,
    0.034267,
    1.519223,
    -0.717877,
    1.449525,
    -0.654703,
    0.594215,
    -0.837596,
    -0.464957,
    -1.090055,
    1.116295,
    0.484931,
    2.231813,
    -0.749674,
    1.516434,
    1.329762,
    -1.064742,
    -0.269957,
    -0.614929,
    0.679528,
    -0.279390,
    -1.301437,
    -0.973701,
    -0.365623,
    -0.121146,
    0.758984,
    1.707103,
    1.409448,
    0.217845,
    -1.045553,
    -1.070325,
    -0.273263,
    -0.457119,
    0.840570,
    -0.415624,
    -0.965651,
    -2.594370,
    0.493468,
    0.640563,
    1.247193,
    0.885383,
    -0.121119,
    0.301108,
    -0.361449,
    0.198314,
    -0.780871,
    -2.040964,
    -0.336855,
    -0.126169,
    1.036161,
    -1.288487,
    -0.045295,
    0.150031,
    1.111523,
    -0.030112,
    -0.560906,
    -1.740107,
    0.861158,
    -1.790839,
    0.613607,
    -1.459491,
    -1.453748,
    0.114294,
    -1.428652,
    -0.527531,
    0.331887,
    1.190188,
    1.979655,
    2.035270,
    2.070928,
    0.193950,
    3.153176,
    0.761383,
    -0.437147,
    0.058812,
    0.115005,
    -0.629373,
    1.203393,
    0.600611,
    0.257692,
    -1.148159,
    -0.533719,
    -0.985631,
    0.871131,
    -0.852218,
    0.325031,
    -0.961610,
    -1.861708,
    -0.289811,
    -0.517104,
    -1.770861,
    -0.466537,
    -0.993744,
    1.281276,
    0.999095,
    2.393985,
    -0.023019,
    2.133416,
    2.257494,
    1.012319,
    0.684360,
    1.067921,
    0.227121,
    1.593622,
    1.794566,
    0.163448,
    0.108198,
    0.093892,
    -1.270078,
    -0.248453,
    -0.692847,
    -0.203463,
    -1.094077,
    0.211756,
    -0.402809,
    0.983929,
    -1.161417,
    -0.431712,
    0.862573,
    -0.401754,
    1.065083,
    1.131996,
    0.045244,
    0.332467,
    0.526318,
    1.625313,
    1.998795,
    0.519952,
    1.380560,
    -0.348923,
    -1.079104,
    -0.218189,
    -0.653680,
    0.155607,
    0.946997,
    0.365541,
    0.508015,
    0.157733,
    -0.140935,
    0.461540,
    0.215703,
    -0.839743,
    -0.495203,
    -0.188958,
    -0.505007,
    0.935527,
    0.459957,
    0.224391,
    -0.421988,
    -0.596796,
    1.201414,
    0.115990,
    0.127240,
    0.103207,
    0.734890,
    4.113512,
    1.613996,
    0.996090,
    -1.619892,
    -0.194550,
    0.668988,
    1.514750,
    -1.279735,
    1.819188,
    -1.312306,
    -0.685743,
    -0.848379,
    1.936711,
    0.715893,
    0.224524,
    -0.590578,
    -1.196613,
    0.248380,
    -0.757799,
    1.066023,
    0.336597,
    -1.870325,
    1.170836,
    -0.751659,
    -1.312827,
    1.475298,
    -1.998074,
    0.408271,
    -1.032742,
    1.190069,
    2.195829,
    -0.439507,
    -0.824589,
    -0.936384,
    1.282577,
    0.099269,
    -0.111634,
    -0.126291,
    -1.279506,
    0.116158,
    0.828727,
    2.747163,
    -0.922103,
    -0.277671,
    -0.315887,
    1.084559,
    -1.570168,
    0.879237,
    2.160303,
    -1.167298,
    -1.602135,
    0.633004,
    0.087427,
    -0.871705,
    -1.089953,
    -0.810930,
    -0.372509,
    0.985950,
    -0.844698,
    0.888347,
    -0.849060,
    0.958617,
    0.638175,
    0.352249,
    1.146185,
    -0.940069,
    -0.117718,
    1.875198,
    0.901855,
    1.863035,
    -0.452017,
    1.128365,
    -2.359833,
    -0.164735,
    -0.886540,
    -0.642452,
    0.608380,
    1.448555,
    0.123718,
    -0.523222,
    0.598626,
    -0.111100,
    -0.711821,
    1.516494,
    -1.001322,
    -0.756187,
    0.299814,
    1.652442,
    0.621682,
    -0.824131,
    -0.711186,
    0.312834,
    -0.817768,
    -0.227239,
    0.602798,
    -1.462367,
    2.130069,
    0.662156,
    1.320556,
    2.213890,
    -0.300560,
    0.977060,
    0.882440,
    1.828278,
    -0.109300,
    -0.560503,
    -1.570021,
    0.995489,
    -0.658834,
    -1.614517,
    0.565116,
    0.598270,
    1.875501,
    0.178314,
    -0.734967,
    -0.628158,
    1.039072,
    1.177408,
    0.426439,
    0.916019,
    0.066251,
    0.851602,
    0.013595,
    0.364187,
    -1.814834,
    0.535641,
    0.471690,
    1.024548,
    3.059314,
    1.411745,
    2.189702,
    -0.941505,
    -1.283674,
    0.162154,
    0.175369,
    -1.205412,
    1.078491,
    1.307512,
    -0.965366,
    -1.164584,
    -0.871287,
    1.061554,
    -1.266527,
    -0.046670,
    1.369221,
    0.620418,
    -1.461594,
    -0.551375,
    -0.319494,
    -0.285662,
    0.280969,
    -1.173115,
    1.013613,
    0.767922,
    0.457153,
    1.325726,
    1.357859,
    -0.282604,
    0.192619,
    -0.964647,
    -0.773696,
    -0.620963,
    1.308845,
    -0.492978,
    -0.083718,
    -1.041056,
    -0.372278,
    -1.227233,
    0.038565,
    0.035888,
    -0.147506,
    0.042744,
    -0.011529,
    -0.262358,
    0.032858,
    0.184976,
    -0.979746,
    -0.958144,
    0.147131,
    0.413588,
    0.716074,
    -0.082011,
    0.244395,
    -0.126905,
    0.117182,
    -0.728531,
    0.337515,
    -1.624747,
    -0.027895,
    -0.236726,
    0.549227,
    -1.100617,
    0.272614,
    -0.184528,
    -1.486395,
    1.149002,
    -1.480134,
    0.282465,
    -0.564307,
    -1.820537,
    0.421948,
    1.017421,
    1.915253,
    1.525915,
    0.673344,
    -1.207276,
    1.510822,
    1.615221,
    1.067752,
    0.521830,
    0.308991,
    0.329123,
    -0.124144,
    -0.493289,
    -0.298066,
    -0.437455,
    -0.377578,
    -0.049935,
    -1.478027,
    -0.112732,
    0.507031,
    -0.902880,
    1.434320,
    0.018708,
    -0.542534,
    -0.449218,
    1.098485,
    0.560532,
    1.865291,
    -0.769126,
    -0.325950,
    -0.052858,
    0.491262,
    1.052725,
    1.214854,
    -0.518732,
    0.279588,
    0.109046,
    0.654588,
    -0.082691,
    0.888163,
    0.766741,
    -0.139460,
    0.048766,
    -1.057998,
    -0.002339,
    0.241461,
    -0.005836,
    -1.534118,
    -1.574510,
    1.066876,
    0.433120,
    1.224679,
    -0.170548,
    0.983712,
    -0.003061,
    -0.386816,
    -0.559687,
    -0.228286,
    1.062048,
    -0.508716,
    0.214433,
    -0.559690,
    -2.667645,
    -0.073325,
    1.223403,
    -0.581300,
    0.406518,
    -0.279748,
    -0.187631,
    0.231762,
    1.153433,
    -0.148826,
    0.738276,
    0.461635,
    -0.359382,
    0.648594,
    -1.128736,
    -0.268952,
    0.650875,
    -0.187696,
    -0.482908,
    1.363555,
    -0.436091,
    -0.015282,
    -1.233524,
    0.751918,
    0.511458,
    -0.287307,
    -0.662293,
    0.117202,
    0.349607,
    -2.382329,
    1.405004,
    -0.477636,
    -0.945996,
    -0.587992,
    -1.519395,
    -0.148883,
    -0.266400,
    0.399691,
    1.404803,
    -1.230808,
    0.947674,
    -0.042236,
    0.225910,
    0.448093,
    1.099647,
    0.361217,
    0.009340,
    -1.245534,
    -0.468780,
    1.991111,
    -1.425081,
    1.460301,
    -0.375885,
    -1.429925,
    -1.333221,
    -0.726672,
    0.044546,
    -1.637259,
    1.195092,
    -1.104150,
    1.092359,
    -0.534209,
    -1.146920,
    -1.188576,
    -1.330711,
    -0.565511,
    0.408028,
    -0.146878,
    0.344910,
    -1.420300,
    -0.997553,
    0.060664,
    -1.743592,
    -1.171982,
    -1.871502,
    0.305539,
    1.264597,
    0.175974,
    0.042347,
    0.879844,
    -0.256380,
    -1.103905,
    0.367875,
    0.719090,
    1.931332,
    0.387603,
    0.050194,
    -1.637847,
    -1.237666,
    -0.854224,
    -0.270489,
    -1.579043,
    0.979609,
    -1.492262,
    -0.084769,
    0.624414,
    -1.036503,
    -0.099382,
    -0.717783,
    -0.127880,
    -0.095331,
    -1.504445,
    0.165154,
    0.111640,
    0.268220,
    1.580425,
    0.499480,
    2.012881,
    0.935760,
    0.469170,
    -1.612852,
    0.004610,
    -0.802916,
    0.059694,
    -0.084400,
    0.816985,
    0.177038,
    -2.108277,
    0.884970,
    1.476531,
    0.637126,
    -0.419015,
    0.786365,
    -0.229547,
    0.836862,
    -0.373585,
    -0.856284,
    1.316861,
    0.356656,
    1.153777,
    -1.103498,
    1.351638,
    0.381262,
    0.803970,
    -0.467464,
    0.163154,
    0.859072,
    1.085682,
    1.802856,
    -1.215683,
    -0.268267,
    0.193379,
    0.460698,
    -1.227998,
    -0.862545,
    2.002706,
    -0.454936,
    1.869920,
    -1.726782,
    -0.786999,
    -0.494095,
    -0.286915,
    -0.508068,
    0.646571,
    0.913276,
    -1.918097,
    -1.594033,
    0.744766,
    0.740636,
    0.660289,
    0.605736,
    0.654223,
    -0.653943,
    0.398551,
    -0.547866,
    -0.374117,
    0.510587,
    0.862957,
    -0.663453,
    0.247740,
    -0.718460,
    1.794417,
    -0.214471,
    0.745259,
    -0.392362,
    -1.311993,
    0.534014,
    1.103650,
    0.752691,
    -0.343473,
    -1.070284,
    0.361094,
    -0.440265,
    0.071026,
    -0.396014,
    2.256134,
    -1.067055,
    -1.098968,
    0.218205,
    0.224813,
    0.339014,
    -2.212796,
    -0.363681,
    -1.042689,
    1.138462,
    -0.330163,
    -2.501563,
    -0.406376,
    0.682715,
    0.882138,
    0.667105,
    0.720192,
    -0.546457,
    0.677986,
    -0.669034,
    0.551154,
    1.022723,
    0.082594,
    -0.045811,
    1.159315,
    0.441475,
    -0.336570,
    0.370241,
    1.365931,
    -0.576164,
    -2.464051,
    0.251179,
    1.500831,
    -1.482927,
    -0.846126,
    -0.293734,
    -0.812995,
    -1.318680,
    1.101153,
    1.067890,
    -0.381654,
    0.603303,
    1.651966,
    1.387931,
    -1.565291,
    -0.252578,
    -1.980964,
    0.757900,
    0.700250,
    -0.023181,
    0.903997,
    -0.015281,
    -2.020076,
    0.036503,
    0.868225,
    -1.390517,
    -0.112875,
    -1.572688,
    -0.033262,
    -1.172563,
    1.130858,
    0.310844,
    0.554139,
    -0.474471,
    0.666030,
    0.407955,
    0.109615,
    -1.369805,
    -0.437765,
    -0.953181,
    -0.315384,
    -1.085229,
    0.097699,
    -0.812144,
    -0.849838,
    -0.855024,
    -0.645747,
    -0.692532,
    -0.180155,
    0.448664,
    0.750172,
    0.376373,
    -1.682742,
    -1.170208,
    0.106675,
    0.522773,
    -0.981877,
    -1.534055,
    0.236261,
    -0.683723,
    0.920487,
    -1.457283,
    -0.547084,
    1.417609,
    -0.845476,
    -0.253292,
    -1.459162,
    0.837646,
    -2.064255,
    -2.064025,
    -0.963272,
    0.833663,
    -1.123064,
    -0.893086,
    -0.472377,
    -0.421106,
    -0.687231,
    -0.114244,
    -0.279869,
    -0.415143,
    0.641012,
    -1.219710,
    0.471471,
    -0.379045,
    0.359247,
    -0.258063,
    0.038015,
    0.236763,
    0.056868,
    0.063293,
    0.507986,
    0.263906,
    -0.612247,
    -0.717005,
    -0.234972,
    -0.173602,
    -0.776651,
    -0.416406,
    -0.241522,
    1.685840,
    0.047602,
    0.510949,
    0.069252,
    -0.835758,
    -0.209963,
    0.401883,
    0.932764,
    -0.175749,
    -0.808161,
    1.054735,
    0.177023,
    0.373816,
    -0.040727,
    -0.831177,
    0.505269,
    -0.055685,
    1.410225,
    -0.133437,
    0.422957,
    0.347976,
    -1.430308,
    2.307815,
    -1.099963,
    -0.555397,
    -0.321003,
    0.718819,
    -0.510634,
    0.551201,
    0.242484,
    -2.128437,
    -0.675616,
    -1.164530,
    0.168802,
    0.063771,
    0.308216,
    1.506936,
    -1.500609,
    0.898842,
    1.389813,
    -0.565490,
    1.369846,
    0.053828,
    -0.412550,
    -1.605035,
    -1.044668,
    0.242961,
    -1.290802,
    -0.541598,
    -0.116852,
    1.053692,
    0.068513,
    0.313015,
    -0.068237,
    0.462834,
    -0.993390,
    -0.339356,
    -0.194337,
    -0.441249,
    0.163065,
    -0.180313,
    1.046657,
    0.970126,
    0.811972,
    1.544326,
    -0.540253,
    -0.364645,
    -0.257207,
    0.542978,
    -1.909849,
    -1.479670,
    0.139803,
    -2.499873,
    1.623480,
    1.173375,
    0.442424,
    0.067553,
    0.545954,
    -1.536667,
    2.204358,
    0.363082,
    1.716983,
    -0.766360,
    0.609598,
    -1.357741,
    0.351168,
    0.248735,
    -0.589790,
    -1.705497,
    2.140129,
    1.809119,
    1.134910,
    0.695742,
    2.283930,
    1.887348,
    1.195295,
    1.783555,
    0.771923,
    1.465951,
    1.505272,
    0.635167,
    -1.481094,
    0.205351,
    0.369813,
    -0.475040,
    -0.095003,
    0.652764,
    -0.513949,
    1.344795,
    -0.913529,
    1.520585,
    -0.752474,
    -0.598947,
    -0.613842,
    -0.899910,
    -0.377871,
    -0.179502,
    0.604850,
    1.260177,
    1.672079,
    1.824908,
    0.994770,
    1.023148,
    0.277817,
    0.114094,
    -1.072330,
    0.715793,
    -0.379268,
    0.313243,
    -1.996620,
    -0.494777,
    -1.593967,
    -0.699127,
    1.157625,
    0.965545,
    1.050140,
    -1.123393,
    2.041986,
    0.827685,
    0.835722,
    1.644163,
    -0.442236,
    -0.846101,
    1.602875,
    0.475406,
    1.258128,
    -0.924755,
    0.848083,
    1.167771,
    1.080514,
    0.053623,
    1.398402,
    0.004014,
    1.738231,
    0.379247,
    -2.053538,
    -0.765832,
    0.071326,
    0.868963,
    -0.987177,
    -2.966594,
    -0.540316,
    -0.042219,
    0.403205,
    1.417945,
    0.193325,
    -0.899773,
    0.265823,
    -0.363762,
    0.895415,
    1.384927,
    0.351325,
    1.844362,
    1.590784,
    2.146223,
    0.700505,
    0.650751,
    0.622170,
    -0.315003,
    0.740746,
    0.252322,
    0.781625,
    1.414441,
    1.026500,
    -1.379034,
    -0.013210,
    -0.226296,
    1.075542,
    1.778581,
    0.750957,
    -1.255477,
    -0.494966,
    -0.935051,
    0.554169,
    1.117191,
    0.804016,
    1.111463,
    0.711317,
    2.654033,
    0.669099,
    0.567791,
    1.216106,
    -0.142220,
    0.785258,
    0.254695,
    0.025619,
    1.366716,
    -0.944453,
    -0.961393,
    1.077399,
    0.996664,
    -1.332435,
    -2.858460,
    0.506536,
    1.172959,
    0.936628,
    1.330175,
    -0.482423,
    0.828502,
    -1.021401,
    0.239371,
    0.671589,
    -0.678990,
    -1.023499,
    0.434099,
    -0.496762,
    -0.768067,
    1.561252,
    0.321310,
    0.981590,
    0.218654,
    1.312384,
    1.112288,
    -0.823805,
    -0.453030,
    -1.127850,
    0.363049,
    0.278060,
    1.239295,
    -0.180185,
    -1.155355,
    -1.494617,
    0.126087,
    -0.223229,
    -0.068794,
    1.194479,
    0.913755,
    -1.105751,
    -0.753769,
    0.440396,
    -0.136260,
    1.165542,
    -0.529110,
    1.359924,
    -0.468112,
    -1.336126,
    0.638748,
    1.908714,
    1.198724,
    1.007920,
    0.847398,
    -1.129966,
    -0.441965,
    0.468859,
    0.019246,
    -1.063794,
    0.711605,
    0.192334,
    1.216421,
    2.024475,
    1.658332,
    1.149070,
    -1.571620,
    0.609526,
    -1.205890,
    -2.336292,
    -0.725584,
    0.082563,
    -0.339309,
    -1.676071,
    -0.729200,
    2.094208,
    0.330210,
    0.042609,
    0.023954,
    1.162583,
    -0.852452,
    -0.423839,
    -1.011891,
    0.413773,
    -1.185115,
    -0.028854,
    -2.591924,
    1.487717,
    -0.971085,
    -0.367836,
    0.366076,
    -0.623100,
    0.972868,
    -1.500889,
    0.896113,
    -1.754044,
    -0.462732,
    -1.823127,
    -0.127927,
    0.448577,
    -0.130243,
    -1.255468,
    -0.218328,
    -0.108926,
    0.463527,
    -0.046814,
    2.039365,
    -0.501137,
    1.050127,
    -0.673888,
    -1.313388,
    0.839538,
    -1.109167,
    -1.659896,
    -0.004292,
    -0.543528,
    -1.259978,
    -0.394139,
    -1.126268,
    -1.468588,
    -0.188056,
    0.972256,
    -0.598776,
    -1.033701,
    -1.120814,
    -2.145560,
    -2.519985,
    -1.654588,
    0.432891,
    -0.401813,
    -0.615271,
    -1.059377,
    -1.734487,
    -0.794017,
    -2.141217,
    -0.521737,
    -1.435799,
    -0.823340,
    -0.883189,
    0.358055,
    0.408260,
    -1.880384,
    -1.391687,
    -0.706644,
    -1.055265,
    0.661482,
    1.029881,
    0.316688,
    -0.149638,
    1.507633,
    0.850172,
    1.409135,
    -0.480196,
    -3.021727,
    0.713343,
    -1.178146,
    -1.924686,
    -1.664063,
    -1.622877,
    -1.228141,
    -0.370010,
    -0.407569,
    -0.804575,
    -0.641582,
    -0.824121,
    0.857619,
    -2.000680,
    -1.000262,
    0.527953,
    -1.504805,
    0.257643,
    -0.000288,
    0.763424,
    -1.043312,
    0.170688,
    1.645349,
    1.492484,
    -1.790496,
    -0.130092,
    0.504264,
    1.423824,
    1.389854,
    -0.157732,
    -0.642267,
    -0.502371,
    0.122657,
    -2.224678,
    -0.963753,
    -1.017133,
    -1.121247,
    -0.747269,
    -1.879609,
    -0.839483,
    -0.119830,
    -0.196767,
    -0.264034,
    -1.616301,
    -0.268664,
    -0.170178,
    -1.515321,
    0.913704,
    0.673710,
    1.162233,
    -0.068599,
    -0.807438,
    -0.898034,
    -0.940286,
    -0.718804,
    -0.717130,
    -0.652798,
    0.736542,
    -0.016713,
    0.100863,
    -1.544630,
    1.137757,
    0.439545,
    -2.255270,
    0.160074,
    0.199409,
    -0.476108,
    -0.913921,
    -0.844596,
    -1.278478,
    0.636872,
    -0.922476,
    -0.338956,
    -1.004203,
    -0.473390,
    -0.042722,
    0.252852,
    -0.199493,
    -0.123626,
    0.038757,
    -0.018583,
    0.851888,
    0.797308,
    1.102420,
    -1.481551,
    0.329577,
    -0.368406,
    0.001613,
    -0.419318,
    -0.849421,
    -0.804962,
    1.032254,
    0.441063,
    -1.057520,
    -0.410005,
    -0.580515,
    -1.525860,
    -0.078799,
    -1.336593,
    -0.202694,
    -0.122050,
    -1.596823,
    -0.980439,
    -1.710285,
    0.006626,
    1.549931,
    -1.443168,
    0.110076,
    1.935289,
    -0.354026,
    -0.300963,
    -1.249061,
    0.985713,
    0.851257,
    -1.163384,
    -0.292716,
    1.228324,
    -0.597402,
    0.281593,
    1.054166,
    0.692472,
    1.528007,
    1.160788,
    1.357668,
    0.480224,
    -1.987798,
    -0.991540,
    -0.967886,
    -0.705194,
    1.111469,
    -0.493939,
    2.196283,
    -1.286485,
    0.091056,
    -0.019244,
    -0.298187,
    1.309433,
    0.193595,
    0.788046,
    1.912693,
    0.430136,
    -0.026272,
    -0.577117,
    -0.760226,
    1.986736,
    0.647203,
    -0.170820,
    -0.000640,
    -0.167200,
    1.056948,
    0.619976,
    0.819426,
    0.310335,
    0.320885,
    -0.046344,
    0.131140,
    1.440998,
    0.163542,
    0.260138,
    0.070958,
    0.702820,
    -0.121526,
    0.516035,
    0.536940,
    0.568256,
    -0.613748,
    -0.157350,
    -0.104688,
    1.699776,
    1.424743,
    1.439416,
    0.085280,
    0.340766,
    -0.360913,
    1.118039,
    0.659431,
    -0.024899,
    0.521318,
    1.159385,
    -0.693933,
    -0.889989,
    -0.098671,
    1.869004,
    0.034418,
    -0.040304,
    -0.326507,
    1.027463,
    -1.965377,
    0.149847,
    2.184304,
    0.426269,
    0.295437,
    1.268464,
    -1.047621,
    0.419847,
    0.893517,
    0.829331,
    -0.939068,
    -0.877131,
    -0.612666,
    0.682249,
    -0.972251,
    -1.009438,
    0.670711,
    -1.086641,
    1.292828,
    -1.629006,
    1.568203,
    0.020831,
    0.078293,
    -0.293611,
    -0.707754,
    -2.294517,
    0.009305,
    0.376303,
    -1.177783,
    -0.522726,
    0.725278,
    1.401929,
    -0.747624,
    -0.691900,
    0.061737,
    1.839561,
    -0.612372,
    -2.447949,
    1.716142,
    -0.714265,
    0.044740,
    0.239500,
    1.294688,
    0.899545,
    0.609398,
    -1.344988,
    0.180304,
    -2.060221,
    1.661575,
    0.435913,
    -0.366746,
    0.509926,
    -1.290620,
    -1.278290,
    -0.152029,
    -1.727612,
    0.385873,
    -0.006767,
    0.493981,
    -2.456979,
    -0.412818,
    0.835868,
    0.166433,
    -0.233946,
    -0.031831,
    0.224869,
    0.062317,
    0.432954,
    1.406526,
    0.762468,
    0.443209,
    -0.273281,
    -0.583879,
    -0.874949,
    -0.849946,
    -0.555628,
    0.928640,
    -1.417466,
    -0.905070,
    -0.537951,
    1.120625,
    0.444876,
    -0.669858,
    0.089714,
    -0.758600,
    -1.914124,
    0.821022,
    -0.281217,
    0.224476,
    -1.812396,
    0.036193,
    -0.212945,
    0.558836,
    0.473122,
    -1.795716,
    -1.202468,
    -0.775156,
    0.269341,
    0.676285,
    0.097651,
    1.242893,
    0.760645,
    0.558944,
    -0.170245,
    0.758928,
    0.199888,
    1.533395,
    -0.008913,
    0.162784,
    0.020317,
    -0.438452,
    1.295285,
    0.274906,
    -0.583393,
    1.432185,
    0.598335,
    0.241963,
    -1.094001,
    -2.338971,
    -0.433252,
    -0.260027,
    -0.038162,
    -0.275121,
    0.000094,
    -2.344641,
    -0.615587,
    0.353189,
    1.161316,
    -2.281147,
    1.632654,
    -0.074401,
    -0.367175,
    -0.376508,
    0.292920,
    -2.059684,
    -0.493812,
    0.162245,
    0.362904,
    0.647503,
    1.150726,
    0.342475,
    -0.303244,
    -0.355640,
    2.149469,
    -0.981336,
    0.544180,
    0.732589,
    1.320983,
    0.185860,
    -0.528520,
    0.102325,
    -1.395899,
    -0.940684,
    1.858961,
    1.094045,
    0.381558,
    -1.887074,
    0.355876,
    0.135096,
    1.370723,
    0.334788,
    -0.345985,
    -0.474213,
    1.680707,
    0.848614,
    0.051532,
    1.522962,
    0.336317,
    -1.066019,
    0.017242,
    -0.634277,
    -0.928751,
    -2.152891,
    -0.758973,
    -0.409988,
    -1.045729,
    -1.797649,
    0.781675,
    2.778407,
    1.589128,
    0.996234,
    1.513160,
    -0.341773,
    0.665691,
    0.496238,
    0.306434,
    -0.803706,
    -0.190202,
    -0.806549,
    0.288261,
    0.314422,
    -0.774884,
    -0.703131,
    -0.726665,
    -1.048401,
    -0.975827,
    0.595143,
    0.546961,
    -0.942649,
    1.688091,
    0.065715,
    -0.427256,
    -0.177279,
    -0.597489,
    0.541395,
    -0.605049,
    0.597623,
    0.133941,
    0.154954,
    -2.131878,
    0.518730,
    0.851587,
    -0.896067,
    -0.522095,
    -0.838970,
    0.593737,
    0.463031,
    -1.658987,
    0.038216,
    -0.558626,
    1.081842,
    1.364568,
    -1.668499,
    1.451044,
    0.658479,
    1.134112,
    1.229385,
    -1.110724,
    -0.626144,
    -0.779136,
    0.332158,
    0.252636,
    0.270797,
    -0.417283,
    1.701666,
    -1.492925,
    0.173773,
    -0.624217,
    0.098389,
    -0.134440,
    -1.744854,
    0.247102,
    -1.453557,
    -0.409013,
    -1.222860,
    -1.989923,
    0.023280,
    -1.058153,
    -0.895963,
    0.677337,
    0.457852,
    -0.634742,
    -0.607114,
    0.119898,
    0.564045,
    -0.820696,
    1.575771,
    0.117964,
    -0.614852,
    1.740185,
    -3.248199,
    -0.009516,
    0.540312,
    0.661718,
    -0.762459,
    1.610001,
    -1.786400,
    0.714975,
    -1.266715,
    -0.049824,
    -1.435667,
    -0.984379,
    -0.920951,
    -1.702682,
    0.762774,
    -0.697008,
    -0.698119,
    -0.308573,
    -0.859285,
    2.349491,
    1.061453,
    -0.443131,
    1.275727,
    1.190471,
    1.206590,
    1.187323,
    1.159967,
    -1.075837,
    1.255190,
    -0.199173,
    -0.541070,
    -1.728192,
    0.278623,
    0.971605,
    0.480663,
    1.491076,
    -0.213007,
    0.329709,
    1.039555,
    -0.808561,
    1.343153,
    -0.983107,
    1.585649,
    -0.115906,
    1.186242,
    0.551895,
    0.471279,
    0.176552,
    0.129419,
    -1.705330,
    -0.157678,
    0.987042,
    0.456140,
    -0.958220,
    0.962119,
    1.334192,
    -0.076850,
    1.202936,
    0.450351,
    -0.998778,
    -1.110871,
    0.451343,
    -0.483855,
    1.066973,
    1.367728,
    -0.579154,
    0.439013,
    0.590851,
    0.774733,
    0.979767,
    0.234169,
    0.835437,
    -0.722457,
    2.072657,
    0.821856,
    0.658890,
    1.069249,
    -0.721770,
    0.150364,
    0.945414,
    -0.083835,
    -0.454650,
    0.507802,
    1.522328,
    1.577033,
    0.352164,
    1.199337,
    0.052799,
    1.097467,
    -0.844643,
    1.074892,
    0.010450,
    1.846810,
    0.127732,
    1.070682,
    0.804918,
    1.752425,
    0.282949,
    0.752259,
    2.076585,
    1.477075,
    0.684028,
    -0.547660,
    1.840485,
    1.672494,
    1.141525,
    0.604742,
    -0.336003,
    0.515587,
    1.062272,
    -0.197023,
    0.654932,
    -0.265437,
    0.114960,
    1.566797,
    0.682193,
    1.267117,
    1.729398,
    -0.302961,
    1.614880,
    1.306380,
    1.491613,
    0.034773,
    1.778381,
    0.796361,
    0.361687,
    -0.556355,
    0.167518,
    -2.222292,
    0.061545,
    -0.042413,
    0.004362,
    0.064197,
    0.784682,
    0.983178,
    0.568713,
    -0.258151,
    -0.268018,
    -0.731770,
    1.533561,
    -0.972558,
    0.420229,
    1.609476,
    1.423926,
    -1.447158,
    0.752202,
    0.166191,
    0.000904,
    0.386980,
    -1.917009,
    -1.324299,
    -1.217146,
    0.314781,
    -0.817182,
    -1.787445,
    -0.751810,
    -0.533233,
    -0.364455,
    -1.114025,
    0.840372,
    -0.922570,
    0.292269,
    0.352838,
    -0.637346,
    -0.458488,
    0.267879,
    1.186054,
    0.947243,
    -1.736475,
    0.446768,
    -0.272137,
    -0.528240,
    0.552007,
    -0.417947,
    -0.677010,
    -0.665433,
    -2.420856,
    -1.168507,
    -2.567496,
    0.981744,
    -1.503281,
    0.848807,
    0.241862,
    -0.329888,
    -0.082080,
    -1.522944,
    -1.454255,
    -0.442427,
    -0.111382,
    0.113874,
    0.670173,
    -0.508988,
    -0.021043,
    2.355503,
    0.001516,
    -0.163955,
    -0.899082,
    -0.199330,
    0.673727,
    -1.660734,
    -0.944833,
    0.022501,
    1.448806,
    0.536588,
    -2.178390,
    -1.659648,
    -1.185481,
    -0.559515,
    -1.373057,
    1.513252,
    0.485534,
    -1.434878,
    0.955745,
    0.774507,
    -0.912202,
    -1.063017,
    0.347441,
    0.559378,
    0.372398,
    -1.081624,
    0.212469,
    -1.269138,
    -0.269384,
    0.498838,
    1.154417,
    -0.252573,
    -0.760940,
    -3.090580,
    1.173193,
    -1.774936,
    -0.700161,
    -1.625563,
    -0.292570,
    -0.808459,
    -1.270923,
    -1.341076,
    0.401449,
    -0.307946,
    -0.878453,
    -1.576734,
    -0.899566,
    -0.913544,
    -0.319690,
    -0.521596,
    -1.770162,
    -0.281375,
    -0.286341,
    0.353923,
    0.590711,
    0.798199,
    -0.157112,
    -1.026430,
    -0.223513,
    -1.255007,
    -0.668071,
    0.315328,
    -1.491126,
    -0.630580,
    -1.464613,
    -1.306638,
    -1.709589,
    -1.984310,
    0.319001,
    0.616547,
    -2.030276,
    -0.799124,
    -0.573781,
    1.459908,
    -1.628156,
    -0.915855,
    0.865198,
    0.978808,
    -0.634711,
    -0.383449,
    -0.373523,
    0.357160,
    -0.408615,
    0.501855,
    1.269651,
    -1.060279,
    -0.315045,
    -1.291963,
    -1.568707,
    0.275930,
    0.108248,
    1.409990,
    -1.193638,
    -0.518975,
    -0.621167,
    1.268187,
    0.024242,
    0.518211,
    0.062400,
    1.185803,
    -0.584779,
    1.190526,
    1.091374,
    -0.514770,
    1.040043,
    0.430044,
    0.874918,
    -0.852732,
    -0.647205,
    -1.558137,
    0.218898,
    -0.059638,
    -0.912500,
    -1.393061,
    0.780822,
    0.110864,
    0.516089,
    0.645157,
    -1.398049,
    -0.838374,
    -2.023236,
    1.905780,
    -0.829899,
    -1.154593,
    -0.950257,
    -0.123982,
    0.797762,
    1.546140,
    -0.498022,
    -1.359373,
    -0.072210,
    0.315508,
    -1.431250,
    -3.036818,
    1.519331,
    -0.151137,
    -0.474302,
    -0.232114,
    2.037055,
    -0.190566,
    1.232697,
    2.188430,
    -1.271818,
    0.691216,
    0.371849,
    -0.873792,
    -0.401245,
    0.424084,
    -0.737222,
    -1.424171,
    1.639772,
    0.964601,
    1.129978,
    0.950262,
    -0.655349,
    -0.808728,
    0.315424,
    -1.055780,
    -0.011153,
    0.368773,
    -0.542248,
    -0.729045,
    -1.090182,
    -1.105689,
    -1.258418,
    -0.861754,
    -0.134568,
    0.348010,
    0.839551,
    -0.183281,
    0.193959,
    0.879854,
    0.158446,
    -1.479043,
    -0.420453,
    0.294413,
    -0.123118,
    0.079786,
    0.337088,
    -0.651364,
    -0.273409,
    -0.136014,
    0.155529,
    -1.296741,
    1.915692,
    -1.849807,
    -0.907400,
    0.269711,
    -0.711908,
    0.573595,
    -0.004113,
    -1.069843,
    -0.354789,
    -0.453538,
    -0.094706,
    2.109041,
    0.463926,
    0.156014,
    -1.466348,
    -0.177142,
    -0.323314,
    -0.569791,
    0.575084,
    -2.384612,
    0.095144,
    -0.040862,
    -0.987021,
    0.790878,
    -0.982364,
    -0.358556,
    -1.023061,
    0.642395,
    -0.681152,
    -0.255331,
    0.891552,
    0.531422,
    0.172698,
    -0.497625,
    -0.159056,
    -0.476706,
    1.076094,
    -1.021391,
    0.507285,
    0.790424,
    0.555874,
    0.248614,
    1.226137,
    -0.525916,
    -0.050005,
    -0.269307,
    0.553162,
    0.559476,
    0.447560,
    0.589533,
    -0.672512,
    -0.504302,
    -0.004955,
    -0.037934,
    0.794244,
    -1.655240,
    -0.842331,
    -0.188717,
    0.373676,
    -0.753621,
    -0.604605,
    0.246640,
    -2.019012,
    -1.891277,
    -0.738487,
    1.133862,
    -0.703329,
    1.157933,
    0.077700,
    -0.242814,
    1.217191,
    0.991501,
    0.298705,
    -0.288438,
    -0.927830,
    0.372906,
    -0.393604,
    -0.714625,
    -0.076298,
    -0.487721,
    -0.457575,
    -2.350061,
    1.409533,
    -1.737601,
    0.895458,
    -0.338558,
    -0.343450,
    -0.526784,
    -0.569383,
    0.877707,
    0.508908,
    -1.505225,
    -0.033296,
    0.874227,
    -0.173979,
    -1.255278,
    -1.508729,
    0.189177,
    -0.438299,
    1.671704,
    -1.022047,
    -0.582385,
    -0.949192,
    0.243874,
    1.172916,
    -0.599967,
    0.008156,
    1.020284,
    -0.725401,
    1.405868,
    1.494075,
    0.322892,
    -2.050229,
    0.432743,
    0.323051,
    -0.696210,
    -0.848097,
    -2.229536,
    1.001177,
    0.759667,
    1.069138,
    -0.091399,
    0.418791,
    -0.029242,
    0.010834,
    -1.459410,
    1.450181,
    -1.161958,
    -0.514216,
    0.926824,
    0.880743,
    2.298901,
    0.186866,
    0.770547,
    0.792830,
    0.255142,
    0.502863,
    1.440323,
    0.998726,
    -2.552081,
    0.896103,
    0.952893,
    -2.757227,
    0.566883,
    0.480533,
    0.757888,
    -1.342354,
    -0.520728,
    -0.146373,
    1.191020,
    -0.518564,
    -0.425018,
    0.646321,
    -0.454168,
    0.395048,
    2.642071,
    -0.388221,
    0.678989,
    -0.867920,
    -0.204400,
    -1.281811,
    0.456407,
    0.692520,
    0.437898,
    0.757443,
    0.737587,
    -0.163183,
    0.633661,
    -0.540325,
    -0.218654,
    1.179999,
    0.652972,
    -0.495752,
    -1.400079,
    -0.500341,
    1.313069,
    2.017272,
    -0.723973,
    -1.253001,
    -1.090393,
    0.955445,
    -0.192200,
    0.274408,
    -0.479497,
    -0.026356,
    1.163289,
    -0.329405,
    -1.337523,
    0.552285,
    0.134256,
    -0.974156,
    0.361684,
    0.107255,
    -1.803559,
    1.831015,
    0.099047,
    1.661728,
    -0.625912,
    -0.152367,
    -0.406178,
    1.517361,
    -0.066575,
    0.069283,
    -1.667184,
    -0.512019,
    -0.141139,
    -1.434235,
    0.695344,
    0.104114,
    0.415517,
    -0.544224,
    -1.403995,
    -0.114518,
    0.273952,
    0.178051,
    0.876793,
    0.849972,
    -0.564444,
    0.437772,
    0.579530,
    0.312584,
    0.984510,
    -0.492249,
    -0.100714,
    0.306614,
    -0.204496,
    0.447937,
    0.374508,
    0.187033,
    -1.160361,
    -1.966295,
    1.437509,
    0.225499,
    1.217213,
    -0.763410,
    1.595318,
    -0.077474,
    -0.250741,
    0.324439,
    -0.037741,
    -1.378451,
    0.347917,
    0.326687,
    -0.697170,
    -0.990714,
    0.015132,
    0.703267,
    -0.658264,
    -1.128808,
    -0.340454,
    -0.223392,
    0.340310,
    0.064723,
    -1.424085,
    -0.844136,
    0.647161,
    0.128258,
    0.272185,
    0.135877,
    2.005085,
    -0.559242,
    0.738104,
    -1.068466,
    0.485921,
    1.117155,
    -0.727138,
    0.292643,
    0.955241,
    -1.726042,
    -2.615371,
    -0.732411,
    0.997783,
    2.045722,
    0.364685,
    0.611107,
    -0.406470,
    0.454853,
    -0.768804,
    -1.682261,
    -0.041856,
    -0.724042,
    1.352031,
    0.473171,
    -1.391676,
    -0.911617,
    -0.443025,
    -0.602531,
    -0.677063,
    -0.289196,
    -0.502903,
    -0.712211,
    -0.576614,
    0.925870,
    0.105223,
    -0.500923,
    1.184951,
    0.143229,
    -0.095461,
    0.036490,
    -0.638092,
    -1.077179,
    -0.253828,
    -0.044630,
    0.619453,
    -0.455196,
    0.381739,
    0.482325,
    0.288395,
    0.696121,
    -1.114247,
    0.809824,
    -1.399302,
    1.259414,
    0.923350,
    0.187654,
    -0.131661,
    0.625184,
    0.138486,
    -0.243976,
    -0.546586,
    -0.346804,
    0.179970,
    0.549936,
    -0.150944,
    -0.206037,
    0.260676,
    -1.259772,
    0.737585,
    0.595857,
    0.410414,
    -0.961230,
    -0.041600,
    -0.130926,
    0.346792,
    -0.420716,
    -0.573346,
    -0.725864,
    -1.075287,
    -0.122137,
    -0.214744,
    1.415027,
    -1.184882,
    -0.989138,
    -0.183820,
    0.210549,
    0.615478,
    -0.538293,
    0.882108,
    -0.369094,
    -0.255272,
    1.208582,
    -0.603881,
    0.581322,
    -1.083144,
    0.816629,
    -0.428296,
    2.920400,
    1.818925,
    0.776797,
    0.701472,
    2.070732,
    1.654240,
    -0.591177,
    -1.849416,
    0.446804,
    0.587818,
    -0.425458,
    -0.851127,
    0.393207,
    -1.148952,
    1.194177,
    -0.668100,
    -0.204195,
    -0.582752,
    -0.920600,
    -0.173020,
    0.895885,
    -0.900871,
    1.008019,
    0.562849,
    -1.564684,
    -0.393773,
    -0.362988,
    1.183835,
    -1.537507,
    1.948635,
    1.362270,
    0.415831,
    -0.327035,
    -0.541875,
    -0.400978,
    0.646727,
    -0.479391,
    2.830701,
    -0.119812,
    -0.586230,
    0.662329,
    -2.034194,
    -0.297046,
    -0.009934,
    -0.530959,
    -1.214893,
    -0.168110,
    -2.366371,
    -0.447687,
    -0.559243,
    -1.962730,
    0.229321,
    -0.544526,
    -0.413380,
    -1.161955,
    1.166153,
    1.488528,
    1.203727,
    -0.860314,
    -0.345928,
    -0.516585,
    0.408472,
    0.300064,
    -0.171431,
    1.284271,
    -0.330270,
    0.991341,
    1.317295,
    0.763436,
    1.564798,
    -1.000219,
    -0.272086,
    -1.013808,
    -1.074706,
    1.384228,
    -1.082953,
    -1.308529,
    0.992790,
    0.247217,
    -0.611790,
    1.936854,
    -0.014053,
    2.040462,
    0.833823,
    -0.015041,
    -0.205306,
    -0.474567,
    -0.677304,
    1.065914,
    -0.813985,
    1.424490,
    0.104794,
    0.274563,
    0.234253,
    1.095895,
    -1.202501,
    0.856076,
    -0.717078,
    0.416632,
    -0.578585,
    0.277148,
    0.581648,
    -0.059713,
    -1.787776,
    1.225764,
    0.399998,
    -0.434477,
    1.560565,
    0.959050,
    -1.157306,
    0.340055,
    -1.087505,
    1.887336,
    2.394904,
    0.765140,
    -0.198463,
    0.073694,
    -0.184925,
    -1.631262,
    -1.180538,
    0.561857,
    -0.607451,
    1.077073,
    -0.094193,
    0.624358,
    -0.046589,
    -1.022783,
    -0.180076,
    0.000369,
    -0.705654,
    -1.216899,
    2.194961,
    0.789940,
    -0.686825,
    -0.558450,
    1.872646,
    0.220400,
    1.164341,
    -0.335727,
    0.678245,
    1.242570,
    0.672982,
    0.990642,
    0.482998,
    0.499912,
    0.437488,
    -1.073554,
    -0.089407,
    1.319347,
    -0.480471,
    -0.814793,
    0.351193,
    -0.130415,
    1.100767,
    1.095954,
    0.576072,
    -0.396001,
    -0.034496,
    1.676340,
    0.399766,
    -0.403125,
    -0.536685,
    1.628358,
    -2.625962,
    0.400673,
    -1.355544,
    -0.776461,
    0.611397,
    1.403388,
    -0.551908,
    0.603978,
    0.093054,
    -0.835537,
    -1.712252,
    1.512291,
    0.037751,
    0.875242,
    0.257375,
    0.141708,
    -0.822248,
    -0.126217,
    1.129320,
    -0.171880,
    -0.787344,
    1.768988,
    -0.291393,
    0.309587,
    -1.742379,
    -1.059736,
    -0.500778,
    0.208592,
    1.366665,
    0.128053,
    0.845763,
    -1.238546,
    1.417537,
    0.846349,
    0.499520,
    0.335566,
    -2.383686,
    -0.039535,
    -0.865518,
    1.867586,
    0.338557,
    -0.367114,
    -0.018462,
    -1.046302,
    1.480372,
    -0.791897,
    -1.092175,
    0.705043,
    -0.659153,
    0.314506,
    -0.270019,
    0.066090,
    0.883049,
    -0.595575,
    0.361691,
    0.536534,
    0.468325,
    0.962604,
    -0.100770,
    0.572905,
    0.152940,
    -0.031041,
    1.984378,
    -0.202772,
    -0.249052,
    -0.035299,
    0.384919,
    -0.743777,
    0.090739,
    -1.275872,
    0.521980,
    -0.475312,
    0.595454,
    -0.333152,
    0.408462,
    -0.383839,
    0.347850,
    -1.505688,
    -0.077084,
    0.979649,
    1.151244,
    0.530742,
    0.264250,
    0.643190,
    0.628830,
    0.470461,
    -0.738004,
    -1.208177,
    0.088628,
    0.137169,
    2.067149,
    -0.334999,
    -0.977630,
    0.214605,
    -0.281729,
    1.953387,
    -1.576338,
    -0.551849,
    1.120248,
    -0.141568,
    -0.400404,
    -1.146881,
    -0.994117,
    1.071127,
    -1.520982,
    1.589055,
    -1.096849,
    -1.215287,
    -0.828918,
    1.789413,
    0.446434,
    -0.631507,
    -0.695749,
    0.409917,
    0.256940,
    -0.307935,
    -0.342207,
    -0.497954,
    -0.577096,
    -0.235259,
    0.093180,
    0.018542,
    1.424213,
    0.589349,
    1.063513,
    -0.524706,
    1.248124,
    3.046885,
    -0.900293,
    -0.640563,
    -1.530618,
    -1.421728,
    -1.356928,
    -0.592629,
    0.449393,
    -0.556498,
    -0.955825,
    -1.179992,
    2.500864,
    -0.798140,
    0.302128,
    -0.311470,
    -0.802234,
    0.983143,
    -1.377434,
    0.275308,
    1.927924,
    -1.154336,
    -0.060567,
    0.759490,
    -0.166644,
    0.076016,
    0.629815,
    1.174384,
    -0.132760,
    -1.969769,
    -1.163625,
    -0.001281,
    1.044506,
    0.208483,
    -0.512034,
    1.259180,
    -1.609340,
    -0.161836,
    -2.255120,
    -0.122477,
    1.432720,
    2.054785,
    -0.194848,
    0.028867,
    0.003142,
    0.100391,
    -0.662156,
    0.762887,
    -0.246981,
    2.768037,
    0.613127,
    -1.610482,
    -0.205372,
    -0.531359,
    0.210605,
    -0.152395,
    0.832828,
    0.182456,
    -0.027381,
    -0.696236,
    1.654592,
    0.049080,
    -0.187352,
    -1.585432,
    1.711514,
    0.598997,
    -0.009550,
    -0.239992,
    0.540782,
    -0.102553,
    0.300157,
    0.606287,
    -0.376049,
    1.499161,
    1.153505,
    -1.180284,
    -0.614343,
    -0.130163,
    0.043626,
    2.824381,
    0.922788,
    0.176617,
    -1.054238,
    -0.143832,
    -1.039554,
    -1.278863,
    -0.185159,
    -0.089493,
    -0.847975,
    -0.801528,
    0.467014,
    2.211333,
    -0.396353,
    -0.740606,
    -0.294270,
    -0.278784,
    1.610455,
    0.182944,
    1.526245,
    -0.565215,
    0.990033,
    0.811466,
    -0.700119,
    1.134980,
    0.298490,
    0.376652,
    0.357888,
    1.371654,
    -0.614963,
    0.698541,
    -0.270860,
    -0.458947,
    -1.407317,
    2.910492,
    -0.893155,
    -0.672315,
    1.462078,
    0.414854,
    0.176764,
    0.820265,
    1.563703,
    0.029771,
    0.754369,
    0.096634,
    0.003494,
    -0.942421,
    0.605074,
    -2.330781,
    0.098684,
    0.795896,
    0.747310,
    -1.285995,
    -0.870084,
    0.368409,
    -0.320058,
    1.806386,
    -2.023119,
    0.252906,
    1.140289,
    0.874716,
    1.063816,
    -0.403879,
    -0.373890,
    -0.062005,
    1.325768,
    0.882880,
    -1.533197,
    0.708270,
    -1.304140,
    -0.283403,
    -0.962543,
    2.467435,
    0.928512,
    -0.623772,
    -1.682658,
    -0.227826,
    -1.315679,
    0.164244,
    -2.612494,
    0.339691,
    -0.601189,
    0.037595,
    -0.024276,
    -0.274151,
    -0.602355,
    -0.101779,
    -1.251022,
    0.081946,
    0.042117,
    1.896393,
    0.225450,
    -0.551127,
    1.902199,
    0.236529,
    -0.958875,
    -0.518101,
    0.382683,
    -0.345789,
    1.721418,
    1.885596,
    -0.241464,
    -0.311323,
    -1.496853,
    -0.035524,
    0.610641,
    1.013784,
    1.717764,
    -0.016652,
    -0.813688,
    1.021659,
    -0.241650,
    0.270080,
    -0.237821,
    1.290397,
    -0.479205,
    -1.066943,
    -0.419169,
    -0.445688,
    -0.562236,
    1.576509,
    0.810024,
    -0.855536,
    -0.086561,
    -0.940388,
    -0.130336,
    -0.499015,
    -1.143251,
    0.349384,
    -0.894060,
    0.086727,
    -0.133720,
    -1.175695,
    1.392274,
    1.151937,
    -0.140780,
    -0.629073,
    0.098439,
    0.179252,
    0.357220,
    -0.189356,
    0.473622,
    1.326519,
    -0.809313,
    -0.243475,
    -0.355877,
    0.361820,
    0.225801,
    0.969091,
    -0.389371,
    0.715440,
    -0.443912,
    -0.229052,
    -0.956606,
    -0.705494,
    1.133742,
    -0.682853,
    1.020804,
    0.096731,
    -0.999459,
    0.554032,
    -0.348948,
    -1.465359,
    0.274615,
    -0.885257,
    -0.116723,
    -1.087313,
    -0.914812,
    0.534787,
    -0.702835,
    -0.818737,
    1.667653,
    0.211113,
    -0.557494,
    -1.342837,
    -0.462453,
    1.378278,
    -1.862196,
    1.608812,
    0.789260,
    -1.005934,
    -0.721070,
    -0.598699,
    -0.796808,
    1.221620,
    -0.085024,
    0.279199,
    0.833012,
    0.499743,
    0.389141,
    1.675886,
    -0.540220,
    1.249701,
    -0.379553,
    -1.275224,
    0.856796,
    0.943405,
    -0.544123,
    -0.839667,
    1.878227,
    -1.269630,
    -0.292586,
    -0.206456,
    -0.043028,
    0.986967,
    1.169393,
    -0.882934,
    -0.878259,
    0.835564,
    -0.107419,
    -0.472160,
    -1.050609,
    -0.294499,
    1.094529,
    0.683683,
    -0.713196,
    -0.882065,
    2.158003,
    -0.042445,
    -1.071685,
    -0.404860,
    -0.016146,
    -0.693019,
    2.056721,
    -0.417102,
    0.000578,
    -1.808089,
    -0.172208,
    -0.988774,
    1.987265,
    0.919957,
    -0.170339,
    -1.255396,
    -1.312764,
    -2.062288,
    -1.304863,
    -0.609236,
    0.067508,
    1.577763,
    -0.885264,
    1.788313,
    -0.883724,
    0.157253,
    -0.973457,
    -1.152912,
    0.180557,
    -1.210238,
    0.606627,
    1.246161,
    0.459148,
    1.071243,
    1.459715,
    0.429693,
    -1.190392,
    -1.008169,
    -1.848755,
    -0.856697,
    -0.198590,
    -0.689949,
    -0.770391,
    0.900576,
    1.641656,
    0.307004,
    -1.316941,
    -0.163709,
    1.433641,
    0.714986,
    -0.157933,
    0.246747,
    1.166290,
    -1.367475,
    -1.248976,
    2.937400,
    -1.327772,
    -0.775509,
    1.106633,
    1.174846,
    -0.112065,
    -1.892861,
    -0.634475,
    2.423250,
    1.331617,
    -0.880341,
    -1.247755,
    -0.962013,
    0.076957,
    0.466062,
    -1.407686,
    0.894814,
    1.318495,
    -0.458555,
    0.077213,
    -0.996604,
    0.507026,
    -1.490024,
    0.569443,
    1.910623,
    -1.880442,
    0.830484,
    -0.390684,
    0.377732,
    -0.599779,
    0.652386,
    0.878944,
    -0.074083,
    -0.902164,
    -1.251669,
    -0.484273,
    -0.504537,
    0.394436,
    -1.986460,
    0.128923,
    -0.524958,
    -0.456758,
    1.298734,
    0.648587,
    -0.604728,
    -1.677943,
    -0.492126,
    0.138109,
    2.286663,
    -1.519550,
    1.191384,
    -0.873123,
    -0.775694,
    -0.110199,
    0.210830,
    -0.148930,
    0.327190,
    -0.849955,
    0.947982,
    0.091569,
    -0.079606,
    1.118612,
    -1.195637,
    -1.179600,
    -0.163901,
    -1.810846,
    -0.333721,
    -0.725805,
    1.227221,
    0.109677,
    2.101222,
    -2.740212,
    -0.051547,
    -0.207705,
    -0.058569,
    0.281562,
    0.381172,
    -0.638970,
    -0.131579,
    -1.394022,
    0.438576,
    2.060245,
    -0.359874,
    1.342601,
    0.106216,
    0.311408,
    -0.563861,
    0.272656,
    0.100553,
    0.362198,
    1.491613,
    0.419035,
    -0.121175,
    0.799454,
    -0.952883,
    -0.622308,
    1.177800,
    0.000076,
    -1.126826,
    -0.292475,
    -0.078537,
    1.379154,
    0.802334,
    -0.171683,
    0.734827,
    0.420083,
    -1.826946,
    0.015594,
    -1.688260,
    -1.064943,
    0.512141,
    -1.575427,
    -1.615164,
    -0.778143,
    3.088901,
    0.089919,
    0.677995,
    0.533993,
    0.600967,
    1.336072,
    1.165862,
    -1.579502,
    0.676042,
    0.582919,
    0.268425,
    0.277089,
    -1.472227,
    -1.856197,
    -0.492811,
    1.289004,
    0.652078,
    -2.065645,
    0.103256,
    -0.332207,
    0.386130,
    0.691504,
    -0.235051,
    -1.314234,
    0.244806,
    -0.106742,
    -0.149538,
    2.305402,
    0.375973,
    2.195850,
    -0.496420,
    -0.283547,
    0.793312,
    -0.369336,
    -0.566251,
    1.145852,
    0.410178,
    1.041822,
    -0.635211,
    -0.213983,
    -0.280974,
    0.604046,
    -0.092369,
    0.088883,
    0.918906,
    0.681686,
    -0.643620,
    -0.549277,
    -1.128577,
    -0.083521,
    1.213505,
    0.170312,
    1.453418,
    0.217746,
    0.795433,
    1.323281,
    0.063666,
    0.171141,
    0.699477,
    1.170076,
    0.273830,
    1.677997,
    0.202042,
    -1.018954,
    0.123745,
    -0.175080,
    -0.418220,
    0.386757,
    0.370967,
    0.340695,
    -1.547948,
    -2.043544,
    -0.556763,
    0.147932,
    0.369484,
    -0.858198,
    -0.403307,
    -0.133178,
    0.821929,
    -1.303835,
    -2.086252,
    0.298240,
    -0.300667,
    -0.179480,
    0.508759,
    -1.825119,
    2.602324,
    1.172444,
    0.290379,
    2.482168,
    0.175037,
    -0.981983,
    1.402136,
    -1.314071,
    0.184710,
    -0.315526,
    -0.596842,
    1.099252,
    -1.814435,
    0.880172,
    -1.601214,
    0.785413,
    0.945907,
    -1.776701,
    -0.436015,
    -1.529939,
    0.910405,
    -0.340707,
    0.863815,
    0.551857,
    0.132865,
    1.769459,
    0.949776,
    -0.347047,
    1.380536,
    0.341655,
    1.051505,
    1.085646,
    0.793319,
    1.753748,
    -0.566009,
    2.161679,
    -0.043398,
    -0.508506,
    -0.538776,
    -0.483111,
    -1.520449,
    -0.736227,
    -1.158077,
    -0.465144,
    -0.972838,
    1.773178,
    0.391717,
    1.518817,
    -0.802199,
    -1.703776,
    0.957488,
    0.420948,
    0.309578,
    -0.156766,
    0.852927,
    -1.217070,
    1.044911,
    -0.516436,
    0.568660,
    1.936784,
    1.219487,
    2.580186,
    1.783100,
    1.535240,
    0.197159,
    1.853099,
    -0.018268,
    -1.017334,
    -0.667361,
    -0.583840,
    -1.461660,
    1.011546,
    -0.374210,
    -0.444059,
    0.479029,
    -0.934834,
    0.394995,
    0.364121,
    0.457420,
    -0.871647,
    -1.860857,
    -1.379976,
    -1.215132,
    -0.809203,
    -1.357518,
    -0.532121,
    -0.726239,
    0.229127,
    1.034680,
    0.613954,
    1.835467,
    -0.364042,
    0.502880,
    1.237782,
    0.610503,
    -1.186771,
    -0.448812,
    0.554016,
    -0.871185,
    0.636189,
    -1.323614,
    0.163951,
    -1.390139,
    1.584018,
    1.405798,
    -0.413694,
    -0.534426,
    -1.166474,
    -0.222346,
    -1.348934,
    -1.284597,
    -0.398167,
    0.026018,
    0.251589,
    -0.081553,
    -0.099414,
    -0.522052,
    -0.860695,
    0.068799,
    0.529180,
    2.428579,
    -0.170100,
    -1.120793,
    1.828799,
    -0.365934,
    -1.757476,
    -0.418070,
    1.355826,
    0.406663,
    -0.311030,
    -0.116618,
    -0.826080,
    -0.341016,
    0.659916,
    -0.033434,
    -2.122928,
    -0.856500,
    -2.029414,
    -1.804597,
    -2.349854,
    -1.650714,
    -2.455534,
    -1.916448,
    -2.056407,
    0.154845,
    -0.018129,
    0.186541,
    -0.906906,
    0.396562,
    0.085307,
    -0.065951,
    0.929265,
    1.209613,
    -1.661786,
    -0.274303,
    0.492891,
    0.629746,
    0.125799,
    1.048841,
    -1.704861,
    -0.724580,
    0.033828,
    -1.432620,
    -3.171840,
    -0.189630,
    -1.562988,
    -1.387961,
    -0.627869,
    -1.632315,
    -0.979109,
    -1.125394,
    -2.253948,
    -0.736409,
    -0.422185,
    -0.666407,
    -0.254077,
    -0.212433,
    -1.897296,
    2.498494,
    -1.152774,
    -0.802233,
    1.179740,
    -0.172955,
    0.928341,
    0.008949,
    0.272484,
    1.685408,
    -0.745831,
    0.164422,
    -0.507497,
    -0.219619,
    -1.180525,
    -0.367717,
    -0.114649,
    -0.346943,
    -1.099228,
    0.454186,
    -0.641132,
    -1.185860,
    0.361590,
    -2.101042,
    0.082690,
    0.092502,
    0.586548,
    -0.101616,
    1.779371,
    -0.703366,
    0.736558,
    -0.334690,
    -0.464557,
    0.126795,
    0.966315,
    0.825591,
    0.153357,
    -0.931401,
    0.412464,
    1.488010,
    -0.796720,
    0.779155,
    -1.343364,
    -0.013829,
    0.212243,
    1.022317,
    0.070259,
    0.130738,
    -0.172222,
    -1.340047,
    -1.819187,
    -0.180038,
    -1.262919,
    0.224696,
    -0.318356,
    0.907643,
    -0.141204,
    0.000881,
    0.624722,
    0.059678,
    0.486482,
    0.095095,
    -0.338865,
    1.368246,
    -2.234238,
    0.804248,
    0.369055,
    -1.032235,
    -0.588122,
    -0.888750,
    0.662533,
    0.303331,
    1.111643,
    0.024710,
    -0.541960,
    -1.254576,
    0.554268,
    -1.389547,
    -1.655127,
    -0.076116,
    -0.493428,
    -0.499784,
    0.081787,
    -0.316023,
    1.193633,
    1.284232,
    -1.255975,
    0.788738,
    1.012356,
    0.027519,
    -0.298287,
    -1.454463,
    1.332922,
    1.289738,
    -0.037276,
    0.689781,
    -0.235286,
    2.011254,
    2.066853,
    -0.226401,
    -1.932673,
    -0.355992,
    -0.721692,
    -0.470202,
    -0.483252,
    -0.478285,
    -0.585265,
    -1.870140,
    0.940574,
    0.501126,
    0.607437,
    0.854068,
    0.653328,
    0.651927,
    -0.505289,
    0.534467,
    0.146629,
    -0.438333,
    0.259927,
    -0.702904,
    -0.753733,
    -0.516107,
    -0.540226,
    -2.850218,
    -0.337151,
    0.743804,
    0.387094,
    -0.581668,
    0.463804,
    -0.232179,
    -0.009533,
    -0.900075,
    0.340450,
    1.087360,
    1.051836,
    1.305743,
    -0.906930,
    1.068161,
    -1.888487,
    0.326631,
    -0.420616,
    0.093911,
    1.269782,
    0.827243,
    0.248193,
    1.082862,
    0.881049,
    -0.008176,
    -1.686725,
    0.388528,
    1.113775,
    0.492139,
    -0.430894,
    0.152124,
    0.989924,
    -0.940189,
    0.320038,
    -0.580308,
    1.041848,
    -1.093552,
    0.229633,
    -0.825151,
    0.154897,
    -1.719054,
    -0.569857,
    1.268969,
    1.529544,
    0.032889,
    0.037281,
    0.612172,
    0.640863,
    0.315885,
    -0.943783,
    -0.034027,
    -0.397325,
    0.911509,
    -0.624418,
    -0.030277,
    -0.318500,
    0.468775,
    0.006976,
    0.392552,
    -0.212072,
    0.868493,
    1.143974,
    0.643833,
    -0.003385,
    1.870394,
    -0.544480,
    0.451485,
    -0.401516,
    0.585269,
    0.430357,
    0.332197,
    -0.262238,
    -0.591415,
    -1.484653,
    0.696625,
    -0.032697,
    0.102795,
    0.054042,
    -0.311605,
    1.176192,
    -0.643943,
    -1.309144,
    -1.469031,
    1.217738,
    0.011547,
    0.323530,
    0.148173,
    1.177492,
    0.117615,
    0.417983,
    0.725598,
    0.397329,
    -1.343782,
    0.853104,
    0.402707,
    0.141771,
    -0.069590,
    -0.458724,
    -2.154707,
    0.699115,
    1.490646,
    0.379444,
    0.349997,
    0.179782,
    -0.065503,
    0.371843,
    1.128687,
    -0.959436,
    -0.326558,
    1.645479,
    0.771378,
    -2.088693,
    1.621771,
    0.230506,
    0.462882,
    1.588975,
    0.630793,
    0.158369,
    0.155133,
    0.154404,
    0.984363,
    -0.848939,
    -0.131107,
    -0.667881,
    -0.848940,
    0.112640,
    -0.254838,
    0.549393,
    -1.032479,
    -0.051802,
    1.001507,
    0.344740,
    0.440371,
    0.393484,
    -0.515784,
    1.296509,
    0.471389,
    0.497434,
    -0.229742,
    0.174761,
    -1.095049,
    0.285538,
    -0.971245,
    0.027611,
    0.454603,
    -0.569791,
    -0.212974,
    0.242642,
    0.723580,
    -0.195577,
    -0.708570,
    0.684449,
    0.338758,
    -0.896895,
    0.217220,
    -0.935926,
    -0.979027,
    -0.534986,
    0.005387,
    0.888198,
    0.506832,
    -0.544070,
    -1.547664,
    0.397559,
    -0.043621,
    0.107538,
    0.927949,
    -0.716345,
    0.890249,
    1.047213,
    0.528946,
    0.215784,
    -0.357735,
    0.838701,
    0.039830,
    1.439744,
    -1.245559,
    -0.793206,
    0.265742,
    -0.146271,
    -0.779835,
    1.195281,
    0.386365,
    -0.772837,
    0.064269,
    -1.450081,
    -0.037540,
    -0.173247,
    1.514158,
    0.701281,
    -0.217297,
    0.157773,
    -0.132808,
    1.807382,
    0.174471,
    -1.200702,
    -0.537624,
    0.344843,
    0.905946,
    -1.495986,
    0.452456,
    0.056393,
    -0.596641,
    -0.065491,
    0.330758,
    1.428724,
    2.200208,
    1.030766,
    0.676567,
    0.203573,
    -1.748209,
    0.594114,
    -1.132259,
    1.397364,
    -0.841327,
    -1.109832,
    -0.149383,
    -0.203869,
    0.479308,
    0.598152,
    -0.398437,
    0.238805,
    0.391573,
    2.702235,
    0.539828,
    1.696028,
    -1.712507,
    1.235910,
    1.083579,
    -0.705655,
    0.199123,
    0.461942,
    0.439364,
    0.080920,
    0.771603,
    -0.240272,
    -0.752633,
    -0.310527,
    0.341987,
    0.248696,
    -0.156852,
    -1.481157,
    1.243185,
    -0.355131,
    1.212967,
    -0.594494,
    -1.611466,
    -0.745374,
    -1.216820,
    -0.140021,
    0.142190,
    -0.813742,
    -0.257205,
    -0.698352,
    0.326350,
    -0.131577,
    0.727133,
    1.441564,
    -0.167185,
    0.111733,
    -0.782545,
    -1.419182,
    0.189749,
    -1.290857,
    -1.243628,
    0.045240,
    0.934716,
    -2.656690,
    1.648893,
    0.785035,
    -0.405162,
    -1.630396,
    -0.901928,
    -1.721803,
    1.517069,
    -0.670431,
    1.862446,
    0.468923,
    1.041852,
    1.092498,
    -0.107914,
    -0.812711,
    -0.434489,
    0.271404,
    0.066399,
    0.071655,
    -2.253687,
    0.471405,
    0.058375,
    -1.121955,
    -0.688880,
    0.667147,
    1.170823,
    -0.418395,
    1.316985,
    0.408937,
    -0.927627,
    1.410670,
    -1.668711,
    1.036213,
    -0.288224,
    -0.191200,
    0.886472,
    0.953221,
    -1.802149,
    0.609660,
    0.237354,
    -1.183602,
    -1.577562,
    -0.980085,
    -0.788140,
    -2.725129,
    -1.063297,
    -2.613821,
    -1.019651,
    -2.299212,
    -0.286422,
    -0.043122,
    -0.868903,
    0.715891,
    0.320642,
    -1.488523,
    0.036056,
    1.399766,
    -0.055333,
    1.140153,
    0.538358,
    0.015914,
    -1.607110,
    -1.519671,
    -0.010780,
    -0.737444,
    0.078345,
    -1.375088,
    -0.348161,
    -0.111803,
    0.974551,
    -0.073299,
    -1.748139,
    1.892836,
    1.278726,
    -0.584669,
    -2.301917,
    -0.423079,
    0.255938,
    -0.011055,
    -0.012132,
    0.719803,
    0.342997,
    0.110176,
    -0.222901,
    -0.249105,
    0.093921,
    1.109647,
    0.745703,
    0.908225,
    1.369393,
    -1.000019,
    1.980852,
    -0.121953,
    1.225780,
    0.231999,
    -0.624855,
    -0.204336,
    1.529515,
    -0.697832,
    0.032546,
    0.493955,
    1.407961,
    -0.708008,
    1.002500,
    -0.535968,
    1.773262,
    0.488713,
    0.003644,
    0.746412,
    -0.946655,
    -1.540676,
    -0.093121,
    1.146952,
    0.779617,
    0.078881,
    0.211491,
    -2.762740,
    1.332045,
    -0.029101,
    1.370404,
    -0.271557,
    -0.934956,
    0.556050,
    0.293473,
    0.822129,
    -1.395646,
    1.082644,
    0.057970,
    0.601623,
    0.558055,
    0.678813,
    -1.688023,
    -0.553943,
    -0.244211,
    -0.293558,
    0.136402,
    -0.003772,
    -2.188529,
    0.576118,
    -0.497844,
    -1.440906,
    1.092315,
    0.216985,
    0.772753,
    0.038291,
    -1.484198,
    0.460010,
    1.759798,
    0.181797,
    0.352328,
    1.618785,
    0.639166,
    0.966276,
    -2.518694,
    -1.197674,
    -1.725595,
    0.870280,
    1.263880,
    -0.395750,
    -1.252470,
    0.066721,
    -0.176863,
    0.416377,
    0.007743,
    -0.258913,
    -0.597087,
    0.796526,
    -1.278160,
    0.199549,
    -0.016426,
    -0.188735,
    -2.209181,
    0.915033,
    0.891922,
    -0.423736,
    -0.521076,
    -2.299163,
    0.410680,
    0.407592,
    0.598541,
    -1.274836,
    1.334232,
    -0.099051,
    -0.343564,
    0.159860,
    0.507546,
    -1.129119,
    0.106019,
    -0.380979,
    -1.814747,
    0.094857,
    -0.508606,
    -0.726086,
    -0.642167,
    -0.603378,
    0.515021,
    -0.995522,
    -0.867103,
    -1.470683,
    -0.832990,
    1.094491,
    0.441271,
    0.827367,
    1.347446,
    -0.292080,
    -1.362607,
    0.825838,
    2.059758,
    -0.012332,
    -0.924039,
    -0.679821,
    0.468079,
    -0.282165,
    1.027573,
    0.896903,
    0.688885,
    -0.374245,
    0.238323,
    -1.850241,
    -0.253385,
    -2.346101,
    -0.922690,
    0.576824,
    0.007218,
    -1.642711,
    0.545920,
    -0.695173,
    -0.140638,
    2.286792,
    0.120192,
    1.544944,
    0.194905,
    -0.374761,
    -1.004679,
    -1.975052,
    1.648426,
    1.416202,
    0.390916,
    0.621180,
    1.427889,
    -0.901225,
    -2.437534,
    0.310003,
    -0.816807,
    1.101328,
    -0.970300,
    1.307214,
    -0.603944,
    -0.905490,
    -1.349880,
    -0.015327,
    0.718209,
    1.120850,
    0.593054,
    -1.091649,
    -0.644743,
    -0.002477,
    0.221924,
    -0.282869,
    0.093444,
    1.462701,
    -1.157241,
    -0.611765,
    -0.639868,
    0.406892,
    -0.186675,
    -0.257699,
    -0.592442,
    -0.149851,
    0.076097,
    -2.237378,
    0.347091,
    1.597281,
    -0.077188,
    -1.328627,
    1.798086,
    -1.783726,
    -0.760452,
    0.419747,
    -1.062651,
    -0.799999,
    -0.240429,
    -1.850759,
    0.157678,
    -2.277216,
    0.316473,
    0.784236,
    0.051263,
    -0.493426,
    0.667962,
    -0.605206,
    1.282171,
    1.109919,
    0.447015,
    -0.577974,
    -0.834682,
    1.154096,
    0.869659,
    1.171083,
    -0.045331,
    -0.094152,
    -0.513619,
    -0.942985,
    -1.099441,
    -0.768716,
    -1.943860,
    0.838295,
    -0.974175,
    -0.041670,
    0.874823,
    0.138124,
    -1.019973,
    -0.592012,
    -0.925955,
    -1.055323,
    -0.567722,
    0.388500,
    0.339951,
    -0.348096,
    -0.476809,
    0.896789,
    0.946294,
    1.646673,
    -1.282677,
    -0.556617,
    0.909064,
    -0.910774,
    -1.382372,
    0.754520,
    0.209468,
    1.756552,
    -0.490513,
    -2.226824,
    0.417273,
    0.981462,
    1.367563,
    -0.297387,
    0.048057,
    -1.178125,
    0.338900,
    0.278870,
    0.668636,
    -1.755442,
    -1.335271,
    1.245188,
    -0.795689,
    -0.789899,
    0.416269,
    -0.931211,
    0.388576,
    0.130214,
    1.264174,
    -0.261898,
    -0.890920,
    -1.227526,
    -0.306599,
    0.214999,
    -1.614172,
    -0.642121,
    1.514631,
    -0.864834,
    -0.304031,
    0.439657,
    0.578276,
    -0.219294,
    0.414312,
    -0.836130,
    -1.334025,
    -0.284429,
    -0.921806,
    -0.275495,
    -0.825337,
    0.164306,
    -0.867960,
    -0.621367,
    -0.404908,
    -0.665558,
    1.652455,
    -0.074538,
    -0.369610,
    0.041294,
    -1.043904,
    -0.010901,
    -0.697109,
    0.712584,
    -0.349704,
    0.317275,
    -1.536709,
    -0.119944,
    0.474179,
    -0.485643,
    0.610722,
    -0.047580,
    -1.631093,
    -0.674379,
    -2.155233,
    -0.474930,
    1.213084,
    0.371684,
    -0.104002,
    0.403556,
    0.485265,
    0.936541,
    -1.666473,
    0.041957,
    0.695685,
    -0.918975,
    0.103110,
    1.012956,
    -1.667157,
    -1.304223,
    0.586548,
    0.786103,
    -0.323918,
    1.404423,
    -0.186185,
    -0.627250,
    1.063635,
    -0.999345,
    1.384227,
    0.125982,
    0.707230,
    -1.707021,
    0.285934,
    1.075100,
    0.121825,
    -0.633131,
    -0.781957,
    -2.576678,
    -1.212886,
    0.476680,
    -0.088539,
    1.612134,
    -0.170744,
    -2.130655,
    -0.040648,
    -0.553171,
    1.432884,
    -1.043202,
    -0.263624,
    0.445085,
    0.117121,
    -0.169319,
    3.059959,
    -1.367567,
    1.539567,
    -1.055323,
    -0.419486,
    0.304434,
    1.635895,
    -0.702911,
    0.513438,
    -1.133510,
    -0.874787,
    -0.754954,
    0.153506,
    -0.431436,
    -0.807335,
    -0.023202,
    -0.520687,
    -0.459527,
    1.062125,
    1.181819,
    -1.621702,
    0.222741,
    -0.790595,
    -0.659779,
    -0.118068,
    -1.464130,
    -0.419489,
    -0.512160,
    0.910533,
    0.699896,
    -0.323176,
    -1.542189,
    -0.044154,
    -0.202151,
    0.272110,
    -1.148859,
    -0.120266,
    -0.454325,
    -0.709038,
    0.573290,
    0.206587,
    2.304791,
    1.164291,
    -1.387946,
    -0.975888,
    -1.964142,
    -0.802050,
    0.087458,
    -0.283068,
    -0.248191,
    1.809438,
    0.093255,
    0.227305,
    -0.986002,
    -0.174226,
    0.408370,
    0.324806,
    -1.251108,
    0.906770,
    2.275574,
    0.178092,
    -0.610130,
    0.584206,
    0.113325,
    -1.186320,
    -1.179941,
    -0.021524,
    -0.407032,
    0.022643,
    1.193478,
    1.322902,
    -1.291654,
    -2.423625,
    -1.434551,
    -1.179001,
    -1.479557,
    0.193900,
    0.141531,
    0.284305,
    1.029527,
    -1.757737,
    -0.726198,
    1.955141,
    -0.557105,
    -0.477808,
    1.489090,
    -1.124071,
    0.308959,
    -0.519885,
    -1.160711,
    -0.156374,
    -1.224219,
    0.473330,
    -0.328426,
    -1.278753,
    -2.691570,
    0.549993,
    0.314394,
    -1.067445,
    1.888979,
    -0.524242,
    -0.925849,
    -0.517905,
    0.359432,
    0.596132,
    -0.975762,
    -2.158191,
    -0.774609,
    1.528878,
    0.880248,
    0.406081,
    -0.860708,
    0.965528,
    -0.458702,
    -0.798464,
    -0.634029,
    -0.974931,
    0.774506,
    -0.129421,
    0.391990,
    0.233184,
    0.741449,
    -1.019771,
    0.506705,
    -0.918722,
    -0.775629,
    -0.086752,
    -0.083628,
    -1.875578,
    -0.068666,
    0.941521,
    -0.395940,
    2.212140,
    -1.708030,
    0.555759,
    0.744708,
    -1.668802,
    -0.496757,
    -0.879527,
    -0.359146,
    1.593292,
    0.829118,
    -0.304388,
    -0.653537,
    -1.094881,
    1.474515,
    -1.311960,
    -0.757946,
    -1.103379,
    0.440614,
    2.295938,
    -0.698356,
    -0.745327,
    1.491615,
    -2.549773,
    -1.179677,
    -0.102680,
    0.309986,
    -0.164667,
    0.990133,
    1.024261,
    0.108047,
    -0.847214,
    0.687578,
    -0.444627,
    -0.658764,
    0.741965,
    0.113539,
    -0.249262,
    -2.384149,
    0.881001,
    -0.561456,
    -1.515148,
    0.754127,
    -0.890487,
    -0.388106,
    -0.665287,
    1.350094,
    -0.341109,
    -0.109157,
    -0.848090,
    -0.363441,
    0.546527,
    -1.744833,
    -0.855704,
    1.122054,
    -0.562314,
    0.835307,
    0.404148,
    -0.380772,
    0.553003,
    0.788489,
    0.644410,
    1.749103,
    -1.648768,
    0.356801,
    -1.943671,
    -0.438841,
    -0.063777,
    1.090629,
    -0.595239,
    0.275453,
    0.821353,
    -0.139931,
    -0.397998,
    0.606313,
    -0.110877,
    1.861213,
    -0.799171,
    -1.256529,
    1.515852,
    -0.928506,
    -1.515117,
    0.264708,
    1.490964,
    0.970154,
    -0.780525,
    0.370774,
    -0.343105,
    1.131187,
    0.184481,
    -0.211014,
    -2.037345,
    1.380988,
    -1.526443,
    2.515819,
    0.038851,
    -0.496185,
    -0.443041,
    0.030151,
    -0.490812,
    0.340199,
    -0.487090,
    -0.912490,
    1.481158,
    0.401601,
    0.616181,
    -0.941188,
    0.146899,
    0.907902,
    -0.994162,
    1.075508,
    0.026329,
    0.596968,
    0.867493,
    -1.111620,
    0.652410,
    -1.267628,
    -1.092956,
    -1.633881,
    0.480520,
    -0.782497,
    1.447014,
    1.062611,
    -0.949713,
    -2.334267,
    -0.180899,
    1.304739,
    -0.282441,
    -2.641615,
    -0.907875,
    0.665509,
    -0.283376,
    -0.760541,
    0.707594,
    -0.655798,
    1.348998,
    -0.355867,
    -1.218079,
    -1.042542,
    -0.410895,
    -0.775045,
    -0.487191,
    1.440065,
    0.173415,
    -1.679998,
    -0.159855,
    -0.104356,
    0.055407,
    0.105460,
    0.204569,
    0.170016,
    0.709104,
    -0.057541,
    -0.143466,
    1.494666,
    -3.453771,
    0.089893,
    0.384336,
    -0.699564,
    -2.455615,
    0.131799,
    0.459363,
    -0.147119,
    2.286086,
    0.865010,
    1.049542,
    -0.228610,
    0.825133,
    -0.570669,
    0.481626,
    -0.555070,
    -0.650008,
    1.350768,
    0.100484,
    0.936303,
    -0.620605,
    -0.684420,
    -0.689739,
    -0.393070,
    0.886684,
    -0.082788,
    0.673829,
    -1.372542,
    1.825491,
    -0.120786,
    1.798821,
    1.398528,
    0.558655,
    -0.935415,
    -0.225870,
    1.336323,
    -0.336409,
    -1.049594,
    0.169832,
    -0.753763,
    1.563589,
    0.317376,
    -0.323580,
    -0.988843,
    0.190446,
    -0.223731,
    0.613261,
    0.360841,
    -0.572785,
    0.064609,
    0.152787,
    -2.473141,
    0.068954,
    0.302998,
    -0.465238,
    0.737305,
    0.897396,
    1.196237,
    0.645912,
    0.752779,
    2.399404,
    0.018489,
    0.297805,
    0.197152,
    0.191001,
    -0.451616,
    0.419620,
    -0.343196,
    -0.495438,
    -0.084851,
    -0.496257,
    -0.581770,
    0.677606,
    -2.188793,
    -0.226126,
    -0.417841,
    0.782524,
    0.448024,
    0.002994,
    -0.348616,
    -0.456055,
    -0.197343,
    0.951243,
    -1.215672,
    -1.812780,
    -1.676016,
    -1.683662,
    -1.498842,
    -0.137028,
    -0.557185,
    -0.366821,
    0.566971,
    0.081066,
    0.660059,
    -1.006904,
    0.786773,
    1.678912,
    -0.265388,
    0.071739,
    -1.187508,
    -0.214925,
    0.792148,
    -1.766509,
    0.608210,
    -0.405582,
    0.033909,
    1.803281,
    -0.740773,
    0.756453,
    0.427285,
    -1.160918,
    -0.399153,
    0.007220,
    -0.037677,
    1.246371,
    0.158089,
    0.654956,
    -0.776070,
    0.581232,
    0.132806,
    -0.034844,
    -0.792343,
    0.024793,
    1.068491,
    0.884516,
    0.699997,
    1.798546,
    -0.110107,
    1.156325,
    -1.961652,
    -0.265230,
    1.973057,
    -1.423122,
    0.040527,
    0.266549,
    1.310579,
    -0.133607,
    1.198373,
    -0.027149,
    -0.386582,
    -1.093794,
    2.371890,
    0.191113,
    -1.223055,
    -0.566158,
    0.479861,
    -0.871830,
    0.936028,
    0.243151,
    0.568323,
    0.666800,
    -0.751395,
    0.697648,
    1.409996,
    -1.044394,
    -0.409277,
    0.347261,
    0.821541,
    -0.115156,
    0.731152,
    0.275014,
    0.326399,
    2.151358,
    0.866316,
    2.218746,
    0.228771,
    -0.772222,
    0.226977,
    1.177612,
    1.416358,
    -1.172918,
    1.136447,
    -0.481316,
    0.576197,
    -0.620862,
    -1.283017,
    -0.260355,
    1.781307,
    1.481691,
    1.127241,
    0.527355,
    0.075540,
    -0.072574,
    -0.878737,
    -0.508569,
    0.174545,
    1.166706,
    -0.728644,
    -0.497480,
    -0.404658,
    -0.161006,
    0.188229,
    1.667920,
    0.938138,
    -2.503926,
    0.219348,
    -0.182980,
    -1.137552,
    1.409479,
    -1.794121,
    -1.643220,
    0.134818,
    0.152057,
    -0.820878,
    1.329778,
    1.531807,
    1.620986,
    0.604212,
    0.998329,
    -1.159800,
    -0.490049,
    0.628493,
    0.752584,
    -1.115981,
    0.497827,
    1.660354,
    -0.649584,
    -0.194154,
    0.604563,
    -0.657691,
    -0.827972,
    -0.169353,
    0.646692,
    -1.566241,
    1.020173,
    -0.048818,
    0.010561,
    -0.105837,
    -0.652938,
    0.369641,
    -0.363641,
    0.441511,
    -0.606761,
    -0.577835,
    -1.526032,
    1.643012,
    0.829858,
    -0.689944,
    -0.724313,
    0.051444,
    0.368180,
    1.157262,
    -0.385149,
    -0.625146,
    -0.534042,
    -1.166321,
    1.910589,
    -0.685916,
    -0.952577,
    -0.265563,
    -0.334534,
    -1.070750,
    0.817235,
    -0.146052,
    -1.937744,
    0.286157,
    0.127112,
    -0.732202,
    -0.151388,
    -0.498982,
    -1.741761,
    1.797366,
    -0.903557,
    -0.256612,
    0.244819,
    -1.164026,
    -1.919487,
    0.356261,
    -1.706270,
    0.295417,
    -0.724653,
    0.094164,
    2.789057,
    1.911231,
    -0.196698,
    -0.394870,
    -0.215709,
    -1.122528,
    -0.356741,
    -1.622819,
    -0.333072,
    -1.849519,
    -0.774186,
    -0.806666,
    -0.904707,
    1.017015,
    0.100580,
    1.644890,
    0.564463,
    0.469340,
    -1.967707,
    -0.097204,
    -0.848104,
    -0.357027,
    0.092600,
    -1.111822,
    0.083355,
    -0.455763,
    0.507646,
    1.313708,
    0.528895,
    0.958413,
    1.024032,
    -0.018000,
    -0.766154,
    0.289119,
    -0.835587,
    -0.335752,
    1.021965,
    -0.277440,
    -2.169374,
    0.686458,
    -0.139602,
    -2.460112,
    0.489668,
    -0.366158,
    0.812015,
    1.066699,
    0.564545,
    -1.158981,
    0.068493,
    -0.812170,
    1.099076,
    -0.186841,
    0.784293,
    -0.071714,
    1.800070,
    -0.682369,
    1.807340,
    0.580671,
    -1.008756,
    -1.130906,
    -1.925275,
    -1.291033,
    -1.844344,
    -1.567369,
    -1.322190,
    0.260148,
    0.256313,
    0.249132,
    -0.635982,
    0.235201,
    -0.911338,
    0.850743,
    -1.334575,
    0.572691,
    -0.521163,
    0.745285,
    1.500326,
    1.549587,
    0.420849,
    1.654517,
    -0.652876,
    0.517547,
    0.275461,
    -0.196219,
    -0.150075,
    -0.201586,
    -0.779727,
    -0.596000,
    -1.947075,
    0.297644,
    0.849579,
    -1.820669,
    -0.879931,
    0.771220,
    -0.293648,
    -0.400448,
    -0.150196,
    -0.679120,
    1.228017,
    -1.009247,
    0.116431,
    -0.147754,
    0.900291,
    1.244065,
    0.829416,
    -0.864345,
    0.551877,
    -1.478285,
    1.844082,
    0.732644,
    0.240053,
    0.086694,
    1.784961,
    -1.005430,
    -0.649715,
    -0.582136,
    0.018205,
    -1.107491,
    0.907069,
    -0.067799,
    -0.753360,
    -0.112058,
    0.158145,
    0.637822,
    0.764962,
    0.525407,
    -0.711826,
    1.683811,
    -2.235817,
    -0.320498,
    2.220377,
    -1.563974,
    -0.107721,
    -0.889365,
    1.019633,
    1.588676,
    1.940402,
    0.761390,
    -0.534192,
    1.608371,
    -0.236870,
    0.556389,
    -0.981791,
    -0.483377,
    -1.474666,
    0.487096,
    0.403299,
    0.432459,
    -0.914583,
    1.008880,
    1.891430,
    -0.028326,
    -0.038754,
    0.079384,
    0.432735,
    0.679460,
    0.290111,
    0.703102,
    1.508264,
    0.847974,
    2.017924,
    -0.823981,
    0.646616,
    0.552106,
    0.484200,
    0.573016,
    0.387587,
    -0.423481,
    -0.001344,
    -1.693097,
    -0.567096,
    0.970295,
    -0.958000,
    -0.618631,
    0.580262,
    1.323622,
    0.712690,
    -0.472782,
    -0.628670,
    1.555802,
    0.016665,
    -0.355932,
    -0.116746,
    -1.337240,
    0.853235,
    0.157750,
    -0.809896,
    -0.258563,
    -2.575754,
    1.380828,
    1.594457,
    1.581830,
    0.963071,
    2.060013,
    0.675448,
    -0.326527,
    -1.404855,
    -0.124367,
    -1.199242,
    -0.993694,
    -0.240649,
    -0.702561,
    -0.452310,
    -0.344175,
    -0.884277,
    2.180748,
    -0.304963,
    0.812731,
    2.686271,
    0.926970,
    -0.003621,
    0.307154,
    0.115618,
    -0.292759,
    -0.759965,
    -0.103258,
    0.784076,
    -0.269942,
    -1.426889,
    1.653254,
    0.293680,
    -1.300669,
    -0.075151,
    -1.167006,
    -1.440391,
    -0.576571,
    -2.122801,
    1.017317,
    -2.398332,
    -1.981027,
    -0.750588,
    0.638706,
    1.254394,
    0.076000,
    1.165697,
    0.843234,
    -0.136469,
    0.492063,
    -0.731632,
    -3.035125,
    -0.106895,
    0.791604,
    0.366547,
    -0.552362,
    -1.072253,
    0.681880,
    0.786603,
    -0.612973,
    2.473959,
    -0.349670,
    0.228459,
    -0.360612,
    -1.453607,
    0.190046,
    -1.024039,
    -1.137373,
    -0.223214,
    -0.561857,
    -0.551001,
    0.301625,
    -0.354815,
    0.671322,
    -1.032812,
    -0.497356,
    0.060955,
    0.681683,
    -0.595443,
    -0.004706,
    0.756535,
    1.752014,
    -1.251939,
    0.399790,
    -0.362973,
    -0.534189,
    1.655640,
    -1.077947,
    0.472484,
    1.484316,
    -0.552849,
    1.717936,
    0.078486,
    0.046887,
    -1.298651,
    -0.098581,
    -0.554254,
    0.141011,
    -1.017258,
    -0.956619,
    2.864167,
    0.019492,
    1.578298,
    0.042541,
    0.023114,
    -0.142872,
    -0.458068,
    -0.487027,
    0.125535,
    1.396834,
    -1.821413,
    -0.419595,
    1.141012,
    -2.356571,
    1.614525,
    -1.856725,
    -0.436867,
    0.406324,
    -0.138334,
    1.316964,
    -0.684906,
    0.573472,
    0.315450,
    -1.508776,
    -1.377466,
    -1.101431,
    -0.234320,
    3.105960,
    0.045542,
    -0.354976,
    0.312419,
    -0.636460,
    -1.371590,
    -0.137681,
    -0.407272,
    -1.187450,
    -0.143814,
    -0.521454,
    -1.610545,
    -0.366403,
    -0.794508,
    0.085510,
    -0.092029,
    0.459525,
    -0.540015,
    0.980709,
    -0.793419,
    -0.288774,
    -1.508531,
    -1.055820,
    -0.601111,
    -1.319175,
    0.539660,
    1.151780,
    -0.418226,
    1.205188,
    0.522479,
    -0.250831,
    0.244458,
    -0.074419,
    -0.832586,
    0.313846,
    -1.303214,
    -0.262995,
    -0.720042,
    -0.811307,
    -1.424490,
    -0.740229,
    0.504574,
    0.483683,
    0.461665,
    -2.223177,
    -1.471766,
    0.133144,
    1.070599,
    -0.251616,
    0.316858,
    0.692452,
    1.937470,
    -0.947369,
    0.087694,
    -0.134689,
    1.812832,
    -0.032542,
    1.605046,
    0.443374,
    0.687966,
    0.024756,
    -0.133245,
    2.253032,
    1.117111,
    -1.545177,
    -0.874150,
    0.645501,
    -0.665259,
    -0.498662,
    0.263619,
    0.533919,
    -0.896237,
    0.632481,
    -0.634572,
    -0.264796,
    -1.340424,
    -0.525079,
    -0.823536,
    -0.113098,
    -2.599787,
    0.670243,
    0.988515,
    0.652728,
    0.537562,
    0.308539,
    0.773188,
    -0.913842,
    -0.265942,
    0.470801,
    -2.312497,
    -1.180551,
    0.420836,
    -0.019198,
    0.522942,
    0.006523,
    -1.576496,
    -0.505940,
    -0.043945,
    -0.851899,
    -1.296825,
    -1.068616,
    -0.166219,
    0.392135,
    -0.617686,
    0.403864,
    -0.834682,
    0.615592,
    2.229487,
    -0.546478,
    -1.400263,
    -0.294956,
    0.116069,
    -0.056407,
    -0.898724,
    1.287826,
    0.468062,
    -0.486781,
    0.034428,
    -1.422026,
    -0.909945,
    -1.933385,
    1.377328,
    1.192993,
    1.362395,
    0.468687,
    0.117616,
    0.530082,
    0.161062,
    0.616814,
    -1.491664,
    -1.230052,
    0.711835,
    1.039433,
    -2.054143,
    -1.007029,
    0.432318,
    2.573413,
    1.095624,
    -0.492676,
    -0.245293,
    0.048072,
    1.001952,
    0.962251,
    0.591271,
    0.241145,
    -0.818864,
    -1.055939,
    0.797780,
    0.040451,
    1.844985,
    0.866268,
    -0.299683,
    0.520057,
    -1.109901,
    -0.692484,
    0.330956,
    0.868340,
    -1.025547,
    -1.367029,
    0.166578,
    -0.874198,
    0.012516,
    -0.017828,
    0.304019,
    0.008245,
    -1.495256,
    1.227570,
    -0.326929,
    1.926793,
    -0.207802,
    -1.559609,
    0.531929,
    0.451541,
    0.016102,
    -1.011770,
    -1.074944,
    0.441549,
    -0.318585,
    0.125747,
    -0.380068,
    -0.726911,
    -1.885935,
    -0.018265,
    -0.832485,
    -0.794057,
    1.116752,
    -0.931173,
    0.647002,
    -0.284537,
    -0.563575,
    -1.023057,
    0.898671,
    1.204098,
    0.685655,
    -0.145523,
    0.224513,
    -0.252697,
    -0.824922,
    1.455020,
    1.955425,
    1.541317,
    -1.530208,
    0.747587,
    0.483337,
    -0.510876,
    0.211505,
    0.934184,
    1.064629,
    -1.561786,
    -0.245731,
    0.199677,
    -0.915808,
    -1.730664,
    -1.565444,
    0.765245,
    -0.365024,
    -2.045500,
    -0.353980,
    -1.143321,
    0.058433,
    0.142239,
    0.185050,
    -0.101969,
    -1.072063,
    2.076427,
    -1.158340,
    0.335096,
    -1.508262,
    1.333502,
    0.082451,
    1.174973,
    3.527210,
    -0.869169,
    -0.852037,
    0.699407,
    -0.370065,
    1.505727,
    -0.780623,
    1.177851,
    -1.005113,
    -1.109332,
    -0.383054,
    0.303722,
    0.452492,
    1.629321,
    -0.006512,
    -1.010289,
    1.557327,
    1.912269,
    -0.515331,
    0.457036,
    0.758009,
    0.750552,
    -0.481762,
    0.899564,
    1.348830,
    -0.380199,
    -0.637755,
    -0.199136,
    0.344230,
    -0.915899,
    0.090578,
    -1.678506,
    -0.945237,
    -0.734429,
    -1.037978,
    -0.300931,
    2.433767,
    1.005814,
    0.554206,
    0.819008,
    0.746368,
    0.093405,
    -2.216264,
    -1.033120,
    -1.092368,
    -1.175588,
    0.751577,
    1.249587,
    1.392197,
    -0.021706,
    -0.751206,
    1.140736,
    -0.158228,
    -0.143525,
    0.252867,
    0.833625,
    -0.203362,
    -2.092498,
    0.133519,
    0.106361,
    0.140363,
    1.567615,
    1.606117,
    -0.566414,
    -1.146282,
    0.754557,
    -0.289299,
    1.180327,
    -0.816801,
    0.445149,
    0.657045,
    0.698203,
    -0.459692,
    -0.697639,
    0.121241,
    0.916837,
    -2.207081,
    1.439398,
    0.446231,
    -1.877385,
    -1.405765,
    -0.812045,
    0.991665,
    1.197163,
    -2.159961,
    0.002116,
    -1.072389,
    0.049201,
    0.713341,
    -0.370161,
    0.566768,
    -1.244851,
    -1.028157,
    0.331434,
    0.088731,
    -0.730043,
    -0.310924,
    0.395849,
    0.421645,
    0.633196,
    -0.688572,
    0.275406,
    -0.057378,
    -1.187364,
    -0.469988,
    1.032785,
    0.994840,
    -0.323412,
    -1.787698,
    -0.105434,
    -1.442661,
    -1.802463,
    0.739845,
    1.968993,
    2.223627,
    -0.032417,
    0.398252,
    1.212738,
    0.521329,
    -1.171184,
    -0.779698,
    1.890190,
    -0.097265,
    0.337853,
    -1.553989,
    -1.122680,
    -1.689662,
    2.197357,
    -0.694169,
    -0.662086,
    -1.145282,
    -0.705788,
    -0.815535,
    -0.737915,
    -0.340715,
    1.480592,
    -1.470212,
    -1.999204,
    -0.708580,
    -2.046366,
    -0.355672,
    0.379678,
    -0.822501,
    -0.556386,
    1.862193,
    0.338175,
    0.531964,
    -0.039122,
    -0.917989,
    -0.909373,
    -1.782463,
    0.623974,
    -3.278256,
    -0.434731,
    -1.241568,
    0.487801,
    -0.157291,
    -0.486858,
    -1.386992,
    -0.654630,
    0.871221,
    -0.193541,
    -0.816868,
    -0.458356,
    -1.395575,
    -0.172716,
    -0.519337,
    0.094413,
    -0.597183,
    -1.535858,
    -0.219606,
    -0.713600,
    -0.288942,
    -1.009248,
    0.073478,
    -0.474152,
    0.349277,
    -0.844903,
    1.091120,
    -0.306300,
    0.733686,
    -1.206067,
    -0.548720,
    -0.658846,
    -0.990844,
    0.427278,
    1.243596,
    0.076103,
    -1.623083,
    1.437798,
    1.120364,
    0.509090,
    0.544574,
    0.974044,
    0.283826,
    1.221055,
    -0.022904,
    -0.988772,
    0.425845,
    -1.049296,
    0.177342,
    0.061301,
    -0.298447,
    -0.982419,
    1.206032,
    1.431119,
    -0.245938,
    0.761101,
    -0.478315,
    1.765595,
    -0.418963,
    0.150022,
    -0.333164,
    -1.237668,
    -0.523467,
    -0.032162,
    0.311249,
    -0.391363,
    0.470764,
    1.266983,
    -1.093675,
    3.086937,
    -0.242039,
    1.323847,
    -0.068161,
    0.858430,
    1.134697,
    0.025111,
    -2.344902,
    0.618594,
    1.519148,
    -0.648657,
    -0.073049,
    -0.783074,
    -0.538398,
    0.258840,
    0.528949,
    -0.329034,
    0.125290,
    -1.071991,
    0.835205,
    -0.634023,
    -1.288423,
    0.319014,
    -0.158531,
    1.390997,
    -0.164070,
    1.696083,
    0.118661,
    2.330954,
    0.477125,
    0.065104,
    0.792367,
    1.088089,
    -0.040651,
    1.903624,
    -2.169336,
    0.615936,
    -1.563697,
    0.009754,
    -0.204793,
    0.223782,
    -0.051944,
    -0.671455,
    -0.534806,
    0.554697,
    0.769819,
    -0.070304,
    -0.864835,
    -0.425923,
    -0.296079,
    -0.764567,
    0.421154,
    2.116310,
    -0.039897,
    1.018434,
    -0.320666,
    0.261558,
    2.405729,
    0.593710,
    0.848691,
    0.582457,
    -1.241073,
    -0.297419,
    0.723920,
    0.384251,
    -0.668731,
    0.406727,
    0.545719,
    0.102354,
    -0.050457,
    -0.590849,
    0.933740,
    -0.821596,
    1.301212,
    0.500208,
    -0.351402,
    -1.585157,
    -1.520620,
    -0.703045,
    0.814478,
    1.041717,
    0.724096,
    -0.974172,
    0.456118,
    1.962594,
    0.827808,
    1.740793,
    1.385112,
    -0.552881,
    1.023153,
    -1.300296,
    -1.529060,
    -0.650204,
    0.139457,
    -0.633135,
    1.052115,
    -1.338426,
    -0.405721,
    0.389246,
    1.307136,
    1.021631,
    0.062855,
    1.197208,
    0.039169,
    -0.907432,
    0.319272,
    -1.280313,
    -1.204470,
    -1.599918,
    -0.420097,
    -0.730451,
    0.435203,
    0.317960,
    0.360506,
    2.374164,
    0.478879,
    -0.680047,
    -2.624793,
    -0.150000,
    1.300043,
    -1.962530,
    -0.509945,
    0.198737,
    -1.125403,
    -2.416924,
    -0.950118,
    0.267942,
    0.436997,
    0.440145,
    1.891790,
    0.166875,
    0.553394,
    -1.992306,
    -1.625527,
    0.274545,
    -3.112822,
    -0.127225,
    0.151033,
    -1.587552,
    -2.093778,
    -0.262138,
    1.221093,
    -0.772121,
    2.208951,
    -1.845804,
    -0.734610,
    -0.815498,
    -1.760755,
    -1.157282,
    -0.855793,
    0.448698,
    -1.636941,
    0.905928,
    0.261630,
    -0.500251,
    -0.262826,
    0.549005,
    1.650601,
    0.644110,
    1.189235,
    0.776710,
    -2.706550,
    -0.189119,
    -1.500841,
    -1.117042,
    -0.324884,
    -0.100311,
    -0.552847,
    -1.805833,
    -1.914009,
    0.271075,
    -0.373443,
    1.104115,
    -0.740866,
    -0.043737,
    -0.359580,
    -0.097369,
    0.190153,
    -0.770021,
    0.030883,
    0.394749,
    1.224108,
    1.254276,
    1.128770,
    2.246391,
    -0.001361,
    -0.077333,
    0.279943,
    -1.221069,
    -1.358153,
    -0.661048,
    -1.162728,
    -1.522778,
    -1.244179,
    -1.345439,
    0.269363,
    -0.813396,
    -0.415529,
    0.388336,
    -1.099654,
    1.771886,
    1.391633,
    0.460047,
    -0.291433,
    -0.122358,
    -0.243354,
    0.713795,
    1.403315,
    -0.355533,
    -1.036775,
    0.911202,
    1.132880,
    0.641781,
    0.271207,
    -1.497873,
    0.147389,
    -1.522000,
    -0.586294,
    -2.377514,
    -2.528374,
    -0.879193,
    -0.167938,
    -0.654200,
    0.303237,
    0.674566,
    2.087794,
    2.225953,
    -1.215687,
    -1.001717,
    0.130689,
    -0.680637,
    0.366355,
    0.017880,
    0.458547,
    0.733870,
    -0.922835,
    1.458274,
    1.454979,
    -0.866453,
    2.016585,
    -1.527715,
    -0.621239,
    -0.574498,
    -0.735455,
    -1.026198,
    -1.721377,
    0.095957,
    -0.300140,
    0.934951,
    1.053316,
    1.401470,
    -1.420158,
    -0.607267,
    -0.884721,
    -0.279779,
    -0.287296,
    0.041477,
    -0.701085,
    0.514810,
    -0.152151,
    -0.889826,
    0.382692,
    0.107300,
    -0.178493,
    0.595134,
    -0.093684,
    -0.205262,
    -1.347735,
    1.652801,
    -1.343485,
    -0.754570,
    -0.898176,
    -1.256572,
    -1.719633,
    -1.676637,
    -0.886510,
    -0.113688,
    -1.499338,
    -0.229620,
    2.151911,
    0.266223,
    1.373712,
    2.248641,
    1.115493,
    -0.455936,
    1.702204,
    -0.302556,
    0.771721,
    1.743328,
    -0.602552,
    1.821387,
    -0.046315,
    0.458969,
    0.842588,
    -0.163597,
    -2.458838,
    -2.021508,
    -0.969234,
    -0.562135,
    -2.282733,
    0.201282,
    -2.067884,
    -0.016900,
    0.872183,
    0.767194,
    -0.284773,
    1.267109,
    0.582453,
    0.213184,
    -0.883482,
    0.741723,
    -0.348183,
    -1.482901,
    -0.730906,
    0.440052,
    1.177471,
    1.812163,
    -0.252775,
    -0.602550,
    -0.201665,
    -0.086184,
    -2.211633,
    -1.682371,
    -0.331464,
    -1.118650,
    -2.686127,
    -2.261484,
    -0.946369,
    0.742004,
    0.557172,
    -1.002573,
    1.538046,
    -0.134699,
    0.897976,
    -1.197053,
    -0.633732,
    -0.698935,
    0.515387,
    -0.163242,
    1.049590,
    1.052268,
    -0.627875,
    -1.065126,
    0.689473,
    1.166873,
    1.119695,
    -1.746008,
    -0.401116,
    0.287734,
    0.913500,
    0.226111,
    -0.227759,
    -1.515120,
    0.097630,
    -0.210901,
    -0.677547,
    -1.311237,
    -0.528194,
    1.042230,
    0.520422,
    0.458324,
    0.097947,
    0.028689,
    1.822886,
    1.722701,
    -1.331433,
    1.187325,
    -0.041162,
    1.387235,
    -1.628673,
    -0.581910,
    -0.667234,
    -1.517811,
    1.917510,
    1.626582,
    -0.632195,
    0.194472,
    1.451183,
    -0.329450,
    1.648133,
    0.461401,
    0.727803,
    -0.166478,
    0.829106,
    -0.710090,
    -0.300047,
    -0.138117,
    1.345275,
    -0.973386,
    0.155866,
    1.751805,
    -1.068186,
    0.547059,
    0.822527,
    0.038972,
